{"learner":{"attributes":{"best_iteration":"199","best_ntree_limit":"200"},"feature_names":["current_balance","average_monthly_payment","payment_ratio","number_of_late_payments","months_since_last_late_payment","number_of_credit_inquiries","current_limit","average_utilization"],"feature_types":["float","float","float","int","int","int","float","float"],"gradient_booster":{"model":{"gbtree_model_param":{"num_parallel_tree":"1","num_trees":"200","size_leaf_vector":"0"},"tree_info":[0,0,0,0,0,0,0,0,0,0,0,0,0,0,0,0,0,0,0,0,0,0,0,0,0,0,0,0,0,0,0,0,0,0,0,0,0,0,0,0,0,0,0,0,0,0,0,0,0,0,0,0,0,0,0,0,0,0,0,0,0,0,0,0,0,0,0,0,0,0,0,0,0,0,0,0,0,0,0,0,0,0,0,0,0,0,0,0,0,0,0,0,0,0,0,0,0,0,0,0,0,0,0,0,0,0,0,0,0,0,0,0,0,0,0,0,0,0,0,0,0,0,0,0,0,0,0,0,0,0,0,0,0,0,0,0,0,0,0,0,0,0,0,0,0,0,0,0,0,0,0,0,0,0,0,0,0,0,0,0,0,0,0,0,0,0,0,0,0,0,0,0,0,0,0,0,0,0,0,0,0,0,0,0,0,0,0,0,0,0,0,0,0,0,0,0,0,0,0,0],"trees":[{"base_weights":[-1.3992004E0,1.973257E0,-1.9906056E0,1.988417E0,4E-1,-1.5384616E-1,-1.997306E0,1.2727273E0,-1E0,-1.2941177E0,1.3846154E0,-5E-1,-1.9979781E0],"categories":[],"categories_nodes":[],"categories_segments":[],"categories_sizes":[],"default_left":[1,1,1,0,1,1,1,0,0,0,0,0,0],"id":0,"left_children":[1,3,5,-1,7,9,11,-1,-1,-1,-1,-1,-1],"loss_changes":[3.4962773E3,5.447571E0,1.8033203E1,0E0,5.8545456E0,1.3194571E1,4.951172E-1,0E0,0E0,0E0,0E0,0E0,0E0],"parents":[2147483647,0,0,1,1,2,2,4,4,5,5,6,6],"right_children":[2,4,6,-1,8,10,12,-1,-1,-1,-1,-1,-1],"split_conditions":[7.5E0,7.731216E-1,8.5E0,9.942085E-2,5E0,2.5E0,1.369546E-1,6.363636E-2,-5E-2,-6.4705886E-2,6.923077E-2,-2.5E-2,-9.9898905E-2],"split_indices":[4,2,4,0,4,5,2,0,0,0,0,0,0],"split_type":[0,0,0,0,0,0,0,0,0,0,0,0,0],"sum_hessian":[1.75E3,2.6075E2,1.48925E3,2.58E2,2.75E0,5.5E0,1.48375E3,1.75E0,1E0,3.25E0,2.25E0,1E0,1.48275E3],"tree_param":{"num_deleted":"0","num_feature":"8","num_nodes":"13","size_leaf_vector":"0"}},{"base_weights":[-1.3326046E0,1.8796948E0,-1.8959454E0,1.8941163E0,3.838888E-1,-1.4559591E-1,-1.9023399E0,-6.5177166E-1,1.1625367E0,-1.2535434E0,1.3481063E0],"categories":[],"categories_nodes":[],"categories_segments":[],"categories_sizes":[],"default_left":[1,1,1,0,1,1,0,0,0,0,0],"id":1,"left_children":[1,3,5,-1,7,9,-1,-1,-1,-1,-1],"loss_changes":[3.1643555E3,4.9055786E0,1.6361816E1,0E0,3.779833E0,1.2436958E1,0E0,0E0,0E0,0E0,0E0],"parents":[2147483647,0,0,1,1,2,2,4,4,5,5],"right_children":[2,4,6,-1,8,10,-1,-1,-1,-1,-1],"split_conditions":[7.5E0,7.731216E-1,8.5E0,9.470581E-2,1.5E0,5.469551E-1,-9.5116995E-2,-3.2588582E-2,5.8126837E-2,-6.267717E-2,6.740531E-2],"split_indices":[4,2,4,0,3,7,0,0,0,0,0],"split_type":[0,0,0,0,0,0,0,0,0,0,0],"sum_hessian":[1.7456616E3,2.601111E2,1.4855505E3,2.573635E2,2.7476048E0,5.493907E0,1.4800566E3,1.2491224E0,1.4984825E0,3.246563E0,2.247344E0],"tree_param":{"num_deleted":"0","num_feature":"8","num_nodes":"11","size_leaf_vector":"0"}},{"base_weights":[-1.2750112E0,1.7987485E0,-1.8141155E0,1.8125492E0,3.720214E-1,-1.3792089E-1,-1.8202655E0,1.1382207E0,-6.442464E-1,-1.2081581E0,1.3041891E0,-5.9331715E-1,-1.8209006E0],"categories":[],"categories_nodes":[],"categories_segments":[],"categories_sizes":[],"default_left":[1,1,1,0,1,1,1,0,0,0,0,0,0],"id":2,"left_children":[1,3,5,-1,7,9,11,-1,-1,-1,-1,-1,-1],"loss_changes":[2.8775354E3,4.431885E0,1.4966309E1,0E0,3.6475914E0,1.1574665E1,6.542969E-2,0E0,0E0,0E0,0E0,0E0,0E0],"parents":[2147483647,0,0,1,1,2,2,4,4,5,5,6,6],"right_children":[2,4,6,-1,8,10,12,-1,-1,-1,-1,-1,-1],"split_conditions":[7.5E0,7.731216E-1,8.5E0,9.062746E-2,3.5E0,5.469551E-1,1.4914852E-1,5.6911033E-2,-3.221232E-2,-6.0407907E-2,6.5209456E-2,-2.9665858E-2,-9.104503E-2],"split_indices":[4,2,4,0,4,7,2,0,0,0,0,0,0],"split_type":[0,0,0,0,0,0,0,0,0,0,0,0,0],"sum_hessian":[1.7335433E3,2.5832718E2,1.4752162E3,2.5558449E2,2.7426903E0,5.4785542E0,1.4697377E3,1.4953179E0,1.2473724E0,3.2378604E0,2.2406938E0,1.2440395E0,1.4684937E3],"tree_param":{"num_deleted":"0","num_feature":"8","num_nodes":"13","size_leaf_vector":"0"}},{"base_weights":[-1.2247856E0,1.7280414E0,-1.7427696E0,1.741357E0,3.6071905E-1,-1.3080943E-1,-1.7487216E0,-6.369927E-1,1.1149597E0,-1.1732792E0,1.2729603E0,-5.7759815E-1,-1.7493243E0],"categories":[],"categories_nodes":[],"categories_segments":[],"categories_sizes":[],"default_left":[1,1,1,0,1,1,1,0,0,0,0,0,0],"id":3,"left_children":[1,3,5,-1,7,9,11,-1,-1,-1,-1,-1,-1],"loss_changes":[2.6274336E3,4.043213E0,1.3782227E1,0E0,3.52147E0,1.0936781E1,1.6113281E-2,0E0,0E0,0E0,0E0,0E0,0E0],"parents":[2147483647,0,0,1,1,2,2,4,4,5,5,6,6],"right_children":[2,4,6,-1,8,10,12,-1,-1,-1,-1,-1,-1],"split_conditions":[7.5E0,7.731216E-1,8.5E0,8.706785E-2,6.486621E-1,2.5E0,1.4914852E-1,-3.1849634E-2,5.5747986E-2,-5.866396E-2,6.3648015E-2,-2.8879909E-2,-8.746622E-2],"split_indices":[4,2,4,0,7,5,2,0,0,0,0,0,0],"split_type":[0,0,0,0,0,0,0,0,0,0,0,0,0],"sum_hessian":[1.7148502E3,2.555757E2,1.4592745E3,2.528399E2,2.7358053E0,5.4530034E0,1.4538215E3,1.2447276E0,1.4910777E0,3.2234178E0,2.2295856E0,1.2412834E0,1.4525802E3],"tree_param":{"num_deleted":"0","num_feature":"8","num_nodes":"13","size_leaf_vector":"0"}},{"base_weights":[-1.1806233E0,1.6657921E0,-1.6800548E0,1.6787313E0,3.4994298E-1,-1.2414296E-1,-1.6858482E0,-6.197352E-1,1.084844E0,-1.1336317E0,1.2347122E0],"categories":[],"categories_nodes":[],"categories_segments":[],"categories_sizes":[],"default_left":[1,1,1,0,1,1,0,0,0,0,0],"id":4,"left_children":[1,3,5,-1,7,9,-1,-1,-1,-1,-1],"loss_changes":[2.407613E3,3.720337E0,1.2767578E1,0E0,3.3283021E0,1.0206415E1,0E0,0E0,0E0,0E0,0E0],"parents":[2147483647,0,0,1,1,2,2,4,4,5,5],"right_children":[2,4,6,-1,8,10,-1,-1,-1,-1,-1],"split_conditions":[7.5E0,7.731216E-1,8.5E0,8.3936565E-2,6.486621E-1,5.469551E-1,-8.429241E-2,-3.098676E-2,5.42422E-2,-5.6681585E-2,6.173561E-2],"split_indices":[4,2,4,0,7,7,0,0,0,0,0],"split_type":[0,0,0,0,0,0,0,0,0,0,0],"sum_hessian":[1.6906381E3,2.5201137E2,1.4386267E3,2.4928429E2,2.7270854E0,5.4200573E0,1.4332067E3,1.2433001E0,1.4837853E0,3.2048962E0,2.215161E0],"tree_param":{"num_deleted":"0","num_feature":"8","num_nodes":"11","size_leaf_vector":"0"}},{"base_weights":[-1.1415085E0,1.6106156E0,-1.6245283E0,1.623262E0,3.3976516E-1,-1.17915116E-1,-1.6301936E0,1.0641655E0,-6.1283237E-1,-1.1036443E0,1.2082328E0,-5.188351E-1,-1.6307925E0],"categories":[],"categories_nodes":[],"categories_segments":[],"categories_sizes":[],"default_left":[1,1,1,0,1,1,1,0,0,0,0,0,0],"id":5,"left_children":[1,3,5,-1,7,9,11,-1,-1,-1,-1,-1,-1],"loss_changes":[2.213062E3,3.4465942E0,1.188623E1,0E0,3.2163317E0,9.672327E0,9.2041016E-2,0E0,0E0,0E0,0E0,0E0,0E0],"parents":[2147483647,0,0,1,1,2,2,4,4,5,5,6,6],"right_children":[2,4,6,-1,8,10,12,-1,-1,-1,-1,-1,-1],"split_conditions":[7.5E0,7.731216E-1,8.5E0,8.11631E-2,3.5E0,2.5E0,1.4914852E-1,5.3208273E-2,-3.064162E-2,-5.5182215E-2,6.041164E-2,-2.5941757E-2,-8.153962E-2],"split_indices":[4,2,4,0,4,5,2,0,0,0,0,0,0],"split_type":[0,0,0,0,0,0,0,0,0,0,0,0,0],"sum_hessian":[1.6618264E3,2.4776872E2,1.4140577E3,2.4505286E2,2.7158647E0,5.3790727E0,1.4086786E3,1.4761842E0,1.2396803E0,3.1818085E0,2.1972644E0,1.2259103E0,1.4074528E3],"tree_param":{"num_deleted":"0","num_feature":"8","num_nodes":"13","size_leaf_vector":"0"}},{"base_weights":[-1.1066818E0,1.5614043E0,-1.5751017E0,1.5738325E0,3.300462E-1,-1.12034254E-1,-1.5806662E0,1.5779326E0,6.0171497E-1,-6.0614365E-1,1.0443085E0,-1.0684925E0,1.1744591E0,-5.0561476E-1,-1.581251E0],"categories":[],"categories_nodes":[],"categories_segments":[],"categories_sizes":[],"default_left":[1,1,1,1,1,1,1,0,0,0,0,0,0,0,0],"id":6,"left_children":[1,3,5,7,9,11,13,-1,-1,-1,-1,-1,-1,-1,-1],"loss_changes":[2.0398866E3,3.2141113E0,1.1116699E1,1.2145996E-2,3.1092222E0,9.046789E0,6.982422E-2,0E0,0E0,0E0,0E0,0E0,0E0,0E0,0E0],"parents":[2147483647,0,0,1,1,2,2,3,3,4,4,5,5,6,6],"right_children":[2,4,6,8,10,12,14,-1,-1,-1,-1,-1,-1,-1,-1],"split_conditions":[7.5E0,7.731216E-1,8.5E0,1.2476858E3,1.5E0,2.5E0,1.4914852E-1,7.8896634E-2,3.0085748E-2,-3.0307183E-2,5.2215427E-2,-5.3424627E-2,5.8722954E-2,-2.5280738E-2,-7.906255E-2],"split_indices":[4,2,4,1,3,5,2,0,0,0,0,0,0,0,0],"split_type":[0,0,0,0,0,0,0,0,0,0,0,0,0,0,0],"sum_hessian":[1.6292227E3,2.42967E2,1.3862557E3,2.4026389E2,2.70312E0,5.3324122E0,1.3809233E3,2.3863419E2,1.6296968E0,1.2353315E0,1.4677886E0,3.1557138E0,2.1766982E0,1.2213289E0,1.3797019E3],"tree_param":{"num_deleted":"0","num_feature":"8","num_nodes":"15","size_leaf_vector":"0"}},{"base_weights":[-1.0754684E0,1.5173482E0,-1.5308537E0,1.5296215E0,3.207563E-1,-1.06500216E-1,-1.5363389E0,-5.901066E-1,1.0182356E0,-1.0421593E0,1.1514829E0,-4.928143E-1,-1.5369141E0],"categories":[],"categories_nodes":[],"categories_segments":[],"categories_sizes":[],"default_left":[1,1,1,0,1,1,1,0,0,0,0,0,0],"id":7,"left_children":[1,3,5,-1,7,9,11,-1,-1,-1,-1,-1,-1],"loss_changes":[1.8850435E3,3.0151978E0,1.0437012E1,0E0,2.9444997E0,8.591322E0,5.3955078E-2,0E0,0E0,0E0,0E0,0E0,0E0],"parents":[2147483647,0,0,1,1,2,2,4,4,5,5,6,6],"right_children":[2,4,6,-1,8,10,12,-1,-1,-1,-1,-1,-1],"split_conditions":[7.5E0,7.731216E-1,8.5E0,7.6481074E-2,6.486621E-1,5.469551E-1,1.4914852E-1,-2.9505331E-2,5.091178E-2,-5.2107967E-2,5.757415E-2,-2.4640715E-2,-7.6845706E-2],"split_indices":[4,2,4,0,7,7,2,0,0,0,0,0,0],"split_type":[0,0,0,0,0,0,0,0,0,0,0,0,0],"sum_hessian":[1.5935388E3,2.3771791E2,1.3558209E3,2.3502893E2,2.68897E0,5.2795415E0,1.3505414E3,1.2328681E0,1.4561021E0,3.126033E0,2.1535084E0,1.2164959E0,1.3493248E3],"tree_param":{"num_deleted":"0","num_feature":"8","num_nodes":"13","size_leaf_vector":"0"}},{"base_weights":[-1.0474013E0,1.477577E0,-1.4910495E0,1.4940101E0,5.1788217E-1,-1.01241626E-1,-1.4964753E0,1.2277738E0,-1.0819695E0,-1.0106697E0,1.1213973E0,-4.8041403E-1,-1.4970448E0],"categories":[],"categories_nodes":[],"categories_segments":[],"categories_sizes":[],"default_left":[1,1,1,0,1,1,1,0,0,0,0,0,0],"id":8,"left_children":[1,3,5,-1,7,9,11,-1,-1,-1,-1,-1,-1],"loss_changes":[1.7456577E3,2.9023438E0,9.834473E0,0E0,7.5234523E0,8.05207E0,4.4189453E-2,0E0,0E0,0E0,0E0,0E0,0E0],"parents":[2147483647,0,0,1,1,2,2,4,4,5,5,6,6],"right_children":[2,4,6,-1,8,10,12,-1,-1,-1,-1,-1,-1],"split_conditions":[7.5E0,7.493243E-1,8.5E0,7.4700505E-2,5.5E0,5.469551E-1,1.4914852E-1,6.138869E-2,-5.4098476E-2,-5.0533485E-2,5.6069862E-2,-2.4020702E-2,-7.485224E-2],"split_indices":[4,2,4,0,4,7,2,0,0,0,0,0,0],"split_type":[0,0,0,0,0,0,0,0,0,0,0,0,0],"sum_hessian":[1.555375E3,2.3209569E2,1.3232793E3,2.2764098E2,4.454717E0,5.222407E0,1.3180569E3,3.2466657E0,1.2080516E0,3.094221E0,2.1281857E0,1.2114412E0,1.3168455E3],"tree_param":{"num_deleted":"0","num_feature":"8","num_nodes":"13","size_leaf_vector":"0"}},{"base_weights":[-1.0220498E0,1.4415939E0,-1.4550893E0,1.4579687E0,4.9876755E-1,-9.6260846E-2,-1.4604717E0,1.195994E0,-1.0543636E0,-9.875259E-1,1.1015741E0,-4.6839523E-1,-1.4610391E0],"categories":[],"categories_nodes":[],"categories_segments":[],"categories_sizes":[],"default_left":[1,1,1,0,1,1,1,0,0,0,0,0,0],"id":9,"left_children":[1,3,5,-1,7,9,11,-1,-1,-1,-1,-1,-1],"loss_changes":[1.6197325E3,2.7800903E0,9.295166E0,0E0,7.1066E0,7.6648326E0,3.881836E-2,0E0,0E0,0E0,0E0,0E0,0E0],"parents":[2147483647,0,0,1,1,2,2,4,4,5,5,6,6],"right_children":[2,4,6,-1,8,10,12,-1,-1,-1,-1,-1,-1],"split_conditions":[7.5E0,7.493243E-1,8.5E0,7.289844E-2,5.5E0,2.5E0,1.4914852E-1,5.97997E-2,-5.271818E-2,-4.9376294E-2,5.5078704E-2,-2.3419762E-2,-7.305195E-2],"split_indices":[4,2,4,0,4,5,2,0,0,0,0,0,0],"split_type":[0,0,0,0,0,0,0,0,0,0,0,0,0],"sum_hessian":[1.5152648E3,2.2617625E2,1.2890885E3,2.2177809E2,4.398165E0,5.1606135E0,1.2839279E3,3.1941876E0,1.2039775E0,3.0596294E0,2.1009839E0,1.2061923E0,1.2827217E3],"tree_param":{"num_deleted":"0","num_feature":"8","num_nodes":"13","size_leaf_vector":"0"}},{"base_weights":[-9.990493E-1,1.4089191E0,-1.4224739E0,1.4252757E0,4.8084414E-1,-9.150002E-2,-1.4278286E0,1.166255E0,-1.0281843E0,-9.5902383E-1,1.0745131E0,-4.5674095E-1,-1.4283967E0],"categories":[],"categories_nodes":[],"categories_segments":[],"categories_sizes":[],"default_left":[1,1,1,0,1,1,1,0,0,0,0,0,0],"id":10,"left_children":[1,3,5,-1,7,9,11,-1,-1,-1,-1,-1,-1],"loss_changes":[1.5055834E3,2.670044E0,8.811035E0,0E0,6.719473E0,7.1966357E0,3.7109375E-2,0E0,0E0,0E0,0E0,0E0,0E0],"parents":[2147483647,0,0,1,1,2,2,4,4,5,5,6,6],"right_children":[2,4,6,-1,8,10,12,-1,-1,-1,-1,-1,-1],"split_conditions":[7.5E0,7.493243E-1,8.5E0,7.126378E-2,5.5E0,2.5E0,1.4914852E-1,5.831275E-2,-5.1409215E-2,-4.795119E-2,5.3725656E-2,-2.2837048E-2,-7.1419835E-2],"split_indices":[4,2,4,0,4,5,2,0,0,0,0,0,0],"split_type":[0,0,0,0,0,0,0,0,0,0,0,0,0],"sum_hessian":[1.4736855E3,2.2003629E2,1.2536492E3,2.1569902E2,4.3372564E0,5.0957813E0,1.2485535E3,3.1387591E0,1.1984972E0,3.0236664E0,2.072115E0,1.2007749E0,1.2473527E3],"tree_param":{"num_deleted":"0","num_feature":"8","num_nodes":"13","size_leaf_vector":"0"}},{"base_weights":[-9.78108E-1,1.3791404E0,-1.3927884E0,1.3955146E0,4.6399045E-1,-8.6964615E-2,-1.3981278E0,1.1383392E0,-1.0033159E0,-9.3828434E-1,1.0570146E0,-4.454352E-1,-1.3986996E0],"categories":[],"categories_nodes":[],"categories_segments":[],"categories_sizes":[],"default_left":[1,1,1,0,1,1,1,0,0,0,0,0,0],"id":11,"left_children":[1,3,5,-1,7,9,11,-1,-1,-1,-1,-1,-1],"loss_changes":[1.4017507E3,2.5702515E0,8.372803E0,0E0,6.3593063E0,6.861995E0,3.8085938E-2,0E0,0E0,0E0,0E0,0E0,0E0],"parents":[2147483647,0,0,1,1,2,2,4,4,5,5,6,6],"right_children":[2,4,6,-1,8,10,12,-1,-1,-1,-1,-1,-1],"split_conditions":[7.5E0,7.493243E-1,8.5E0,6.977573E-2,5.5E0,5.469551E-1,1.4914852E-1,5.691696E-2,-5.01658E-2,-4.6914216E-2,5.285073E-2,-2.227176E-2,-6.993499E-2],"split_indices":[4,2,4,0,4,7,2,0,0,0,0,0,0],"split_type":[0,0,0,0,0,0,0,0,0,0,0,0,0],"sum_hessian":[1.4310441E3,2.1373618E2,1.2173079E3,2.0946349E2,4.2726808E0,5.027582E0,1.2122803E3,3.0809345E0,1.1917465E0,2.9855897E0,2.0419922E0,1.1952126E0,1.2110851E3],"tree_param":{"num_deleted":"0","num_feature":"8","num_nodes":"13","size_leaf_vector":"0"}},{"base_weights":[-9.5897865E-1,1.3519113E0,-1.3656816E0,1.3683351E0,4.4810098E-1,-8.260767E-2,-1.3710182E0,1.1120573E0,-9.796545E-1,-9.1226035E-1,1.0324726E0,-4.3446285E-1,-1.3715965E0],"categories":[],"categories_nodes":[],"categories_segments":[],"categories_sizes":[],"default_left":[1,1,1,0,1,1,1,0,0,0,0,0,0],"id":12,"left_children":[1,3,5,-1,7,9,11,-1,-1,-1,-1,-1,-1],"loss_changes":[1.307006E3,2.4792786E0,7.97583E0,0E0,6.0236616E0,6.453185E0,4.1503906E-2,0E0,0E0,0E0,0E0,0E0,0E0],"parents":[2147483647,0,0,1,1,2,2,4,4,5,5,6,6],"right_children":[2,4,6,-1,8,10,12,-1,-1,-1,-1,-1,-1],"split_conditions":[7.5E0,7.493243E-1,8.5E0,6.841676E-2,5.5E0,2.5E0,1.4914852E-1,5.5602867E-2,-4.8982725E-2,-4.5613017E-2,5.162363E-2,-2.1723142E-2,-6.857982E-2],"split_indices":[4,2,4,0,4,5,2,0,0,0,0,0,0],"split_type":[0,0,0,0,0,0,0,0,0,0,0,0,0],"sum_hessian":[1.3876957E3,2.073286E2,1.1803671E3,2.0312354E2,4.205063E0,4.95733E0,1.1754098E3,3.0212092E0,1.1838534E0,2.9467497E0,2.0105805E0,1.1895273E0,1.1742202E3],"tree_param":{"num_deleted":"0","num_feature":"8","num_nodes":"13","size_leaf_vector":"0"}},{"base_weights":[-9.4145274E-1,1.3269371E0,-1.3408571E0,1.3434397E0,4.3308374E-1,-7.843556E-2,-1.3462014E0,1.0872443E0,-9.571067E-1,-8.9374197E-1,1.0171932E0,-7.6795125E-1,-1.3478934E0,2.8777322E-1,-1.0583432E0],"categories":[],"categories_nodes":[],"categories_segments":[],"categories_sizes":[],"default_left":[1,1,1,0,1,1,1,0,0,0,0,1,0,0,0],"id":13,"left_children":[1,3,5,-1,7,9,11,-1,-1,-1,-1,13,-1,-1,-1],"loss_changes":[1.2203073E3,2.395813E0,7.613037E0,0E0,5.710385E0,6.1658235E0,7.93457E-2,0E0,0E0,0E0,0E0,2.0359752E0,0E0,0E0,0E0],"parents":[2147483647,0,0,1,1,2,2,4,4,5,5,6,6,11,11],"right_children":[2,4,6,-1,8,10,12,-1,-1,-1,-1,14,-1,-1,-1],"split_conditions":[7.5E0,7.493243E-1,8.5E0,6.717198E-2,5.5E0,5.469551E-1,9.5E0,5.4362215E-2,-4.7855336E-2,-4.46871E-2,5.085966E-2,6.6234503E2,-6.739467E-2,1.4388661E-2,-5.291716E-2],"split_indices":[4,2,4,0,4,7,4,0,0,0,0,1,0,0,0],"split_type":[0,0,0,0,0,0,0,0,0,0,0,0,0,0,0],"sum_hessian":[1.3439462E3,2.0085902E2,1.1430872E3,1.9672406E2,4.1349635E0,4.8847795E0,1.1382024E3,2.9600263E0,1.1749371E0,2.9063213E0,1.9784582E0,4.647618E0,1.1335548E3,1.0045562E0,3.6430616E0],"tree_param":{"num_deleted":"0","num_feature":"8","num_nodes":"15","size_leaf_vector":"0"}},{"base_weights":[-9.253529E-1,1.3039658E0,-1.3180568E0,1.3205742E0,4.1885838E-1,-7.440903E-2,-1.3234191E0,1.0637555E0,-9.3558824E-1,-8.697805E-1,9.947456E-1,-3.9913604E-1,-1.324038E0],"categories":[],"categories_nodes":[],"categories_segments":[],"categories_sizes":[],"default_left":[1,1,1,0,1,1,1,0,0,0,0,0,0],"id":14,"left_children":[1,3,5,-1,7,9,11,-1,-1,-1,-1,-1,-1],"loss_changes":[1.1407626E3,2.3187866E0,7.2819824E0,0E0,5.4175625E0,5.806746E0,1.0192871E-1,0E0,0E0,0E0,0E0,0E0,0E0],"parents":[2147483647,0,0,1,1,2,2,4,4,5,5,6,6],"right_children":[2,4,6,-1,8,10,12,-1,-1,-1,-1,-1,-1],"split_conditions":[7.5E0,7.493243E-1,8.5E0,6.602871E-2,5.5E0,5.469551E-1,1.4914852E-1,5.3187776E-2,-4.6779413E-2,-4.3489024E-2,4.9737282E-2,-1.9956803E-2,-6.62019E-2],"split_indices":[4,2,4,0,4,7,2,0,0,0,0,0,0],"split_type":[0,0,0,0,0,0,0,0,0,0,0,0,0],"sum_hessian":[1.3000773E3,1.9436682E2,1.1057104E3,1.9030392E2,4.0628886E0,4.811007E0,1.1008995E3,2.897779E0,1.1651094E0,2.865653E0,1.9453542E0,1.1688515E0,1.0997306E3],"tree_param":{"num_deleted":"0","num_feature":"8","num_nodes":"13","size_leaf_vector":"0"}},{"base_weights":[-9.105217E-1,1.2827814E0,-1.2970695E0,1.2995201E0,4.0535444E-1,-7.053603E-2,-1.3024591E0,1.0414641E0,-9.150225E-1,-8.5292095E-1,9.810636E-1,-7.1560663E-1,-1.3042281E0,1.9477667E-1,-1.0057119E0],"categories":[],"categories_nodes":[],"categories_segments":[],"categories_sizes":[],"default_left":[1,1,1,0,1,1,1,0,0,0,0,1,0,0,0],"id":15,"left_children":[1,3,5,-1,7,9,11,-1,-1,-1,-1,13,-1,-1,-1],"loss_changes":[1.0676088E3,2.247406E0,6.977417E0,0E0,5.143491E0,5.555937E0,1.7199707E-1,0E0,0E0,0E0,0E0,1.626095E0,0E0,0E0,0E0],"parents":[2147483647,0,0,1,1,2,2,4,4,5,5,6,6,11,11],"right_children":[2,4,6,-1,8,10,12,-1,-1,-1,-1,14,-1,-1,-1],"split_conditions":[7.5E0,7.493243E-1,8.5E0,6.497601E-2,5.5E0,2.5E0,9.5E0,5.2073207E-2,-4.5751125E-2,-4.2646047E-2,4.905318E-2,5.719576E-1,-6.521141E-2,9.738834E-3,-5.0285596E-2],"split_indices":[4,2,4,0,4,5,4,0,0,0,0,2,0,0,0],"split_type":[0,0,0,0,0,0,0,0,0,0,0,0,0,0,0],"sum_hessian":[1.2562825E3,1.8788568E2,1.0683969E3,1.838964E2,3.9892907E0,4.735807E0,1.063661E3,2.8348165E0,1.1544744E0,2.823825E0,1.9119818E0,4.4152493E0,1.0592457E3,1.1463797E0,3.2688694E0],"tree_param":{"num_deleted":"0","num_feature":"8","num_nodes":"15","size_leaf_vector":"0"}},{"base_weights":[-8.968324E-1,1.2631961E0,-1.2777013E0,1.2800888E0,3.9250973E-1,-6.678321E-2,-1.2831271E0,1.020258E0,-8.9534086E-1,-8.3071697E-1,9.6040034E-1,-6.981797E-1,-1.2849222E0,-9.924903E-1,2.112932E-1],"categories":[],"categories_nodes":[],"categories_segments":[],"categories_sizes":[],"default_left":[1,1,1,0,1,1,1,0,0,0,0,1,0,0,0],"id":16,"left_children":[1,3,5,-1,7,9,11,-1,-1,-1,-1,13,-1,-1,-1],"loss_changes":[1.0001852E3,2.1810303E0,6.6971436E0,0E0,4.8866463E0,5.239254E0,1.8200684E-1,0E0,0E0,0E0,0E0,1.6374741E0,0E0,0E0,0E0],"parents":[2147483647,0,0,1,1,2,2,4,4,5,5,6,6,11,11],"right_children":[2,4,6,-1,8,10,12,-1,-1,-1,-1,14,-1,-1,-1],"split_conditions":[7.5E0,7.493243E-1,8.5E0,6.400444E-2,5.5E0,5.469551E-1,9.5E0,5.10129E-2,-4.4767044E-2,-4.153585E-2,4.8020016E-2,4.7741553E-1,-6.424611E-2,-4.9624514E-2,1.0564661E-2],"split_indices":[4,2,4,0,4,7,4,0,0,0,0,7,0,0,0],"split_type":[0,0,0,0,0,0,0,0,0,0,0,0,0,0,0],"sum_hessian":[1.2127916E3,1.8144461E2,1.0313469E3,1.7753003E2,3.9145753E0,4.6600385E0,1.0266869E3,2.7714472E0,1.1431282E0,2.7821636E0,1.8778749E0,4.334109E0,1.0223528E3,3.2055078E0,1.1286012E0],"tree_param":{"num_deleted":"0","num_feature":"8","num_nodes":"15","size_leaf_vector":"0"}},{"base_weights":[-8.8416654E-1,1.2450478E0,-1.2597916E0,1.2621164E0,3.8026953E-1,-6.31596E-2,-1.265262E0,1.000038E0,-8.764806E-1,-8.154633E-1,9.483177E-1,-3.4280857E-1,-1.2659671E0,-1.2669615E0,-5.2222174E-1],"categories":[],"categories_nodes":[],"categories_segments":[],"categories_sizes":[],"default_left":[1,1,1,0,1,1,1,0,0,0,0,0,1,0,0],"id":17,"left_children":[1,3,5,-1,7,9,11,-1,-1,-1,-1,-1,13,-1,-1],"loss_changes":[9.3791785E2,2.118927E0,6.437866E0,0E0,4.645663E0,5.0220523E0,2.1069336E-1,0E0,0E0,0E0,0E0,0E0,7.043457E-2,0E0,0E0],"parents":[2147483647,0,0,1,1,2,2,4,4,5,5,6,6,12,12],"right_children":[2,4,6,-1,8,10,12,-1,-1,-1,-1,-1,14,-1,-1],"split_conditions":[7.5E0,7.493243E-1,8.5E0,6.310582E-2,5.5E0,2.5E0,1.4914852E-1,5.00019E-2,-4.382403E-2,-4.0773164E-2,4.7415886E-2,-1.714043E-2,8.738909E-1,-6.334808E-2,-2.6111087E-2],"split_indices":[4,2,4,0,4,5,2,0,0,0,0,0,7,0,0],"split_type":[0,0,0,0,0,0,0,0,0,0,0,0,0,0,0],"sum_hessian":[1.1697495E3,1.7506822E2,9.946812E2,1.7122913E2,3.839103E0,4.5835466E0,9.900977E2,2.707943E0,1.1311601E0,2.739664E0,1.8438826E0,1.1284368E0,9.8896924E2,9.869463E2,2.0229876E0],"tree_param":{"num_deleted":"0","num_feature":"8","num_nodes":"15","size_leaf_vector":"0"}},{"base_weights":[-8.7242866E-1,1.2281936E0,-1.2432042E0,1.245459E0,3.6858505E-1,-5.9635777E-2,-1.2487274E0,9.8071647E-1,-8.5838497E-1,-7.947426E-1,9.2914736E-1,-6.511664E-1,-1.2506298E0,2.3647039E-1,-9.5393056E-1],"categories":[],"categories_nodes":[],"categories_segments":[],"categories_sizes":[],"default_left":[1,1,1,0,1,1,1,0,0,0,0,1,0,0,0],"id":18,"left_children":[1,3,5,-1,7,9,11,-1,-1,-1,-1,13,-1,-1,-1],"loss_changes":[8.8030975E2,2.0606384E0,6.197998E0,0E0,4.4193106E0,4.7412734E0,2.7124023E-1,0E0,0E0,0E0,0E0,1.6007333E0,0E0,0E0,0E0],"parents":[2147483647,0,0,1,1,2,2,4,4,5,5,6,6,11,11],"right_children":[2,4,6,-1,8,10,12,-1,-1,-1,-1,14,-1,-1,-1],"split_conditions":[7.5E0,7.493243E-1,8.5E0,6.2272947E-2,5.5E0,2.5E0,9.5E0,4.9035825E-2,-4.291925E-2,-3.973713E-2,4.645737E-2,6.890417E2,-6.253149E-2,1.1823519E-2,-4.7696527E-2],"split_indices":[4,2,4,0,4,5,4,0,0,0,0,1,0,0,0],"split_type":[0,0,0,0,0,0,0,0,0,0,0,0,0,0,0],"sum_hessian":[1.1272947E3,1.687773E2,9.585174E2,1.6501411E2,3.7631946E0,4.5070214E0,9.540104E2,2.6445417E0,1.1186528E0,2.6976824E0,1.8093392E0,4.116966E0,9.4989343E2,1.1027911E0,3.0141747E0],"tree_param":{"num_deleted":"0","num_feature":"8","num_nodes":"15","size_leaf_vector":"0"}},{"base_weights":[-8.615184E-1,1.2125089E0,-1.2277985E0,1.2299911E0,3.5741338E-1,-5.6221765E-2,-1.2333821E0,9.622155E-1,-8.410025E-1,-7.8070116E-1,9.182181E-1,-6.354843E-1,-1.2353269E0,2.4787179E-1,-9.4189805E-1],"categories":[],"categories_nodes":[],"categories_segments":[],"categories_sizes":[],"default_left":[1,1,1,0,1,1,1,0,0,0,0,1,0,0,0],"id":19,"left_children":[1,3,5,-1,7,9,11,-1,-1,-1,-1,13,-1,-1,-1],"loss_changes":[8.2691125E2,2.0058746E0,5.9748535E0,0E0,4.2064805E0,4.5504622E0,2.841797E-1,0E0,0E0,0E0,0E0,1.5978441E0,0E0,0E0,0E0],"parents":[2147483647,0,0,1,1,2,2,4,4,5,5,6,6,11,11],"right_children":[2,4,6,-1,8,10,12,-1,-1,-1,-1,14,-1,-1,-1],"split_conditions":[7.5E0,7.493243E-1,8.5E0,6.1499555E-2,5.5E0,5.469551E-1,9.5E0,4.8110776E-2,-4.2050127E-2,-3.903506E-2,4.5910906E-2,5.719576E-1,-6.1766345E-2,1.2393589E-2,-4.7094904E-2],"split_indices":[4,2,4,0,4,7,4,0,0,0,0,2,0,0,0],"split_type":[0,0,0,0,0,0,0,0,0,0,0,0,0,0,0],"sum_hessian":[1.0855471E3,1.6258937E2,9.229577E2,1.5890224E2,3.6871336E0,4.4303355E0,9.185274E2,2.5814517E0,1.105682E0,2.6551197E0,1.7752156E0,4.040684E0,9.144867E2,1.0898436E0,2.9508405E0],"tree_param":{"num_deleted":"0","num_feature":"8","num_nodes":"15","size_leaf_vector":"0"}},{"base_weights":[-8.5136443E-1,1.1978835E0,-1.2134719E0,1.2156019E0,3.4671614E-1,-5.2891858E-2,-1.2191237E0,9.444656E-1,-8.242863E-1,9.388782E-1,-7.336036E-1,-2.9194665E-1,-1.2199311E0,-1.2210195E0,-4.5890665E-1],"categories":[],"categories_nodes":[],"categories_segments":[],"categories_sizes":[],"default_left":[1,1,1,0,1,1,1,0,0,0,0,0,1,0,0],"id":20,"left_children":[1,3,5,-1,7,9,11,-1,-1,-1,-1,-1,13,-1,-1],"loss_changes":[7.773407E2,1.9541473E0,5.767212E0,0E0,4.006173E0,4.303318E0,3.0615234E-1,0E0,0E0,0E0,0E0,0E0,1.7163086E-1,0E0,0E0],"parents":[2147483647,0,0,1,1,2,2,4,4,5,5,6,6,12,12],"right_children":[2,4,6,-1,8,10,12,-1,-1,-1,-1,-1,14,-1,-1],"split_conditions":[7.5E0,7.493243E-1,8.5E0,6.0780097E-2,5.5E0,4.031191E-1,1.4914852E-1,4.722328E-2,-4.1214313E-2,4.694391E-2,-3.668018E-2,-1.4597333E-2,8.738909E-1,-6.1050978E-2,-2.2945333E-2],"split_indices":[4,2,4,0,4,2,2,0,0,0,0,0,7,0,0],"split_type":[0,0,0,0,0,0,0,0,0,0,0,0,0,0,0],"sum_hessian":[1.0446022E3,1.5651881E2,8.880834E2,1.5290764E2,3.6111712E0,4.3540254E0,8.837294E2,2.5188537E0,1.0923176E0,1.6177574E0,2.736268E0,1.084368E0,8.82645E2,8.807808E2,1.864171E0],"tree_param":{"num_deleted":"0","num_feature":"8","num_nodes":"15","size_leaf_vector":"0"}},{"base_weights":[-8.4188527E-1,1.1842198E0,-1.2001061E0,1.2021933E0,3.3645892E-1,-4.8879936E-2,-1.2058586E0,9.2740464E-1,-8.081933E-1,-7.491572E-1,8.887301E-1,-5.915649E-1,-1.2079414E0,-9.1093963E-1,2.881885E-1],"categories":[],"categories_nodes":[],"categories_segments":[],"categories_sizes":[],"default_left":[1,1,1,0,1,1,1,0,0,0,0,1,0,0,0],"id":21,"left_children":[1,3,5,-1,7,9,11,-1,-1,-1,-1,13,-1,-1,-1],"loss_changes":[7.312457E2,1.9051208E0,5.6030273E0,0E0,3.8174767E0,4.1411924E0,3.7390137E-1,0E0,0E0,0E0,0E0,1.6208597E0,0E0,0E0,0E0],"parents":[2147483647,0,0,1,1,2,2,4,4,5,5,6,6,11,11],"right_children":[2,4,6,-1,8,10,12,-1,-1,-1,-1,14,-1,-1,-1],"split_conditions":[7.5E0,7.493243E-1,8.5E0,6.0109664E-2,5.5E0,2.5E0,9.5E0,4.6370234E-2,-4.0409666E-2,-3.745786E-2,4.4436507E-2,4.7741553E-1,-6.039707E-2,-4.5546982E-2,1.4409425E-2],"split_indices":[4,2,4,0,4,5,4,0,0,0,0,7,0,0,0],"split_type":[0,0,0,0,0,0,0,0,0,0,0,0,0,0,0],"sum_hessian":[1.00455444E3,1.5057773E2,8.539767E2,1.470422E2,3.535527E0,4.29312E0,8.496836E2,2.4569035E0,1.0786235E0,2.5726588E0,1.7204611E0,3.8344393E0,8.458491E2,2.7871704E0,1.0472686E0],"tree_param":{"num_deleted":"0","num_feature":"8","num_nodes":"15","size_leaf_vector":"0"}},{"base_weights":[-8.3304286E-1,1.1714311E0,-1.1876535E0,1.1896778E0,3.2661134E-1,-4.5772567E-2,-1.193489E0,9.109775E-1,-7.926846E-1,-7.368325E-1,8.791813E-1,-5.7720804E-1,-1.1956306E0,2.8329778E-1,-8.970788E-1],"categories":[],"categories_nodes":[],"categories_segments":[],"categories_sizes":[],"default_left":[1,1,1,0,1,1,1,0,0,0,0,1,0,0,0],"id":22,"left_children":[1,3,5,-1,7,9,11,-1,-1,-1,-1,13,-1,-1,-1],"loss_changes":[6.88343E2,1.8586273E0,5.42041E0,0E0,3.6395664E0,3.982836E0,3.8879395E-1,0E0,0E0,0E0,0E0,1.5654544E0,0E0,0E0,0E0],"parents":[2147483647,0,0,1,1,2,2,4,4,5,5,6,6,11,11],"right_children":[2,4,6,-1,8,10,12,-1,-1,-1,-1,14,-1,-1,-1],"split_conditions":[7.5E0,7.493243E-1,8.5E0,5.9483893E-2,5.5E0,5.469551E-1,9.5E0,4.5548875E-2,-3.963423E-2,-3.6841627E-2,4.3959066E-2,6.890417E2,-5.978153E-2,1.4164889E-2,-4.485394E-2],"split_indices":[4,2,4,0,4,7,4,0,0,0,0,1,0,0,0],"split_type":[0,0,0,0,0,0,0,0,0,0,0,0,0,0,0],"sum_hessian":[9.654378E2,1.4477556E2,8.206623E2,1.4131516E2,3.4603944E0,4.2175126E0,8.1644476E2,2.3957355E0,1.0646586E0,2.530378E0,1.6871345E0,3.7640712E0,8.126807E2,1.0510116E0,2.7130597E0],"tree_param":{"num_deleted":"0","num_feature":"8","num_nodes":"15","size_leaf_vector":"0"}},{"base_weights":[-8.2477236E-1,1.1594398E0,-1.1760188E0,1.177978E0,3.1714565E-1,-4.273274E-2,-1.1819446E0,8.9513427E-1,-7.7772456E-1,8.99717E-1,-6.9503194E-1,-5.632995E-1,-1.1841494E0,2.9270598E-1,-8.867797E-1],"categories":[],"categories_nodes":[],"categories_segments":[],"categories_sizes":[],"default_left":[1,1,1,0,1,1,1,0,0,0,0,1,0,0,0],"id":23,"left_children":[1,3,5,-1,7,9,11,-1,-1,-1,-1,13,-1,-1,-1],"loss_changes":[6.4835223E2,1.8143463E0,5.2495117E0,0E0,3.4716895E0,3.786855E0,4.0393066E-1,0E0,0E0,0E0,0E0,1.5596797E0,0E0,0E0,0E0],"parents":[2147483647,0,0,1,1,2,2,4,4,5,5,6,6,11,11],"right_children":[2,4,6,-1,8,10,12,-1,-1,-1,-1,14,-1,-1,-1],"split_conditions":[7.5E0,7.493243E-1,8.5E0,5.8898903E-2,5.5E0,4.031191E-1,9.5E0,4.4756714E-2,-3.888623E-2,4.498585E-2,-3.4751598E-2,5.719576E-1,-5.920747E-2,1.4635299E-2,-4.4338986E-2],"split_indices":[4,2,4,0,4,2,4,0,0,0,0,2,0,0,0],"split_type":[0,0,0,0,0,0,0,0,0,0,0,0,0,0,0],"sum_hessian":[9.273179E2,1.3911996E2,7.881979E2,1.3573402E2,3.3859398E0,4.142701E0,7.840552E2,2.3354633E0,1.0504766E0,1.5393413E0,2.60336E0,3.6952329E0,7.803599E2,1.0395287E0,2.6557043E0],"tree_param":{"num_deleted":"0","num_feature":"8","num_nodes":"15","size_leaf_vector":"0"}},{"base_weights":[-8.170083E-1,1.1481767E0,-1.1651067E0,1.1670241E0,3.0803728E-1,-3.9053958E-2,-1.1711555E0,8.7983066E-1,-7.632802E-1,-7.081616E-1,8.5240453E-1,-2.2690037E-1,-1.172131E0,-1.1733872E0,-3.7634245E-1],"categories":[],"categories_nodes":[],"categories_segments":[],"categories_sizes":[],"default_left":[1,1,1,0,1,1,1,0,0,0,0,0,1,0,0],"id":24,"left_children":[1,3,5,-1,7,9,11,-1,-1,-1,-1,-1,13,-1,-1],"loss_changes":[6.1101984E2,1.7720795E0,5.114868E0,0E0,3.313158E0,3.6352696E0,4.281006E-1,0E0,0E0,0E0,0E0,0E0,3.1066895E-1,0E0,0E0],"parents":[2147483647,0,0,1,1,2,2,4,4,5,5,6,6,12,12],"right_children":[2,4,6,-1,8,10,12,-1,-1,-1,-1,-1,14,-1,-1],"split_conditions":[7.5E0,7.493243E-1,8.5E0,5.8351208E-2,5.5E0,5.469551E-1,1.4914852E-1,4.3991532E-2,-3.8164012E-2,-3.540808E-2,4.2620227E-2,-1.1345019E-2,8.738909E-1,-5.866936E-2,-1.8817123E-2],"split_indices":[4,2,4,0,4,7,2,0,0,0,0,0,7,0,0],"split_type":[0,0,0,0,0,0,0,0,0,0,0,0,0,0,0],"sum_hessian":[8.9024695E2,1.3361676E2,7.566302E2,1.3030446E2,3.312309E0,4.0825186E0,7.5254767E2,2.2761834E0,1.0361258E0,2.4495552E0,1.6329635E0,1.0177379E0,7.5152997E2,7.4987177E2,1.6582087E0],"tree_param":{"num_deleted":"0","num_feature":"8","num_nodes":"15","size_leaf_vector":"0"}},{"base_weights":[-8.097391E-1,1.1375794E0,-1.1549052E0,1.1567538E0,2.9926398E-1,-2.9772726E-1,-1.1634445E0,8.650266E-1,-7.4932164E-1,-9.279956E-1,1.0571518E0,-1.011206E0,-2.918371E-1],"categories":[],"categories_nodes":[],"categories_segments":[],"categories_sizes":[],"default_left":[1,1,1,0,1,1,0,0,0,1,0,0,0],"id":25,"left_children":[1,3,5,-1,7,9,-1,-1,-1,11,-1,-1,-1],"loss_changes":[5.761532E2,1.7317505E0,4.9747314E0,0E0,3.163344E0,8.251908E0,0E0,0E0,0E0,4.0700436E-2,0E0,0E0,0E0],"parents":[2147483647,0,0,1,1,2,2,4,4,5,5,9,9],"right_children":[2,4,6,-1,8,10,-1,-1,-1,12,-1,-1,-1],"split_conditions":[7.5E0,7.493243E-1,9.5E0,5.783769E-2,5.5E0,5.469551E-1,-5.8172226E-2,4.3251332E-2,-3.7466083E-2,7.418968E3,5.285759E-2,-5.0560303E-2,-1.4591855E-2],"split_indices":[4,2,4,0,4,7,0,0,0,0,0,0,0],"split_type":[0,0,0,0,0,0,0,0,0,0,0,0,0],"sum_hessian":[8.5422687E2,1.2827034E2,7.2595654E2,1.2503071E2,3.239626E0,7.5145316E0,7.18442E2,2.2179751E0,1.0216509E0,5.3437667E0,2.170765E0,4.2042894E0,1.1394774E0],"tree_param":{"num_deleted":"0","num_feature":"8","num_nodes":"13","size_leaf_vector":"0"}},{"base_weights":[-8.0292946E-1,1.1275917E0,-1.1453729E0,1.1471106E0,2.908057E-1,-2.902057E-1,-1.1540631E0,8.506863E-1,-7.3582125E-1,-9.1184175E-1,1.0308778E0,-2.764607E-1,-9.9633443E-1],"categories":[],"categories_nodes":[],"categories_segments":[],"categories_sizes":[],"default_left":[1,1,1,0,1,1,0,0,0,1,0,0,0],"id":26,"left_children":[1,3,5,-1,7,9,-1,-1,-1,11,-1,-1,-1],"loss_changes":[5.4355963E2,1.6930847E0,4.8462524E0,0E0,3.02167E0,7.7968235E0,0E0,0E0,0E0,5.785036E-2,0E0,0E0,0E0],"parents":[2147483647,0,0,1,1,2,2,4,4,5,5,9,9],"right_children":[2,4,6,-1,8,10,-1,-1,-1,12,-1,-1,-1],"split_conditions":[7.5E0,7.493243E-1,9.5E0,5.735553E-2,5.5E0,5.469551E-1,-5.7703156E-2,4.2534318E-2,-3.6791064E-2,5.981388E3,5.154389E-2,-1.3823035E-2,-4.9816724E-2],"split_indices":[4,2,4,0,4,7,0,0,0,6,0,0,0],"split_type":[0,0,0,0,0,0,0,0,0,0,0,0,0],"sum_hessian":[8.192586E2,1.2308353E2,6.9617505E2,1.1991553E2,3.1679974E0,7.3494263E0,6.888256E2,2.1609051E0,1.0070924E0,5.208393E0,2.1410332E0,1.1127291E0,4.095664E0],"tree_param":{"num_deleted":"0","num_feature":"8","num_nodes":"13","size_leaf_vector":"0"}},{"base_weights":[-7.9652584E-1,1.118163E0,-1.1364236E0,1.1380436E0,2.8264433E-1,-2.829314E-1,-1.1452739E0,8.2072604E-1,-6.016368E-1,-8.9616054E-1,1.005458E0,-2.5536758E-1,-9.7863674E-1],"categories":[],"categories_nodes":[],"categories_segments":[],"categories_sizes":[],"default_left":[1,1,1,0,1,1,0,0,0,1,0,0,0],"id":27,"left_children":[1,3,5,-1,7,9,-1,-1,-1,11,-1,-1,-1],"loss_changes":[5.130488E2,1.6559906E0,4.724365E0,0E0,2.4434392E0,7.3695574E0,0E0,0E0,0E0,7.119131E-2,0E0,0E0,0E0],"parents":[2147483647,0,0,1,1,2,2,4,4,5,5,9,9],"right_children":[2,4,6,-1,8,10,-1,-1,-1,12,-1,-1,-1],"split_conditions":[7.5E0,7.493243E-1,9.5E0,5.690218E-2,4.5E0,5.469551E-1,-5.72637E-2,4.1036304E-2,-3.0081842E-2,4.8193005E-1,5.02729E-2,-1.2768379E-2,-4.8931837E-2],"split_indices":[4,2,4,0,4,7,0,0,0,2,0,0,0],"split_type":[0,0,0,0,0,0,0,0,0,0,0,0,0],"sum_hessian":[7.8538495E2,1.1805816E2,6.673268E2,1.1496065E2,3.0975125E0,7.1871753E0,6.601396E2,1.9704022E0,1.1271102E0,5.0757337E0,2.1114416E0,1.0459052E0,4.0298285E0],"tree_param":{"num_deleted":"0","num_feature":"8","num_nodes":"13","size_leaf_vector":"0"}},{"base_weights":[-7.9047924E-1,1.1091958E0,-1.1280141E0,1.1295072E0,2.7538392E-1,-2.7589104E-1,-1.1370313E0,-5.9468824E-1,8.088733E-1,-8.810866E-1,9.808357E-1,-9.692481E-1,-2.525684E-1],"categories":[],"categories_nodes":[],"categories_segments":[],"categories_sizes":[],"default_left":[1,1,1,0,1,1,0,0,0,1,0,0,0],"id":28,"left_children":[1,3,5,-1,7,9,-1,-1,-1,11,-1,-1,-1],"loss_changes":[4.8447684E2,1.6231232E0,4.6070557E0,0E0,2.3554797E0,6.968755E0,0E0,0E0,0E0,8.457613E-2,0E0,0E0,0E0],"parents":[2147483647,0,0,1,1,2,2,4,4,5,5,9,9],"right_children":[2,4,6,-1,8,10,-1,-1,-1,12,-1,-1,-1],"split_conditions":[7.5E0,7.493243E-1,9.5E0,5.647536E-2,5.1537883E-1,5.469551E-1,-5.6851566E-2,-2.9734412E-2,4.0443666E-2,7.418968E3,4.9041785E-2,-4.8462406E-2,-1.262842E-2],"split_indices":[4,2,4,0,7,7,0,0,0,0,0,0,0],"split_type":[0,0,0,0,0,0,0,0,0,0,0,0,0],"sum_hessian":[7.526193E2,1.1320511E2,6.3941425E2,1.10166855E2,3.0382514E0,7.0263357E0,6.3238794E2,1.1112274E0,1.927024E0,4.9442577E0,2.082078E0,3.8606174E0,1.0836405E0],"tree_param":{"num_deleted":"0","num_feature":"8","num_nodes":"13","size_leaf_vector":"0"}},{"base_weights":[-7.8477514E-1,1.1006968E0,-1.1200976E0,1.1214591E0,2.6835755E-1,-2.690826E-1,-1.129294E0,-5.8171767E-1,7.95884E-1,-8.662018E-1,9.5696086E-1,-2.3893146E-1,-9.5563173E-1],"categories":[],"categories_nodes":[],"categories_segments":[],"categories_sizes":[],"default_left":[1,1,1,0,1,1,0,0,0,1,0,0,0],"id":29,"left_children":[1,3,5,-1,7,9,-1,-1,-1,11,-1,-1,-1],"loss_changes":[4.5768222E2,1.5915833E0,4.4971313E0,0E0,2.2476962E0,6.591249E0,0E0,0E0,0E0,9.804058E-2,0E0,0E0,0E0],"parents":[2147483647,0,0,1,1,2,2,4,4,5,5,9,9],"right_children":[2,4,6,-1,8,10,-1,-1,-1,12,-1,-1,-1],"split_conditions":[7.5E0,7.493243E-1,9.5E0,5.6072958E-2,5.1537883E-1,5.469551E-1,-5.6464702E-2,-2.9085884E-2,3.9794203E-2,5.981388E3,4.7848042E-2,-1.1946573E-2,-4.7781587E-2],"split_indices":[4,2,4,0,7,7,0,0,0,6,0,0,0],"split_type":[0,0,0,0,0,0,0,0,0,0,0,0,0],"sum_hessian":[7.2095447E2,1.08513824E2,6.124407E2,1.05533966E2,2.9798589E0,6.871021E0,6.0556964E2,1.1017431E0,1.8781158E0,4.8180075E0,2.0530128E0,1.0593487E0,3.758659E0],"tree_param":{"num_deleted":"0","num_feature":"8","num_nodes":"13","size_leaf_vector":"0"}},{"base_weights":[-7.793875E-1,1.0926265E0,-1.1126394E0,1.1138614E0,2.6159242E-1,-2.624806E-1,-1.1220245E0,7.8472555E-1,-5.7510585E-1,-8.5169655E-1,9.337901E-1,-2.197556E-1,-9.397277E-1],"categories":[],"categories_nodes":[],"categories_segments":[],"categories_sizes":[],"default_left":[1,1,1,0,1,1,0,0,0,1,0,0,0],"id":30,"left_children":[1,3,5,-1,7,9,-1,-1,-1,11,-1,-1,-1],"loss_changes":[4.325362E2,1.5612793E0,4.392273E0,0E0,2.168281E0,6.2361383E0,0E0,0E0,0E0,1.1028862E-1,0E0,0E0,0E0],"parents":[2147483647,0,0,1,1,2,2,4,4,5,5,9,9],"right_children":[2,4,6,-1,8,10,-1,-1,-1,12,-1,-1,-1],"split_conditions":[7.5E0,7.493243E-1,9.5E0,5.569307E-2,4.5E0,5.469551E-1,-5.610123E-2,3.9236277E-2,-2.8755292E-2,4.8193005E-1,4.6689507E-2,-1.098778E-2,-4.6986386E-2],"split_indices":[4,2,4,0,4,7,0,0,0,2,0,0,0],"split_type":[0,0,0,0,0,0,0,0,0,0,0,0,0],"sum_hessian":[6.9038226E2,1.0398379E2,5.863985E2,1.0106109E2,2.9226935E0,6.7190065E0,5.7967944E2,1.8365405E0,1.0861531E0,4.6947002E0,2.0243063E0,1.0015202E0,3.69318E0],"tree_param":{"num_deleted":"0","num_feature":"8","num_nodes":"13","size_leaf_vector":"0"}},{"base_weights":[-7.742938E-1,1.0849507E0,-1.1056073E0,1.1066791E0,2.5503957E-1,-2.560697E-1,-1.1151888E0,-5.627572E-1,7.723783E-1,-8.3768594E-1,9.1128486E-1,-9.3118304E-1,-2.1650504E-1],"categories":[],"categories_nodes":[],"categories_segments":[],"categories_sizes":[],"default_left":[1,1,1,0,1,1,0,0,0,1,0,0,0],"id":31,"left_children":[1,3,5,-1,7,9,-1,-1,-1,11,-1,-1,-1],"loss_changes":[4.0891946E2,1.5320892E0,4.29126E0,0E0,2.0704808E0,5.902343E0,0E0,0E0,0E0,1.2206459E-1,0E0,0E0,0E0],"parents":[2147483647,0,0,1,1,2,2,4,4,5,5,9,9],"right_children":[2,4,6,-1,8,10,-1,-1,-1,12,-1,-1,-1],"split_conditions":[7.5E0,7.493243E-1,9.5E0,5.5333953E-2,5.1537883E-1,5.469551E-1,-5.575944E-2,-2.813786E-2,3.861892E-2,7.418968E3,4.5564245E-2,-4.655915E-2,-1.0825252E-2],"split_indices":[4,2,4,0,7,7,0,0,0,0,0,0,0],"split_type":[0,0,0,0,0,0,0,0,0,0,0,0,0],"sum_hessian":[6.608906E2,9.9613144E1,5.6127747E2,9.6746666E1,2.8664725E0,6.568973E0,5.547085E2,1.0766839E0,1.7897887E0,4.572969E0,1.9960041E0,3.5409498E0,1.0320194E0],"tree_param":{"num_deleted":"0","num_feature":"8","num_nodes":"13","size_leaf_vector":"0"}},{"base_weights":[-7.694679E-1,1.040363E0,-1.1058062E0,1.0927892E0,-1.6880564E-2,-4.431965E-1,-1.1087551E0,2.0150043E-1,1.1004926E0,8.331078E-1,-8.9914143E-1,2.5106925E-1,-7.731182E-1],"categories":[],"categories_nodes":[],"categories_segments":[],"categories_sizes":[],"default_left":[1,1,1,1,1,1,0,0,0,0,0,0,0],"id":32,"left_children":[1,3,5,7,9,11,-1,-1,-1,-1,-1,-1,-1],"loss_changes":[3.8675327E2,5.54953E0,5.533447E-1,4.311447E-1,5.0230923E0,1.1183213E0,0E0,0E0,0E0,0E0,0E0,0E0,0E0],"parents":[2147483647,0,0,1,1,2,2,3,3,4,4,5,5],"right_children":[2,4,6,8,10,12,-1,-1,-1,-1,-1,-1,-1],"split_conditions":[8.5E0,7.134185E-1,9.5E0,2.1340539E-1,5.5E0,7.470657E2,-5.5437755E-2,1.0075022E-2,5.502463E-2,4.165539E-2,-4.495707E-2,1.2553463E-2,-3.865591E-2],"split_indices":[4,2,4,7,4,1,0,0,0,0,0,0,0],"split_type":[0,0,0,0,0,0,0,0,0,0,0,0,0],"sum_hessian":[6.324698E2,9.878989E1,5.336799E2,9.409054E1,4.699353E0,3.0349336E0,5.3064496E2,1.0389705E0,9.305157E1,2.4218273E0,2.277526E0,1.0546341E0,1.9802995E0],"tree_param":{"num_deleted":"0","num_feature":"8","num_nodes":"13","size_leaf_vector":"0"}},{"base_weights":[-7.6488507E-1,1.0709225E0,-1.0927538E0,1.0934843E0,2.4394304E-1,-2.5070998E-1,-1.1026955E0,7.490012E-1,-5.451415E-1,-8.178757E-1,8.7925833E-1,-9.1101485E-1,-2.0825876E-1],"categories":[],"categories_nodes":[],"categories_segments":[],"categories_sizes":[],"default_left":[1,1,1,0,1,1,0,0,0,1,0,0,0],"id":33,"left_children":[1,3,5,-1,7,9,-1,-1,-1,11,-1,-1,-1],"loss_changes":[3.6600146E2,1.4563828E0,4.032959E0,0E0,1.8987607E0,5.398277E0,0E0,0E0,0E0,1.15703344E-1,0E0,0E0,0E0],"parents":[2147483647,0,0,1,1,2,2,4,4,5,5,9,9],"right_children":[2,4,6,-1,8,10,-1,-1,-1,12,-1,-1,-1],"split_conditions":[7.5E0,7.493243E-1,9.5E0,5.4674216E-2,4.5E0,5.469551E-1,-5.5134773E-2,3.745006E-2,-2.7257076E-2,7.418968E3,4.396292E-2,-4.5550745E-2,-1.0412938E-2],"split_indices":[4,2,4,0,4,7,0,0,0,0,0,0,0],"split_type":[0,0,0,0,0,0,0,0,0,0,0,0,0],"sum_hessian":[6.0512885E2,9.1353645E1,5.137752E2,8.8613815E1,2.7398334E0,6.301146E0,5.0747406E2,1.7015461E0,1.0382872E0,4.379258E0,1.9218878E0,3.3699768E0,1.0092813E0],"tree_param":{"num_deleted":"0","num_feature":"8","num_nodes":"13","size_leaf_vector":"0"}},{"base_weights":[-7.605407E-1,1.0642508E0,-1.0868118E0,1.0873649E0,2.3800544E-1,-2.4470185E-1,-1.0969834E0,7.3753047E-1,-5.337739E-1,-8.044826E-1,8.5843086E-1,-8.982053E-1,-2.0358866E-1],"categories":[],"categories_nodes":[],"categories_segments":[],"categories_sizes":[],"default_left":[1,1,1,0,1,1,0,0,0,1,0,0,0],"id":34,"left_children":[1,3,5,-1,7,9,-1,-1,-1,11,-1,-1,-1],"loss_changes":[3.4634973E2,1.4303589E0,3.9487915E0,0E0,1.815167E0,5.113846E0,0E0,0E0,0E0,1.1381388E-1,0E0,0E0,0E0],"parents":[2147483647,0,0,1,1,2,2,4,4,5,5,9,9],"right_children":[2,4,6,-1,8,10,-1,-1,-1,12,-1,-1,-1],"split_conditions":[7.5E0,7.493243E-1,9.5E0,5.4368246E-2,4.5E0,5.469551E-1,-5.4849174E-2,3.6876526E-2,-2.6688695E-2,7.418968E3,4.2921543E-2,-4.4910263E-2,-1.0179433E-2],"split_indices":[4,2,4,0,4,7,0,0,0,0,0,0,0],"split_type":[0,0,0,0,0,0,0,0,0,0,0,0,0],"sum_hessian":[5.787894E2,8.744713E1,4.913423E2,8.475995E1,2.6871786E0,6.1630177E0,4.8517926E2,1.6582636E0,1.0289149E0,4.2679768E0,1.8950405E0,3.2640884E0,1.0038886E0],"tree_param":{"num_deleted":"0","num_feature":"8","num_nodes":"13","size_leaf_vector":"0"}},{"base_weights":[-7.5640965E-1,1.019208E0,-1.0883391E0,1.0737079E0,-2.1027137E-2,-1.0902364E0,-1.8048131E-1,2.161256E-1,1.0818651E0,7.9973114E-1,-8.609982E-1,-2.1382165E-1,-1.0917441E0],"categories":[],"categories_nodes":[],"categories_segments":[],"categories_sizes":[],"default_left":[1,1,1,1,1,1,0,0,0,0,0,0,0],"id":35,"left_children":[1,3,5,7,9,11,-1,-1,-1,-1,-1,-1,-1],"loss_changes":[3.2789722E2,5.0025635E0,6.087036E-1,3.5020447E-1,4.379596E0,3.8287354E-1,0E0,0E0,0E0,0E0,0E0,0E0,0E0],"parents":[2147483647,0,0,1,1,2,2,3,3,4,4,5,5],"right_children":[2,4,6,8,10,12,-1,-1,-1,-1,-1,-1,-1],"split_conditions":[8.5E0,7.134185E-1,8.738909E-1,2.161769E-1,5.5E0,1.9888225E-1,-9.024066E-3,1.080628E-2,5.4093253E-2,3.998656E-2,-4.3049913E-2,-1.0691083E-2,-5.4587204E-2],"split_indices":[4,2,7,7,4,2,0,0,0,0,0,0,0],"split_type":[0,0,0,0,0,0,0,0,0,0,0,0,0],"sum_hessian":[5.5346075E2,8.6841545E1,4.6661923E2,8.248767E1,4.35387E0,4.654456E2,1.1736453E0,1.0362738E0,8.14514E1,2.22635E0,2.12752E0,1.0445683E0,4.6440103E2],"tree_param":{"num_deleted":"0","num_feature":"8","num_nodes":"13","size_leaf_vector":"0"}},{"base_weights":[-7.5244796E-1,1.052014E0,-1.0759002E0,1.0760624E0,2.2799426E-1,-2.3068585E-1,-1.0865346E0,-4.3535057E-1,6.981219E-1,-7.8112096E-1,8.3452547E-1,-2.174268E-1,-8.7253755E-1],"categories":[],"categories_nodes":[],"categories_segments":[],"categories_sizes":[],"default_left":[1,1,1,0,1,1,0,0,0,1,0,0,0],"id":36,"left_children":[1,3,5,-1,7,9,-1,-1,-1,11,-1,-1,-1],"loss_changes":[3.105588E2,1.3615952E0,3.7946777E0,0E0,1.4167327E0,4.6751566E0,0E0,0E0,0E0,7.003379E-2,0E0,0E0,0E0],"parents":[2147483647,0,0,1,1,2,2,4,4,5,5,9,9],"right_children":[2,4,6,-1,8,10,-1,-1,-1,12,-1,-1,-1],"split_conditions":[7.5E0,7.493243E-1,9.5E0,5.3803124E-2,5.689745E-1,5.469551E-1,-5.432673E-2,-2.1767529E-2,3.4906097E-2,6.05175E3,4.1726273E-2,-1.08713405E-2,-4.362688E-2],"split_indices":[4,2,4,0,7,7,0,0,0,6,0,0,0],"split_type":[0,0,0,0,0,0,0,0,0,0,0,0,0],"sum_hessian":[5.2915186E2,8.0091E1,4.4906088E2,7.752268E1,2.568321E0,5.8618236E0,4.4319907E2,1.0959382E0,1.4723827E0,4.040594E0,1.8212297E0,1.0352765E0,3.0053174E0],"tree_param":{"num_deleted":"0","num_feature":"8","num_nodes":"13","size_leaf_vector":"0"}},{"base_weights":[-7.4868006E-1,1.0460676E0,-1.0708296E0,1.0707816E0,2.2306487E-1,-2.2534274E-1,-1.0817274E0,-4.2520684E-1,6.876338E-1,-7.685118E-1,8.150212E-1,-2.1254393E-1,-8.604652E-1],"categories":[],"categories_nodes":[],"categories_segments":[],"categories_sizes":[],"default_left":[1,1,1,0,1,1,0,0,0,1,0,0,0],"id":37,"left_children":[1,3,5,-1,7,9,-1,-1,-1,11,-1,-1,-1],"loss_changes":[2.9412814E2,1.3400726E0,3.7196045E0,0E0,1.3543781E0,4.4333344E0,0E0,0E0,0E0,6.970048E-2,0E0,0E0,0E0],"parents":[2147483647,0,0,1,1,2,2,4,4,5,5,9,9],"right_children":[2,4,6,-1,8,10,-1,-1,-1,12,-1,-1,-1],"split_conditions":[7.5E0,7.493243E-1,9.5E0,5.353908E-2,5.689745E-1,5.469551E-1,-5.408637E-2,-2.1260342E-2,3.438169E-2,6.05175E3,4.0751062E-2,-1.0627197E-2,-4.3023262E-2],"split_indices":[4,2,4,0,7,7,0,0,0,6,0,0,0],"split_type":[0,0,0,0,0,0,0,0,0,0,0,0,0],"sum_hessian":[5.0577887E2,7.66275E1,4.2915137E2,7.410124E1,2.526256E0,5.736905E0,4.2341446E2,1.0899873E0,1.4362688E0,3.9407587E0,1.7961464E0,1.0292355E0,2.911523E0],"tree_param":{"num_deleted":"0","num_feature":"8","num_nodes":"13","size_leaf_vector":"0"}},{"base_weights":[-7.4507993E-1,9.999368E-1,-1.0735198E0,1.0568504E0,-2.331227E-2,-1.0756547E0,-1.4483939E-1,2.1908809E-1,1.0657551E0,7.701256E-1,-8.2702357E-1,-2.1412762E-1,-1.0773482E0],"categories":[],"categories_nodes":[],"categories_segments":[],"categories_sizes":[],"default_left":[1,1,1,1,1,1,0,0,0,0,0,0,0],"id":38,"left_children":[1,3,5,7,9,11,-1,-1,-1,-1,-1,-1,-1],"loss_changes":[2.7866632E2,4.5227737E0,6.5335083E-1,3.1250763E-1,3.8560708E0,3.6315918E-1,0E0,0E0,0E0,0E0,0E0,0E0,0E0],"parents":[2147483647,0,0,1,1,2,2,3,3,4,4,5,5],"right_children":[2,4,6,8,10,12,-1,-1,-1,-1,-1,-1,-1],"split_conditions":[8.5E0,7.134185E-1,8.738909E-1,2.2575945E-1,5.5E0,2.033366E-1,-7.2419695E-3,1.0954405E-2,5.3287756E-2,3.850628E-2,-4.135118E-2,-1.0706381E-2,-5.386741E-2],"split_indices":[4,2,7,7,4,2,0,0,0,0,0,0,0],"split_type":[0,0,0,0,0,0,0,0,0,0,0,0,0],"sum_hessian":[4.833427E2,7.623866E1,4.0710406E2,7.2190544E1,4.048116E0,4.0601242E2,1.0916281E0,1.0285367E0,7.116201E1,2.0581062E0,1.9900103E0,1.0465083E0,4.049659E2],"tree_param":{"num_deleted":"0","num_feature":"8","num_nodes":"13","size_leaf_vector":"0"}},{"base_weights":[-7.4161595E-1,1.0351597E0,-1.061485E0,1.060972E0,2.1442486E-1,-2.1241431E-1,-1.0729086E0,-4.076812E-1,6.6596395E-1,-7.466676E-1,7.930059E-1,-8.398541E-1,-2.0007436E-1],"categories":[],"categories_nodes":[],"categories_segments":[],"categories_sizes":[],"default_left":[1,1,1,0,1,1,0,0,0,1,0,0,0],"id":39,"left_children":[1,3,5,-1,7,9,-1,-1,-1,11,-1,-1,-1],"loss_changes":[2.6414835E2,1.2791443E0,3.5813599E0,0E0,1.2326958E0,4.0623827E0,0E0,0E0,0E0,7.308531E-2,0E0,0E0,0E0],"parents":[2147483647,0,0,1,1,2,2,4,4,5,5,9,9],"right_children":[2,4,6,-1,8,10,-1,-1,-1,12,-1,-1,-1],"split_conditions":[7.5E0,7.493243E-1,9.5E0,5.30486E-2,5.689745E-1,5.469551E-1,-5.3645432E-2,-2.038406E-2,3.3298198E-2,6.7412896E3,3.9650295E-2,-4.1992705E-2,-1.0003719E-2],"split_indices":[4,2,4,0,7,7,0,0,0,0,0,0,0],"split_type":[0,0,0,0,0,0,0,0,0,0,0,0,0],"sum_hessian":[4.6184195E2,7.011854E1,3.9172342E2,6.769676E1,2.4217765E0,5.460536E0,3.8626288E2,1.0593673E0,1.3624091E0,3.733834E0,1.7267016E0,2.7316082E0,1.0022259E0],"tree_param":{"num_deleted":"0","num_feature":"8","num_nodes":"13","size_leaf_vector":"0"}},{"base_weights":[-7.383138E-1,1.0298E0,-1.0571127E0,1.056351E0,2.099939E-1,-2.075555E-1,-1.068836E0,-3.9831454E-1,6.5616244E-1,-7.346937E-1,7.746548E-1,-8.263854E-1,-2.0133059E-1],"categories":[],"categories_nodes":[],"categories_segments":[],"categories_sizes":[],"default_left":[1,1,1,0,1,1,0,0,0,1,0,0,0],"id":40,"left_children":[1,3,5,-1,7,9,-1,-1,-1,11,-1,-1,-1],"loss_changes":[2.5034315E2,1.2595367E0,3.5144043E0,0E0,1.179566E0,3.8554554E0,0E0,0E0,0E0,6.0722113E-2,0E0,0E0,0E0],"parents":[2147483647,0,0,1,1,2,2,4,4,5,5,9,9],"right_children":[2,4,6,-1,8,10,-1,-1,-1,12,-1,-1,-1],"split_conditions":[7.5E0,7.493243E-1,9.5E0,5.281755E-2,5.689745E-1,5.469551E-1,-5.34418E-2,-1.9915728E-2,3.280812E-2,1.5E0,3.873274E-2,-4.131927E-2,-1.006653E-2],"split_indices":[4,2,4,0,7,7,0,0,0,5,0,0,0],"split_type":[0,0,0,0,0,0,0,0,0,0,0,0,0],"sum_hessian":[4.4119724E2,6.705705E1,3.741402E2,6.467393E1,2.3831234E0,5.3471837E0,3.68793E2,1.053725E0,1.3293984E0,3.643675E0,1.7035087E0,2.6403759E0,1.0032991E0],"tree_param":{"num_deleted":"0","num_feature":"8","num_nodes":"13","size_leaf_vector":"0"}},{"base_weights":[-7.3514277E-1,9.8226476E-1,-1.060856E0,1.0419796E0,-2.5993338E-2,-1.0632635E0,-1.1186339E-1,2.2073159E-1,1.0516123E0,7.423854E-1,-7.9616183E-1,-2.1053492E-1,-1.0651683E0],"categories":[],"categories_nodes":[],"categories_segments":[],"categories_sizes":[],"default_left":[1,1,1,1,1,1,0,0,0,0,0,0,0],"id":41,"left_children":[1,3,5,7,9,11,-1,-1,-1,-1,-1,-1,-1],"loss_changes":[2.3732999E2,4.112755E0,6.934204E-1,2.7488708E-1,3.4138312E0,3.5162354E-1,0E0,0E0,0E0,0E0,0E0,0E0,0E0],"parents":[2147483647,0,0,1,1,2,2,3,3,4,4,5,5],"right_children":[2,4,6,8,10,12,-1,-1,-1,-1,-1,-1,-1],"split_conditions":[8.5E0,7.134185E-1,8.738909E-1,2.3750447E-1,5.5E0,2.058757E-1,-5.5931695E-3,1.10365795E-2,5.2580614E-2,3.711927E-2,-3.980809E-2,-1.0526746E-2,-5.3258415E-2],"split_indices":[4,2,7,7,4,2,0,0,0,0,0,0,0],"split_type":[0,0,0,0,0,0,0,0,0,0,0,0,0],"sum_hessian":[4.2140878E2,6.6859406E1,3.5454938E2,6.3089447E1,3.7699606E0,3.5353204E2,1.017343E0,1.0086782E0,6.208077E1,1.9052311E0,1.8647295E0,1.0364914E0,3.5249554E2],"tree_param":{"num_deleted":"0","num_feature":"8","num_nodes":"13","size_leaf_vector":"0"}},{"base_weights":[-7.3206836E-1,1.019942E0,-1.049026E0,1.0477129E0,2.0218424E-1,-1.955032E-1,-1.0613443E0,-3.8212857E-1,6.3576883E-1,-7.1413684E-1,7.5425357E-1,-2.2286354E-1,-7.995942E-1],"categories":[],"categories_nodes":[],"categories_segments":[],"categories_sizes":[],"default_left":[1,1,1,0,1,1,0,0,0,1,0,0,0],"id":42,"left_children":[1,3,5,-1,7,9,-1,-1,-1,11,-1,-1,-1],"loss_changes":[2.2512396E2,1.203392E0,3.3899536E0,0E0,1.0754259E0,3.540226E0,0E0,0E0,0E0,8.835316E-3,0E0,0E0,0E0],"parents":[2147483647,0,0,1,1,2,2,4,4,5,5,9,9],"right_children":[2,4,6,-1,8,10,-1,-1,-1,12,-1,-1,-1],"split_conditions":[7.5E0,7.493243E-1,9.5E0,5.2385647E-2,5.689745E-1,5.469551E-1,-5.3067215E-2,-1.910643E-2,3.1788442E-2,6.0585264E3,3.771268E-2,-1.1143177E-2,-3.997971E-2],"split_indices":[4,2,4,0,7,7,0,0,0,6,0,0,0],"split_type":[0,0,0,0,0,0,0,0,0,0,0,0,0],"sum_hessian":[4.0247342E2,6.1317535E1,3.4115588E2,5.903163E1,2.285903E0,5.0936522E0,3.3606223E2,1.0242568E0,1.2616462E0,3.4550421E0,1.6386101E0,1.046554E0,2.408488E0],"tree_param":{"num_deleted":"0","num_feature":"8","num_nodes":"13","size_leaf_vector":"0"}},{"base_weights":[-7.291311E-1,1.0150205E0,-1.0452133E0,1.0436075E0,1.9819874E-1,-1.9128391E-1,-1.0578711E0,-3.7346378E-1,6.2657976E-1,-7.028365E-1,7.369302E-1,-7.904044E-1,-2.1573903E-1],"categories":[],"categories_nodes":[],"categories_segments":[],"categories_sizes":[],"default_left":[1,1,1,0,1,1,0,0,0,1,0,0,0],"id":43,"left_children":[1,3,5,-1,7,9,-1,-1,-1,11,-1,-1,-1],"loss_changes":[2.1348235E2,1.1853638E0,3.3287964E0,0E0,1.0300245E0,3.363384E0,0E0,0E0,0E0,1.6100168E-2,0E0,0E0,0E0],"parents":[2147483647,0,0,1,1,2,2,4,4,5,5,9,9],"right_children":[2,4,6,-1,8,10,-1,-1,-1,12,-1,-1,-1],"split_conditions":[7.5E0,7.493243E-1,9.5E0,5.2180376E-2,5.689745E-1,5.469551E-1,-5.2893557E-2,-1.8673189E-2,3.1328987E-2,6.1288135E3,3.684651E-2,-3.952022E-2,-1.07869515E-2],"split_indices":[4,2,4,0,7,7,0,0,0,0,0,0,0],"split_type":[0,0,0,0,0,0,0,0,0,0,0,0,0],"sum_hessian":[3.843134E2,5.8622314E1,3.2569107E2,5.6371788E1,2.2505276E0,4.992546E0,3.2069852E2,1.0189562E0,1.2315714E0,3.37522E0,1.617326E0,2.3331044E0,1.0421157E0],"tree_param":{"num_deleted":"0","num_feature":"8","num_nodes":"13","size_leaf_vector":"0"}},{"base_weights":[-7.262948E-1,9.656522E-1,-1.049931E0,1.0285428E0,-2.8831594E-2,-3.0858883E-1,-1.0545729E0,2.4048656E-1,1.038984E0,7.1628404E-1,-7.6776934E-1,2.3544797E-1,-6.438178E-1],"categories":[],"categories_nodes":[],"categories_segments":[],"categories_sizes":[],"default_left":[1,1,1,1,1,1,0,0,0,0,0,0,0],"id":44,"left_children":[1,3,5,7,9,11,-1,-1,-1,-1,-1,-1,-1],"loss_changes":[2.0248177E2,3.757122E0,7.390442E-1,2.1157455E-1,3.0372474E0,7.604486E-1,0E0,0E0,0E0,0E0,0E0,0E0,0E0],"parents":[2147483647,0,0,1,1,2,2,3,3,4,4,5,5],"right_children":[2,4,6,8,10,12,-1,-1,-1,-1,-1,-1,-1],"split_conditions":[8.5E0,7.134185E-1,9.5E0,2.4816202E-1,5.5E0,7.892107E2,-5.272865E-2,1.2024328E-2,5.19492E-2,3.5814203E-2,-3.838847E-2,1.1772399E-2,-3.219089E-2],"split_indices":[4,2,4,7,4,1,0,0,0,0,0,0,0],"split_type":[0,0,0,0,0,0,0,0,0,0,0,0,0],"sum_hessian":[3.6692728E2,5.8597893E1,3.0832938E2,5.5080395E1,3.517496E0,2.3384876E0,3.0599088E2,1.0344793E0,5.4045918E1,1.7666914E0,1.7508048E0,1.0050541E0,1.3334335E0],"tree_param":{"num_deleted":"0","num_feature":"8","num_nodes":"13","size_leaf_vector":"0"}},{"base_weights":[-7.2354126E-1,1.0059474E0,-1.0381696E0,1.0358803E0,1.9113319E-1,-1.905336E-1,-1.0514385E0,-3.0124223E-1,5.881938E-1,-6.8920165E-1,7.1227735E-1,-2.0469627E-1,-7.760895E-1],"categories":[],"categories_nodes":[],"categories_segments":[],"categories_sizes":[],"default_left":[1,1,1,0,1,1,0,0,0,1,0,0,0],"id":45,"left_children":[1,3,5,-1,7,9,-1,-1,-1,11,-1,-1,-1],"loss_changes":[1.9220673E2,1.1332207E0,3.1482239E0,0E0,7.950341E-1,3.1066048E0,0E0,0E0,0E0,2.0093203E-2,0E0,0E0,0E0],"parents":[2147483647,0,0,1,1,2,2,4,4,5,5,9,9],"right_children":[2,4,6,-1,8,10,-1,-1,-1,12,-1,-1,-1],"split_conditions":[7.5E0,7.493243E-1,9.5E0,5.179402E-2,6.00746E-1,5.469551E-1,-5.2571923E-2,-1.5062111E-2,2.940969E-2,6.0585264E3,3.561387E-2,-1.0234813E-2,-3.8804475E-2],"split_indices":[4,2,4,0,7,7,0,0,0,6,0,0,0],"split_type":[0,0,0,0,0,0,0,0,0,0,0,0,0],"sum_hessian":[3.50307E2,5.3580692E1,2.9672632E2,5.1420406E1,2.1602876E0,4.8100505E0,2.9191626E2,1.0721214E0,1.0881662E0,3.2509768E0,1.5590738E0,1.0046575E0,2.2463193E0],"tree_param":{"num_deleted":"0","num_feature":"8","num_nodes":"13","size_leaf_vector":"0"}},{"base_weights":[-7.2086966E-1,1.0012882E0,-1.0348042E0,1.0321709E0,1.8786879E-1,-1.8647039E-1,-1.0484569E0,-2.9390657E-1,5.79854E-1,-6.783102E-1,6.9600374E-1,-7.6709276E-1,-1.9891645E-1],"categories":[],"categories_nodes":[],"categories_segments":[],"categories_sizes":[],"default_left":[1,1,1,0,1,1,0,0,0,1,0,0,0],"id":46,"left_children":[1,3,5,-1,7,9,-1,-1,-1,11,-1,-1,-1],"loss_changes":[1.8236252E2,1.1178818E0,3.0957642E0,0E0,7.6201206E-1,2.9535701E0,0E0,0E0,0E0,2.5217056E-2,0E0,0E0,0E0],"parents":[2147483647,0,0,1,1,2,2,4,4,5,5,9,9],"right_children":[2,4,6,-1,8,10,-1,-1,-1,12,-1,-1,-1],"split_conditions":[7.5E0,7.493243E-1,9.5E0,5.1608544E-2,6.00746E-1,5.469551E-1,-5.2422848E-2,-1.4695329E-2,2.8992701E-2,6.1288135E3,3.4800187E-2,-3.835464E-2,-9.945823E-3],"split_indices":[4,2,4,0,7,7,0,0,0,0,0,0,0],"split_type":[0,0,0,0,0,0,0,0,0,0,0,0,0],"sum_hessian":[3.3438913E2,5.122014E1,2.8316898E2,4.9087532E1,2.1326077E0,4.7171855E0,2.7845178E2,1.0689764E0,1.0636314E0,3.1775548E0,1.5396307E0,2.174679E0,1.0028759E0],"tree_param":{"num_deleted":"0","num_feature":"8","num_nodes":"13","size_leaf_vector":"0"}},{"base_weights":[-7.1827406E-1,9.9670225E-1,-1.0315648E0,1.0285705E0,1.8472637E-1,-1.8253611E-1,-1.0456187E0,-2.867456E-1,5.716765E-1,-6.675623E-1,6.8010116E-1,-7.5823027E-1,-1.9410485E-1],"categories":[],"categories_nodes":[],"categories_segments":[],"categories_sizes":[],"default_left":[1,1,1,0,1,1,0,0,0,1,0,0,0],"id":47,"left_children":[1,3,5,-1,7,9,-1,-1,-1,11,-1,-1,-1],"loss_changes":[1.7304816E2,1.102829E0,3.0451355E0,0E0,7.305275E-1,2.8085914E0,0E0,0E0,0E0,2.9120207E-2,0E0,0E0,0E0],"parents":[2147483647,0,0,1,1,2,2,4,4,5,5,9,9],"right_children":[2,4,6,-1,8,10,-1,-1,-1,12,-1,-1,-1],"split_conditions":[7.5E0,7.493243E-1,9.5E0,5.1428527E-2,6.00746E-1,5.469551E-1,-5.2280933E-2,-1.4337281E-2,2.8583825E-2,5E-1,3.4005057E-2,-3.7911516E-2,-9.705243E-3],"split_indices":[4,2,4,0,7,7,0,0,0,3,0,0,0],"split_type":[0,0,0,0,0,0,0,0,0,0,0,0,0],"sum_hessian":[3.1916455E2,4.8961933E1,2.702026E2,4.685618E1,2.1057544E0,4.6275616E0,2.6557504E2,1.06594E0,1.0398145E0,3.1068456E0,1.5207162E0,2.1026995E0,1.004146E0],"tree_param":{"num_deleted":"0","num_feature":"8","num_nodes":"13","size_leaf_vector":"0"}},{"base_weights":[-7.1574557E-1,9.446233E-1,-1.0375777E0,1.0125394E0,-3.080663E-2,-2.8964943E-1,-1.0429143E0,2.4166793E-1,1.0250214E0,6.8652385E-1,-7.3514533E-1,1.9731784E-1,-6.1028594E-1],"categories":[],"categories_nodes":[],"categories_segments":[],"categories_sizes":[],"default_left":[1,1,1,1,1,1,0,0,0,0,0,0,0],"id":48,"left_children":[1,3,5,7,9,11,-1,-1,-1,-1,-1,-1,-1],"loss_changes":[1.642846E2,3.3529816E0,7.215576E-1,2.0363235E-1,2.644126E0,6.202972E-1,0E0,0E0,0E0,0E0,0E0,0E0,0E0],"parents":[2147483647,0,0,1,1,2,2,3,3,4,4,5,5],"right_children":[2,4,6,8,10,12,-1,-1,-1,-1,-1,-1,-1],"split_conditions":[8.5E0,7.134185E-1,9.5E0,5E-1,5.5E0,6.6312754E-1,-5.2145716E-2,1.2083396E-2,5.1251072E-2,3.4326192E-2,-3.6757268E-2,9.865892E-3,-3.0514298E-2],"split_indices":[4,2,4,5,4,2,0,0,0,0,0,0,0],"split_type":[0,0,0,0,0,0,0,0,0,0,0,0,0],"sum_hessian":[3.046075E2,4.9142197E1,2.5546533E2,4.590774E1,3.234455E0,2.2014763E0,2.5326385E2,1.05594E0,4.4851803E1,1.6149795E0,1.6194755E0,1.0267318E0,1.1747446E0],"tree_param":{"num_deleted":"0","num_feature":"8","num_nodes":"13","size_leaf_vector":"0"}},{"base_weights":[-7.1328455E-1,9.882488E-1,-1.0255569E0,1.0217116E0,1.7879622E-1,-1.8239379E-1,-1.0403353E0,-1.5063246E-1,4.1712824E-1,-6.551324E-1,6.5758765E-1,-2.0066422E-1,-7.402243E-1],"categories":[],"categories_nodes":[],"categories_segments":[],"categories_sizes":[],"default_left":[1,1,1,0,1,1,0,0,0,1,0,0,0],"id":49,"left_children":[1,3,5,-1,7,9,-1,-1,-1,11,-1,-1,-1],"loss_changes":[1.560092E2,1.0563354E0,2.8875122E0,0E0,3.0057582E-1,2.601554E0,0E0,0E0,0E0,6.1074495E-3,0E0,0E0,0E0],"parents":[2147483647,0,0,1,1,2,2,4,4,5,5,9,9],"right_children":[2,4,6,-1,8,10,-1,-1,-1,12,-1,-1,-1],"split_conditions":[7.5E0,7.493243E-1,9.5E0,5.108558E-2,9.194583E3,5.469551E-1,-5.2016765E-2,-7.531623E-3,2.0856412E-2,6.221867E3,3.2879382E-2,-1.0033212E-2,-3.7011217E-2],"split_indices":[4,2,4,0,0,7,0,0,0,6,0,0,0],"split_type":[0,0,0,0,0,0,0,0,0,0,0,0,0],"sum_hessian":[2.9070615E2,4.4742905E1,2.4596324E2,4.271485E1,2.0280535E0,4.4666147E0,2.4149663E2,1.0057929E0,1.0222607E0,2.9989047E0,1.4677098E0,1.002555E0,1.9963498E0],"tree_param":{"num_deleted":"0","num_feature":"8","num_nodes":"13","size_leaf_vector":"0"}},{"base_weights":[-7.108521E-1,9.8356277E-1,-1.0226427E0,1.0183765E0,1.7506234E-1,-1.0317557E0,2.0742089E-1,-1.4687797E-1,4.0925744E-1,-1.309854E-2,-1.0360715E0],"categories":[],"categories_nodes":[],"categories_segments":[],"categories_sizes":[],"default_left":[1,1,1,0,1,1,0,0,0,0,0],"id":50,"left_children":[1,3,5,-1,7,9,-1,-1,-1,-1,-1],"loss_changes":[1.4809404E2,1.0539703E0,2.8554077E0,0E0,2.8742367E-1,1.0155029E0,0E0,0E0,0E0,0E0,0E0],"parents":[2147483647,0,0,1,1,2,2,4,4,5,5],"right_children":[2,4,6,-1,8,10,-1,-1,-1,-1,-1],"split_conditions":[7.5E0,7.493243E-1,4.5E0,5.0918825E-2,9.194583E3,2.1232396E-1,1.0371044E-2,-7.343899E-3,2.0462872E-2,-6.54927E-4,-5.1803578E-2],"split_indices":[4,2,5,0,0,2,0,0,0,0,0],"split_type":[0,0,0,0,0,0,0,0,0,0,0],"sum_hessian":[2.7741656E2,4.2779324E1,2.3463722E2,4.076444E1,2.0148835E0,2.3307172E2,1.565505E0,1.0054979E0,1.0093856E0,1.0003425E0,2.3207138E2],"tree_param":{"num_deleted":"0","num_feature":"8","num_nodes":"11","size_leaf_vector":"0"}},{"base_weights":[-7.082095E-1,9.2978233E-1,-1.0294821E0,1.00146E0,-2.7573492E-2,-2.608453E-1,-1.0355489E0,2.5069812E-1,1.0141912E0,6.675403E-1,-7.1167946E-1,-5.592871E-1,1.768431E-1],"categories":[],"categories_nodes":[],"categories_segments":[],"categories_sizes":[],"default_left":[1,1,1,1,1,1,0,0,0,0,0,0,0],"id":51,"left_children":[1,3,5,7,9,11,-1,-1,-1,-1,-1,-1,-1],"loss_changes":[1.4082207E2,3.054287E0,7.6820374E-1,1.3821411E-1,2.3988369E0,5.0129056E-1,0E0,0E0,0E0,0E0,0E0,0E0,0E0],"parents":[2147483647,0,0,1,1,2,2,3,3,4,4,5,5],"right_children":[2,4,6,8,10,12,-1,-1,-1,-1,-1,-1,-1],"split_conditions":[8.5E0,7.134185E-1,9.5E0,2.828281E-1,5.5E0,3.530205E-1,-5.177745E-2,1.2534906E-2,5.0709557E-2,3.3377018E-2,-3.5583973E-2,-2.7964354E-2,8.842155E-3],"split_indices":[4,2,4,7,4,7,0,0,0,0,0,0,0],"split_type":[0,0,0,0,0,0,0,0,0,0,0,0,0],"sum_hessian":[2.647805E2,4.3107098E1,2.2167337E2,4.00616E1,3.045499E0,2.0804677E0,2.1959291E2,1.0130559E0,3.9048542E1,1.5226071E0,1.522892E0,1.0718185E0,1.0086491E0],"tree_param":{"num_deleted":"0","num_feature":"8","num_nodes":"13","size_leaf_vector":"0"}},{"base_weights":[-7.058951E-1,9.2437124E-1,-1.0269685E0,9.969096E-1,-2.7271736E-2,-2.559612E-1,-1.0332972E0,2.451943E-1,1.0102686E0,6.583017E-1,-7.010708E-1,1.6664985E-1,-5.628026E-1],"categories":[],"categories_nodes":[],"categories_segments":[],"categories_sizes":[],"default_left":[1,1,1,1,1,1,0,0,0,0,0,0,0],"id":52,"left_children":[1,3,5,7,9,11,-1,-1,-1,-1,-1,-1,-1],"loss_changes":[1.337182E2,2.944538E0,7.7186584E-1,1.4689255E-1,2.2938375E0,4.9039164E-1,0E0,0E0,0E0,0E0,0E0,0E0,0E0],"parents":[2147483647,0,0,1,1,2,2,3,3,4,4,5,5],"right_children":[2,4,6,8,10,12,-1,-1,-1,-1,-1,-1,-1],"split_conditions":[8.5E0,7.134185E-1,9.5E0,2.828281E-1,5.5E0,8.727432E2,-5.166486E-2,1.2259715E-2,5.0513428E-2,3.2915086E-2,-3.505354E-2,8.332493E-3,-2.8140131E-2],"split_indices":[4,2,4,7,4,1,0,0,0,0,0,0,0],"split_type":[0,0,0,0,0,0,0,0,0,0,0,0,0],"sum_hessian":[2.5264926E2,4.1261726E1,2.1138754E2,3.8295135E1,2.96659E0,2.058431E0,2.093291E2,1.0066141E0,3.7288525E1,1.4818475E0,1.4847424E0,1.0580585E0,1.0003724E0],"tree_param":{"num_deleted":"0","num_feature":"8","num_nodes":"13","size_leaf_vector":"0"}},{"base_weights":[-7.036097E-1,9.1892993E-1,-1.0245262E0,9.923377E-1,-2.6966814E-2,-2.512426E-1,-1.0311409E0,2.39805E-1,1.006352E0,6.4921296E-1,-6.906806E-1,-5.476525E-1,1.7406167E-1],"categories":[],"categories_nodes":[],"categories_segments":[],"categories_sizes":[],"default_left":[1,1,1,1,1,1,0,0,0,0,0,0,0],"id":53,"left_children":[1,3,5,7,9,11,-1,-1,-1,-1,-1,-1,-1],"loss_changes":[1.2698574E2,2.838848E0,7.770691E-1,1.5530014E-1,2.1942697E0,4.7858894E-1,0E0,0E0,0E0,0E0,0E0,0E0,0E0],"parents":[2147483647,0,0,1,1,2,2,3,3,4,4,5,5],"right_children":[2,4,6,8,10,12,-1,-1,-1,-1,-1,-1,-1],"split_conditions":[8.5E0,7.134185E-1,9.5E0,2.828281E-1,5.5E0,3.530205E-1,-5.1557045E-2,1.199025E-2,5.0317597E-2,3.246065E-2,-3.4534033E-2,-2.7382625E-2,8.703084E-3],"split_indices":[4,2,4,7,4,7,0,0,0,0,0,0,0],"split_type":[0,0,0,0,0,0,0,0,0,0,0,0,0],"sum_hessian":[2.4106708E2,3.9498905E1,2.0156818E2,3.660873E1,2.8901744E0,2.0402215E0,1.9952795E2,1.00041E0,3.5608322E1,1.442465E0,1.4477096E0,1.0327728E0,1.0074487E0],"tree_param":{"num_deleted":"0","num_feature":"8","num_nodes":"13","size_leaf_vector":"0"}},{"base_weights":[-7.013584E-1,9.676927E-1,-1.0119071E0,1.005864E0,1.6348548E-1,-1.0221479E0,2.2135329E-1,-3.463944E-2,-1.0271221E0],"categories":[],"categories_nodes":[],"categories_segments":[],"categories_sizes":[],"default_left":[1,1,1,0,0,1,0,0,0],"id":54,"left_children":[1,3,5,-1,-1,7,-1,-1,-1],"loss_changes":[1.2071419E2,9.636917E-1,2.6922607E0,0E0,0E0,9.165039E-1,0E0,0E0,0E0],"parents":[2147483647,0,0,1,1,2,2,5,5],"right_children":[2,4,6,-1,-1,8,-1,-1,-1],"split_conditions":[7.5E0,7.493243E-1,4.5E0,5.0293203E-2,8.174274E-3,2.2419544E-1,1.1067665E-2,-1.7319721E-3,-5.1356107E-2],"split_indices":[4,2,5,0,0,2,0,0,0],"split_type":[0,0,0,0,0,0,0,0,0],"sum_hessian":[2.3000517E2,3.574998E1,1.9425519E2,3.389063E1,1.8593538E0,1.9282518E2,1.430008E0,1.0063457E0,1.9181883E2],"tree_param":{"num_deleted":"0","num_feature":"8","num_nodes":"9","size_leaf_vector":"0"}},{"base_weights":[-6.988335E-1,9.0916646E-1,-1.0198473E0,9.849519E-1,-2.4187509E-2,-2.2767076E-1,-1.0271161E0,2.5278738E-1,9.996152E-1,6.3643175E-1,-6.7505383E-1],"categories":[],"categories_nodes":[],"categories_segments":[],"categories_sizes":[],"default_left":[1,1,1,1,1,0,0,0,0,0,0],"id":55,"left_children":[1,3,5,7,9,-1,-1,-1,-1,-1,-1],"loss_changes":[1.1474682E2,2.6567612E0,8.2724E-1,1.1717224E-1,2.0512443E0,0E0,0E0,0E0,0E0,0E0,0E0],"parents":[2147483647,0,0,1,1,2,2,3,3,4,4],"right_children":[2,4,6,8,10,-1,-1,-1,-1,-1,-1],"split_conditions":[8.5E0,7.134185E-1,9.5E0,2.853049E-1,5.5E0,-1.1383538E-2,-5.1355805E-2,1.2639369E-2,4.998076E-2,3.182159E-2,-3.375269E-2],"split_indices":[4,2,4,7,4,0,0,0,0,0,0],"split_type":[0,0,0,0,0,0,0,0,0,0,0],"sum_hessian":[2.1949939E2,3.6222744E1,1.8327664E2,3.3451317E1,2.771427E0,1.9602855E0,1.8131636E2,1.0149018E0,3.2436417E1,1.3864146E0,1.3850121E0],"tree_param":{"num_deleted":"0","num_feature":"8","num_nodes":"11","size_leaf_vector":"0"}},{"base_weights":[-6.965708E-1,9.0362155E-1,-1.0175583E0,9.803094E-1,-2.3934541E-2,-2.2116598E-1,-1.025207E0,9.99584E-1,2.904539E-1,6.276877E-1,-6.651698E-1],"categories":[],"categories_nodes":[],"categories_segments":[],"categories_sizes":[],"default_left":[1,1,1,1,1,0,0,0,0,0,0],"id":56,"left_children":[1,3,5,7,9,-1,-1,-1,-1,-1,-1],"loss_changes":[1.0900087E2,2.5619335E0,8.437195E-1,1.4826012E-1,1.9640933E0,0E0,0E0,0E0,0E0,0E0,0E0],"parents":[2147483647,0,0,1,1,2,2,3,3,4,4],"right_children":[2,4,6,8,10,-1,-1,-1,-1,-1,-1],"split_conditions":[8.5E0,7.134185E-1,9.5E0,7.5E0,5.5E0,-1.10583E-2,-5.1260352E-2,4.9979202E-2,1.4522696E-2,3.1384386E-2,-3.325849E-2],"split_indices":[4,2,4,4,4,0,0,0,0,0,0],"split_type":[0,0,0,0,0,0,0,0,0,0,0],"sum_hessian":[2.094217E2,3.468656E1,1.7473515E2,3.1985233E1,2.701328E0,1.9468018E0,1.7278835E2,3.0679083E1,1.3061512E0,1.3502914E0,1.3510367E0],"tree_param":{"num_deleted":"0","num_feature":"8","num_nodes":"11","size_leaf_vector":"0"}},{"base_weights":[-6.9434804E-1,8.984325E-1,-1.0153216E0,9.7609293E-1,-2.3678219E-2,-2.1483473E-1,-1.0233693E0,9.9655384E-1,2.8282517E-1,6.190836E-1,-6.554799E-1],"categories":[],"categories_nodes":[],"categories_segments":[],"categories_sizes":[],"default_left":[1,1,1,1,1,0,0,0,0,0,0],"id":57,"left_children":[1,3,5,7,9,-1,-1,-1,-1,-1,-1],"loss_changes":[1.0356508E2,2.4727402E0,8.597412E-1,1.6602135E-1,1.881342E0,0E0,0E0,0E0,0E0,0E0,0E0],"parents":[2147483647,0,0,1,1,2,2,3,3,4,4],"right_children":[2,4,6,8,10,-1,-1,-1,-1,-1,-1],"split_conditions":[8.5E0,7.134185E-1,9.5E0,7.5E0,5.5E0,-1.0741737E-2,-5.1168468E-2,4.982769E-2,1.4141259E-2,3.095418E-2,-3.2773998E-2],"split_indices":[4,2,4,4,4,0,0,0,0,0,0],"split_type":[0,0,0,0,0,0,0,0,0,0,0],"sum_hessian":[1.9979178E2,3.32072E1,1.6658458E2,3.057373E1,2.6334705E0,1.9337721E0,1.646508E2,2.927232E1,1.3014091E0,1.315391E0,1.3180797E0],"tree_param":{"num_deleted":"0","num_feature":"8","num_nodes":"11","size_leaf_vector":"0"}},{"base_weights":[-6.921321E-1,8.931963E-1,-1.0131307E0,9.718378E-1,-2.3418896E-2,-2.086731E-1,-1.0215977E0,9.935387E-1,2.753873E-1,6.106169E-1,-6.459783E-1],"categories":[],"categories_nodes":[],"categories_segments":[],"categories_sizes":[],"default_left":[1,1,1,1,1,0,0,0,0,0,0],"id":58,"left_children":[1,3,5,7,9,-1,-1,-1,-1,-1,-1],"loss_changes":[9.840944E1,2.386736E0,8.753357E-1,1.8323135E-1,1.8027401E0,0E0,0E0,0E0,0E0,0E0,0E0],"parents":[2147483647,0,0,1,1,2,2,3,3,4,4],"right_children":[2,4,6,8,10,-1,-1,-1,-1,-1,-1],"split_conditions":[8.5E0,7.134185E-1,9.5E0,7.5E0,5.5E0,-1.0433655E-2,-5.1079888E-2,4.9676936E-2,1.3769365E-2,3.0530846E-2,-3.2298915E-2],"split_indices":[4,2,4,4,4,0,0,0,0,0,0],"split_type":[0,0,0,0,0,0,0,0,0,0,0],"sum_hessian":[1.9060304E2,3.1794704E1,1.5880833E2,2.9226917E1,2.5677876E0,1.9211805E0,1.5688715E2,2.7930061E1,1.2968546E0,1.2816719E0,1.2861159E0],"tree_param":{"num_deleted":"0","num_feature":"8","num_nodes":"11","size_leaf_vector":"0"}},{"base_weights":[-6.899183E-1,8.879057E-1,-1.0109798E0,9.675358E-1,-2.3156967E-2,-2.0267725E-1,-1.0198871E0,9.905316E-1,2.6813665E-1,6.022853E-1,-6.366593E-1],"categories":[],"categories_nodes":[],"categories_segments":[],"categories_sizes":[],"default_left":[1,1,1,1,1,0,0,0,0,0,0],"id":59,"left_children":[1,3,5,7,9,-1,-1,-1,-1,-1,-1],"loss_changes":[9.351872E1,2.3037624E0,8.904724E-1,1.9988441E-1,1.7280533E0,0E0,0E0,0E0,0E0,0E0,0E0],"parents":[2147483647,0,0,1,1,2,2,3,3,4,4],"right_children":[2,4,6,8,10,-1,-1,-1,-1,-1,-1],"split_conditions":[8.5E0,7.134185E-1,9.5E0,7.5E0,5.5E0,-1.01338625E-2,-5.0994355E-2,4.9526583E-2,1.3406833E-2,3.0114267E-2,-3.1832967E-2],"split_indices":[4,2,4,4,4,0,0,0,0,0,0],"split_type":[0,0,0,0,0,0,0,0,0,0,0],"sum_hessian":[1.8183652E2,3.044621E1,1.5139032E2,2.7941998E1,2.5042133E0,1.9090109E0,1.4948131E2,2.6649517E1,1.2924807E0,1.2490935E0,1.2551198E0],"tree_param":{"num_deleted":"0","num_feature":"8","num_nodes":"11","size_leaf_vector":"0"}},{"base_weights":[-6.877023E-1,8.8255405E-1,-1.0088632E0,9.631787E-1,-2.2892889E-2,-1.9684345E-1,-1.0182327E0,9.875258E-1,2.610689E-1,5.940865E-1,-6.275179E-1],"categories":[],"categories_nodes":[],"categories_segments":[],"categories_sizes":[],"default_left":[1,1,1,1,1,0,0,0,0,0,0],"id":60,"left_children":[1,3,5,7,9,-1,-1,-1,-1,-1,-1],"loss_changes":[8.887844E1,2.22369E0,9.051666E-1,2.1597862E-1,1.6570618E0,0E0,0E0,0E0,0E0,0E0,0E0],"parents":[2147483647,0,0,1,1,2,2,3,3,4,4],"right_children":[2,4,6,8,10,-1,-1,-1,-1,-1,-1],"split_conditions":[8.5E0,7.134185E-1,9.5E0,7.5E0,5.5E0,-9.842172E-3,-5.0911635E-2,4.937629E-2,1.3053446E-2,2.9704327E-2,-3.1375896E-2],"split_indices":[4,2,4,4,4,0,0,0,0,0,0],"split_type":[0,0,0,0,0,0,0,0,0,0,0],"sum_hessian":[1.7347397E2,2.9158905E1,1.4431506E2,2.6716225E1,2.4426813E0,1.8972485E0,1.4241782E2,2.5427946E1,1.2882786E0,1.2176157E0,1.2250657E0],"tree_param":{"num_deleted":"0","num_feature":"8","num_nodes":"11","size_leaf_vector":"0"}},{"base_weights":[-6.8547773E-1,8.771359E-1,-1.0067753E0,9.587594E-1,-2.2626594E-2,-1.9116792E-1,-1.01663E0,9.845153E-1,2.5418E-1,5.860187E-1,-6.185492E-1],"categories":[],"categories_nodes":[],"categories_segments":[],"categories_sizes":[],"default_left":[1,1,1,1,1,0,0,0,0,0,0],"id":61,"left_children":[1,3,5,7,9,-1,-1,-1,-1,-1,-1],"loss_changes":[8.4475685E1,2.146389E0,9.193878E-1,2.3150826E-1,1.5895609E0,0E0,0E0,0E0,0E0,0E0,0E0],"parents":[2147483647,0,0,1,1,2,2,3,3,4,4],"right_children":[2,4,6,8,10,-1,-1,-1,-1,-1,-1],"split_conditions":[8.5E0,7.134185E-1,9.5E0,7.5E0,5.5E0,-9.558396E-3,-5.0831504E-2,4.9225766E-2,1.2709001E-2,2.9300934E-2,-3.0927463E-2],"split_indices":[4,2,4,4,4,0,0,0,0,0,0],"split_type":[0,0,0,0,0,0,0,0,0,0,0],"sum_hessian":[1.6549794E2,2.7930317E1,1.3756761E2,2.5547188E1,2.383129E0,1.8858782E0,1.3568175E2,2.4262947E1,1.2842405E0,1.1872011E0,1.1959277E0],"tree_param":{"num_deleted":"0","num_feature":"8","num_nodes":"11","size_leaf_vector":"0"}},{"base_weights":[-6.832419E-1,8.716441E-1,-1.0047104E0,9.8353946E-1,1.5243827E-1,-1.8564694E-1,-1.0150745E0,-4.706484E-1,7.007098E-1],"categories":[],"categories_nodes":[],"categories_segments":[],"categories_sizes":[],"default_left":[1,1,1,0,1,0,0,0,0],"id":62,"left_children":[1,3,5,-1,7,-1,-1,-1,-1],"loss_changes":[8.029709E1,2.0838928E0,9.33197E-1,0E0,2.0107586E0,0E0,0E0,0E0,0E0],"parents":[2147483647,0,0,1,1,2,2,4,4],"right_children":[2,4,6,-1,8,-1,-1,-1,-1],"split_conditions":[8.5E0,5.5E0,9.5E0,4.9176972E-2,1.5E0,-9.282347E-3,-5.0753724E-2,-2.353242E-2,3.503549E-2],"split_indices":[4,4,4,0,3,0,0,0,0],"split_type":[0,0,0,0,0,0,0,0,0],"sum_hessian":[1.5789134E2,2.6757694E1,1.3113365E2,2.2837118E1,3.9205763E0,1.8748865E0,1.2925877E2,1.9013515E0,2.019225E0],"tree_param":{"num_deleted":"0","num_feature":"8","num_nodes":"9","size_leaf_vector":"0"}},{"base_weights":[-6.809604E-1,8.6597085E-1,-1.0026634E0,9.505805E-1,-3.2666713E-2,-1.802769E-1,-1.0135617E0,9.785571E-1,2.4269703E-1,5.648005E-1,-6.038769E-1],"categories":[],"categories_nodes":[],"categories_segments":[],"categories_sizes":[],"default_left":[1,1,1,1,1,0,0,0,0,0,0],"id":63,"left_children":[1,3,5,7,9,-1,-1,-1,-1,-1,-1],"loss_changes":[7.6333595E1,2.0568352E0,9.465637E-1,2.454052E-1,1.4534577E0,0E0,0E0,0E0,0E0,0E0,0E0],"parents":[2147483647,0,0,1,1,2,2,3,3,4,4],"right_children":[2,4,6,8,10,-1,-1,-1,-1,-1,-1],"split_conditions":[8.5E0,7.134185E-1,9.5E0,7.5E0,5.5E0,-9.013846E-3,-5.0678086E-2,4.8927855E-2,1.2134852E-2,2.8240025E-2,-3.0193845E-2],"split_indices":[4,2,4,4,4,0,0,0,0,0,0],"split_type":[0,0,0,0,0,0,0,0,0,0,0],"sum_hessian":[1.5064262E2,2.5643282E1,1.24999344E2,2.3383818E1,2.2594643E0,1.8642597E0,1.23135086E2,2.2126957E1,1.2568603E0,1.1098347E0,1.1496297E0],"tree_param":{"num_deleted":"0","num_feature":"8","num_nodes":"11","size_leaf_vector":"0"}},{"base_weights":[-6.786916E-1,8.6034334E-1,-1.0006292E0,9.7732896E-1,1.4204645E-1,-1.7505418E-1,-1.0120881E0,-4.602034E-1,6.830427E-1],"categories":[],"categories_nodes":[],"categories_segments":[],"categories_sizes":[],"default_left":[1,1,1,0,1,0,0,0,0],"id":64,"left_children":[1,3,5,-1,7,-1,-1,-1,-1],"loss_changes":[7.256865E1,2.0102043E0,9.5947266E-1,0E0,1.8625746E0,0E0,0E0,0E0,0E0],"parents":[2147483647,0,0,1,1,2,2,4,4],"right_children":[2,4,6,-1,8,-1,-1,-1,-1],"split_conditions":[8.5E0,5.5E0,9.5E0,4.8866447E-2,1.5E0,-8.752709E-3,-5.0604403E-2,-2.301017E-2,3.4152135E-2],"split_indices":[4,4,4,0,3,0,0,0,0],"split_type":[0,0,0,0,0,0,0,0,0],"sum_hessian":[1.4372583E2,2.4574432E1,1.19151405E2,2.0822544E1,3.7518878E0,1.853985E0,1.1729742E2,1.846103E0,1.905785E0],"tree_param":{"num_deleted":"0","num_feature":"8","num_nodes":"9","size_leaf_vector":"0"}},{"base_weights":[-6.763652E-1,8.545449E-1,-9.9860245E-1,9.421967E-1,-4.226696E-2,-1.6997524E-1,-1.0106491E0,9.725208E-1,2.3183325E-1,5.441023E-1,-5.896976E-1],"categories":[],"categories_nodes":[],"categories_segments":[],"categories_sizes":[],"default_left":[1,1,1,1,1,0,0,0,0,0,0],"id":65,"left_children":[1,3,5,7,9,-1,-1,-1,-1,-1,-1],"loss_changes":[6.8998024E1,1.9703217E0,9.719391E-1,2.5738716E-1,1.3299611E0,0E0,0E0,0E0,0E0,0E0,0E0],"parents":[2147483647,0,0,1,1,2,2,3,3,4,4],"right_children":[2,4,6,8,10,-1,-1,-1,-1,-1,-1],"split_conditions":[8.5E0,7.134185E-1,9.5E0,7.5E0,5.5E0,-8.498762E-3,-5.0532456E-2,4.8626043E-2,1.1591663E-2,2.7205115E-2,-2.9484881E-2],"split_indices":[4,2,4,4,4,0,0,0,0,0,0],"split_type":[0,0,0,0,0,0,0,0,0,0,0],"sum_hessian":[1.371359E2,2.3558832E1,1.13577065E2,2.1415169E1,2.1436646E0,1.8440498E0,1.1173302E2,2.0184483E1,1.2306856E0,1.0379574E0,1.1057073E0],"tree_param":{"num_deleted":"0","num_feature":"8","num_nodes":"11","size_leaf_vector":"0"}},{"base_weights":[-6.740477E-1,8.487632E-1,-9.9657834E-1,9.71019E-1,1.3210623E-1,-1.6503663E-1,-1.0092413E0,-4.502193E-1,6.656242E-1],"categories":[],"categories_nodes":[],"categories_segments":[],"categories_sizes":[],"default_left":[1,1,1,0,1,0,0,0,0],"id":66,"left_children":[1,3,5,-1,7,-1,-1,-1,-1],"loss_changes":[6.5603806E1,1.9381084E0,9.83963E-1,0E0,1.7271023E0,0E0,0E0,0E0,0E0],"parents":[2147483647,0,0,1,1,2,2,4,4],"right_children":[2,4,6,-1,8,-1,-1,-1,-1],"split_conditions":[8.5E0,5.5E0,9.5E0,4.8550952E-2,1.5E0,-8.251832E-3,-5.0462067E-2,-2.2510966E-2,3.328121E-2],"split_indices":[4,4,4,0,3,0,0,0,0],"split_type":[0,0,0,0,0,0,0,0,0],"sum_hessian":[1.3084879E2,2.2584711E1,1.0826408E2,1.8990208E1,3.5945032E0,1.8344426E0,1.06429634E2,1.7932897E0,1.8012135E0],"tree_param":{"num_deleted":"0","num_feature":"8","num_nodes":"9","size_leaf_vector":"0"}},{"base_weights":[-6.716596E-1,8.4282506E-1,-9.9455196E-1,9.677277E-1,1.2973112E-1,-1.6023481E-1,-1.007861E0,6.878219E-1,-4.2102924E-1],"categories":[],"categories_nodes":[],"categories_segments":[],"categories_sizes":[],"default_left":[1,1,1,0,1,0,0,0,0],"id":67,"left_children":[1,3,5,-1,7,-1,-1,-1,-1],"loss_changes":[6.238574E1,1.892664E0,9.9554443E-1,0E0,1.682666E0,0E0,0E0,0E0,0E0],"parents":[2147483647,0,0,1,1,2,2,4,4],"right_children":[2,4,6,-1,8,-1,-1,-1,-1],"split_conditions":[8.5E0,5.5E0,9.5E0,4.8386388E-2,4.031191E-1,-8.011741E-3,-5.0393052E-2,3.4391098E-2,-2.1051463E-2],"split_indices":[4,4,4,0,2,0,0,0,0],"split_type":[0,0,0,0,0,0,0,0,0],"sum_hessian":[1.2486003E2,2.1659365E1,1.0320067E2,1.8127195E1,3.5321708E0,1.8251513E0,1.0137552E2,1.6308032E0,1.9013675E0],"tree_param":{"num_deleted":"0","num_feature":"8","num_nodes":"9","size_leaf_vector":"0"}},{"base_weights":[-6.6921157E-1,8.3696455E-1,-9.9251825E-1,9.296174E-1,-6.0424928E-2,-1.5556647E-1,-1.0065043E0,9.632883E-1,2.1794465E-1],"categories":[],"categories_nodes":[],"categories_segments":[],"categories_sizes":[],"default_left":[1,1,1,1,0,0,0,0,0],"id":68,"left_children":[1,3,5,7,-1,-1,-1,-1,-1],"loss_changes":[5.9339165E1,1.8667259E0,1.0066757E0,2.6448822E-1,0E0,0E0,0E0,0E0,0E0],"parents":[2147483647,0,0,1,1,2,2,3,3],"right_children":[2,4,6,8,-1,-1,-1,-1,-1],"split_conditions":[8.5E0,7.134185E-1,9.5E0,7.5E0,-3.0212465E-3,-7.7783237E-3,-5.0325215E-2,4.8164416E-2,1.0897233E-2],"split_indices":[4,2,4,4,0,0,0,0,0],"split_type":[0,0,0,0,0,0,0,0,0],"sum_hessian":[1.1915123E2,2.0775671E1,9.8375565E1,1.8798832E1,1.9768386E0,1.8161652E0,9.6559395E1,1.7612013E1,1.1868199E0],"tree_param":{"num_deleted":"0","num_feature":"8","num_nodes":"9","size_leaf_vector":"0"}},{"base_weights":[-6.665374E-1,8.2917035E-1,-9.9047256E-1,9.61408E-1,1.1441974E-1,-1.5102828E-1,-1.0051681E0,6.7127687E-1,-4.1763467E-1],"categories":[],"categories_nodes":[],"categories_segments":[],"categories_sizes":[],"default_left":[1,1,1,0,1,0,0,0,0],"id":69,"left_children":[1,3,5,-1,7,-1,-1,-1,-1],"loss_changes":[5.6419174E1,1.8722363E0,1.0173721E0,0E0,1.5867673E0,0E0,0E0,0E0,0E0],"parents":[2147483647,0,0,1,1,2,2,4,4],"right_children":[2,4,6,-1,8,-1,-1,-1,-1],"split_conditions":[8.5E0,5.5E0,9.5E0,4.80704E-2,4.031191E-1,-7.551414E-3,-5.0258406E-2,3.3563845E-2,-2.0881733E-2],"split_indices":[4,4,4,0,2,0,0,0,0],"split_type":[0,0,0,0,0,0,0,0,0],"sum_hessian":[1.1375025E2,1.997231E1,9.377795E1,1.6562876E1,3.4094317E0,1.8074737E0,9.1970474E1,1.538032E0,1.8713996E0],"tree_param":{"num_deleted":"0","num_feature":"8","num_nodes":"9","size_leaf_vector":"0"}},{"base_weights":[-6.640012E-1,8.231559E-1,-9.884103E-1,9.579725E-1,1.13173805E-1,-1.4661698E-1,-1.0038488E0,-4.4125113E-1,6.3622534E-1],"categories":[],"categories_nodes":[],"categories_segments":[],"categories_sizes":[],"default_left":[1,1,1,0,1,0,0,0,0],"id":70,"left_children":[1,3,5,-1,7,-1,-1,-1,-1],"loss_changes":[5.3672108E1,1.8218021E0,1.027626E0,0E0,1.5428174E0,0E0,0E0,0E0,0E0],"parents":[2147483647,0,0,1,1,2,2,4,4],"right_children":[2,4,6,-1,8,-1,-1,-1,-1],"split_conditions":[8.5E0,5.5E0,9.5E0,4.7898628E-2,1.5E0,-7.3308493E-3,-5.019244E-2,-2.2062557E-2,3.1811267E-2],"split_indices":[4,4,4,0,3,0,0,0,0],"split_type":[0,0,0,0,0,0,0,0,0],"sum_hessian":[1.0856326E2,1.9165823E1,8.939744E1,1.5813708E1,3.352115E0,1.7990664E0,8.759837E1,1.7031734E0,1.6489415E0],"tree_param":{"num_deleted":"0","num_feature":"8","num_nodes":"9","size_leaf_vector":"0"}},{"base_weights":[-6.614442E-1,8.169312E-1,-9.863265E-1,9.16474E-1,-7.635751E-2,-1.4232937E-1,-1.0025431E0,9.536648E-1,2.0527166E-1],"categories":[],"categories_nodes":[],"categories_segments":[],"categories_sizes":[],"default_left":[1,1,1,1,0,0,0,0,0],"id":71,"left_children":[1,3,5,7,-1,-1,-1,-1,-1],"loss_changes":[5.105449E1,1.7946558E0,1.0374374E0,2.678566E-1,0E0,0E0,0E0,0E0,0E0],"parents":[2147483647,0,0,1,1,2,2,3,3],"right_children":[2,4,6,8,-1,-1,-1,-1,-1],"split_conditions":[8.5E0,7.134185E-1,9.5E0,7.5E0,-3.8178756E-3,-7.116468E-3,-5.0127156E-2,4.768324E-2,1.0263584E-2],"split_indices":[4,2,4,4,0,0,0,0,0],"split_type":[0,0,0,0,0,0,0,0,0],"sum_hessian":[1.0361989E2,1.839572E1,8.522417E1,1.6527983E1,1.8677366E0,1.7909336E0,8.3433235E1,1.5382662E1,1.145322E0],"tree_param":{"num_deleted":"0","num_feature":"8","num_nodes":"9","size_leaf_vector":"0"}},{"base_weights":[-6.5862393E-1,8.088503E-1,-9.8421663E-1,9.5133924E-1,9.8407574E-2,-1.3816221E-1,-1.0012476E0,6.4886713E-1,-4.1198352E-1],"categories":[],"categories_nodes":[],"categories_segments":[],"categories_sizes":[],"default_left":[1,1,1,0,1,0,0,0,0],"id":72,"left_children":[1,3,5,-1,7,-1,-1,-1,-1],"loss_changes":[4.8550236E1,1.7991381E0,1.0467987E0,0E0,1.4582534E0,0E0,0E0,0E0,0E0],"parents":[2147483647,0,0,1,1,2,2,4,4],"right_children":[2,4,6,-1,8,-1,-1,-1,-1],"split_conditions":[8.5E0,5.5E0,9.5E0,4.756696E-2,4.031191E-1,-6.908111E-3,-5.0062384E-2,3.2443356E-2,-2.0599177E-2],"split_indices":[4,4,4,0,2,0,0,0,0],"split_type":[0,0,0,0,0,0,0,0,0],"sum_hessian":[9.894614E1,1.7697544E1,8.124859E1,1.4458596E1,3.2389479E0,1.7830657E0,7.946552E1,1.4277732E0,1.8111746E0],"tree_param":{"num_deleted":"0","num_feature":"8","num_nodes":"9","size_leaf_vector":"0"}},{"base_weights":[-6.5592796E-1,8.026184E-1,-9.82076E-1,9.477169E-1,9.760948E-2,-1.3411255E-1,-9.999594E-1,-4.3458757E-1,6.135028E-1],"categories":[],"categories_nodes":[],"categories_segments":[],"categories_sizes":[],"default_left":[1,1,1,0,1,0,0,0,0],"id":73,"left_children":[1,3,5,-1,7,-1,-1,-1,-1],"loss_changes":[4.6196968E1,1.74827E0,1.0557251E0,0E0,1.4159685E0,0E0,0E0,0E0,0E0],"parents":[2147483647,0,0,1,1,2,2,4,4],"right_children":[2,4,6,-1,8,-1,-1,-1,-1],"split_conditions":[8.5E0,5.5E0,9.5E0,4.7385845E-2,1.5E0,-6.705628E-3,-4.999797E-2,-2.1729378E-2,3.0675141E-2],"split_indices":[4,4,4,0,3,0,0,0,0],"split_type":[0,0,0,0,0,0,0,0,0],"sum_hessian":[9.445626E1,1.6994648E1,7.746161E1,1.3808455E1,3.1861925E0,1.7754537E0,7.568616E1,1.6458898E0,1.5403029E0],"tree_param":{"num_deleted":"0","num_feature":"8","num_nodes":"9","size_leaf_vector":"0"}},{"base_weights":[-6.5320176E-1,7.961534E-1,-9.7990006E-1,9.026785E-1,-9.087576E-2,-1.3017735E-1,-9.9867517E-1,9.435342E-1,1.9372149E-1],"categories":[],"categories_nodes":[],"categories_segments":[],"categories_sizes":[],"default_left":[1,1,1,1,0,0,0,0,0],"id":74,"left_children":[1,3,5,7,-1,-1,-1,-1,-1],"loss_changes":[4.395315E1,1.7189522E0,1.0641937E0,2.678461E-1,0E0,0E0,0E0,0E0,0E0],"parents":[2147483647,0,0,1,1,2,2,3,3],"right_children":[2,4,6,8,-1,-1,-1,-1,-1],"split_conditions":[8.5E0,7.134185E-1,9.5E0,7.5E0,-4.5437883E-3,-6.5088677E-3,-4.9933758E-2,4.717671E-2,9.686074E-3],"split_indices":[4,2,4,4,0,0,0,0,0],"split_type":[0,0,0,0,0,0,0,0,0],"sum_hessian":[9.0178116E1,1.6323595E1,7.385452E1,1.4557692E1,1.7659037E0,1.7680889E0,7.208643E1,1.3451626E1,1.1060661E0],"tree_param":{"num_deleted":"0","num_feature":"8","num_nodes":"9","size_leaf_vector":"0"}},{"base_weights":[-6.502031E-1,8.776711E-1,-9.580104E-1,9.4056535E-1,6.770445E-2,2.696978E-1,-9.821118E-1,-9.953291E-1,-2.7290594E-2],"categories":[],"categories_nodes":[],"categories_segments":[],"categories_sizes":[],"default_left":[1,1,1,0,0,0,1,0,0],"id":75,"left_children":[1,3,5,-1,-1,-1,7,-1,-1],"loss_changes":[4.181996E1,7.0721817E-1,2.4249954E0,0E0,0E0,0E0,8.791275E-1,0E0,0E0],"parents":[2147483647,0,0,1,1,2,2,6,6],"right_children":[2,4,6,-1,-1,-1,8,-1,-1],"split_conditions":[7.5E0,7.493243E-1,2.9278028E-1,4.702827E-2,3.3852223E-3,1.348489E-2,7.578783E-1,-4.9766455E-2,-1.3645297E-3],"split_indices":[4,2,2,0,0,0,7,0,0],"split_type":[0,0,0,0,0,0,0,0,0],"sum_hessian":[8.613575E1,1.4132814E1,7.200293E1,1.29648485E1,1.1679653E0,1.190099E0,7.0812836E1,6.980413E1,1.0086993E0],"tree_param":{"num_deleted":"0","num_feature":"8","num_nodes":"9","size_leaf_vector":"0"}},{"base_weights":[-6.470287E-1,7.832307E-1,-9.754324E-1,9.3719774E-1,8.457279E-2,-1.0700514E-1,-9.9613935E-1,-4.277743E-1,5.924484E-1],"categories":[],"categories_nodes":[],"categories_segments":[],"categories_sizes":[],"default_left":[1,1,1,0,1,0,0,0,0],"id":76,"left_children":[1,3,5,-1,7,-1,-1,-1,-1],"loss_changes":[3.9876728E1,1.6530838E0,1.1192245E0,0E0,1.2961696E0,0E0,0E0,0E0,0E0],"parents":[2147483647,0,0,1,1,2,2,4,4],"right_children":[2,4,6,-1,8,-1,-1,-1,-1],"split_conditions":[8.5E0,5.5E0,9.5E0,4.6859886E-2,1.5E0,-5.3502573E-3,-4.9806967E-2,-2.1388715E-2,2.962242E-2],"split_indices":[4,4,4,0,3,0,0,0,0],"split_type":[0,0,0,0,0,0,0,0,0],"sum_hessian":[8.227132E1,1.5104301E1,6.7167015E1,1.2096995E1,3.0073056E0,1.7078834E0,6.545913E1,1.5755761E0,1.4317296E0],"tree_param":{"num_deleted":"0","num_feature":"8","num_nodes":"9","size_leaf_vector":"0"}},{"base_weights":[-6.4410996E-1,7.765428E-1,-9.731289E-1,9.332648E-1,8.3461426E-2,-1.0385243E-1,-9.948486E-1,6.14652E-1,-3.9728585E-1],"categories":[],"categories_nodes":[],"categories_segments":[],"categories_sizes":[],"default_left":[1,1,1,0,1,0,0,0,0],"id":77,"left_children":[1,3,5,-1,7,-1,-1,-1,-1],"loss_changes":[3.7947227E1,1.607748E0,1.1248398E0,0E0,1.255493E0,0E0,0E0,0E0,0E0],"parents":[2147483647,0,0,1,1,2,2,4,4],"right_children":[2,4,6,-1,8,-1,-1,-1,-1],"split_conditions":[8.5E0,5.5E0,9.5E0,4.666324E-2,4.031191E-1,-5.1926216E-3,-4.974243E-2,3.07326E-2,-1.9864293E-2],"split_indices":[4,4,4,0,2,0,0,0,0],"split_type":[0,0,0,0,0,0,0,0,0],"sum_hessian":[7.856745E1,1.451853E1,6.404893E1,1.1558367E1,2.9601626E0,1.7022467E0,6.2346676E1,1.2739769E0,1.6861858E0],"tree_param":{"num_deleted":"0","num_feature":"8","num_nodes":"9","size_leaf_vector":"0"}},{"base_weights":[-6.410768E-1,7.699683E-1,-9.707721E-1,8.8498193E-1,-9.978843E-2,-1.0079021E-1,-9.935499E-1,9.288984E-1,1.9391352E-1],"categories":[],"categories_nodes":[],"categories_segments":[],"categories_sizes":[],"default_left":[1,1,1,1,0,0,0,0,0],"id":78,"left_children":[1,3,5,7,-1,-1,-1,-1,-1],"loss_changes":[3.612199E1,1.5847616E0,1.1300507E0,2.2393322E-1,0E0,0E0,0E0,0E0,0E0],"parents":[2147483647,0,0,1,1,2,2,3,3],"right_children":[2,4,6,8,-1,-1,-1,-1,-1],"split_conditions":[8.5E0,7.134185E-1,9.5E0,7.5E0,-4.9894215E-3,-5.039511E-3,-4.9677495E-2,4.644492E-2,9.695676E-3],"split_indices":[4,2,4,4,0,0,0,0,0],"split_type":[0,0,0,0,0,0,0,0,0],"sum_hessian":[7.50391E1,1.3959442E1,6.107966E1,1.2313625E1,1.645817E0,1.69679E0,5.9382866E1,1.1254283E1,1.0593423E0],"tree_param":{"num_deleted":"0","num_feature":"8","num_nodes":"9","size_leaf_vector":"0"}},{"base_weights":[-6.3777685E-1,7.612531E-1,-9.6835726E-1,9.2562634E-1,7.172399E-2,-9.7815946E-2,-9.9224E-1,-4.2073253E-1,5.7120013E-1],"categories":[],"categories_nodes":[],"categories_segments":[],"categories_sizes":[],"default_left":[1,1,1,0,1,0,0,0,0],"id":79,"left_children":[1,3,5,-1,7,-1,-1,-1,-1],"loss_changes":[3.436447E1,1.5721378E0,1.1348534E0,0E0,1.1914566E0,0E0,0E0,0E0,0E0],"parents":[2147483647,0,0,1,1,2,2,4,4],"right_children":[2,4,6,-1,8,-1,-1,-1,-1],"split_conditions":[8.5E0,5.5E0,9.5E0,4.628132E-2,1.5E0,-4.890797E-3,-4.9612E-2,-2.1036627E-2,2.8560007E-2],"split_indices":[4,4,4,0,3,0,0,0,0],"split_type":[0,0,0,0,0,0,0,0,0],"sum_hessian":[7.170897E1,1.3456734E1,5.8252235E1,1.0589869E1,2.8668656E0,1.6915075E0,5.656073E1,1.5229608E0,1.343905E0],"tree_param":{"num_deleted":"0","num_feature":"8","num_nodes":"9","size_leaf_vector":"0"}},{"base_weights":[-6.34624E-1,7.5433517E-1,-9.6587974E-1,8.74311E-1,-1.04700476E-1,-9.4927356E-2,-9.909162E-1,9.2109126E-1,1.8628892E-1],"categories":[],"categories_nodes":[],"categories_segments":[],"categories_sizes":[],"default_left":[1,1,1,1,0,0,0,0,0],"id":80,"left_children":[1,3,5,7,-1,-1,-1,-1,-1],"loss_changes":[3.2708366E1,1.5288658E0,1.1392593E0,2.2571087E-1,0E0,0E0,0E0,0E0,0E0],"parents":[2147483647,0,0,1,1,2,2,3,3],"right_children":[2,4,6,8,-1,-1,-1,-1,-1],"split_conditions":[8.5E0,7.134185E-1,9.5E0,7.5E0,-5.235024E-3,-4.7463677E-3,-4.954581E-2,4.6054564E-2,9.314447E-3],"split_indices":[4,2,4,4,0,0,0,0,0],"split_type":[0,0,0,0,0,0,0,0,0],"sum_hessian":[6.850603E1,1.2946019E1,5.556001E1,1.1343909E1,1.60211E0,1.686393E0,5.3873615E1,1.0304526E1,1.0393825E0],"tree_param":{"num_deleted":"0","num_feature":"8","num_nodes":"9","size_leaf_vector":"0"}},{"base_weights":[-6.311518E-1,7.4542487E-1,-9.633349E-1,9.176485E-1,6.004015E-2,-9.212197E-2,-9.895753E-1,5.872107E-1,-3.9725924E-1],"categories":[],"categories_nodes":[],"categories_segments":[],"categories_sizes":[],"default_left":[1,1,1,0,1,0,0,0,0],"id":81,"left_children":[1,3,5,-1,7,-1,-1,-1,-1],"loss_changes":[3.1120113E1,1.5370765E0,1.1432533E0,0E0,1.1442349E0,0E0,0E0,0E0,0E0],"parents":[2147483647,0,0,1,1,2,2,4,4],"right_children":[2,4,6,-1,8,-1,-1,-1,-1],"split_conditions":[8.5E0,5.5E0,9.5E0,4.5882426E-2,4.031191E-1,-4.606099E-3,-4.9478766E-2,2.9360536E-2,-1.9862963E-2],"split_indices":[4,4,4,0,2,0,0,0,0],"split_type":[0,0,0,0,0,0,0,0,0],"sum_hessian":[6.5485115E1,1.2488479E1,5.2996635E1,9.709734E0,2.7787447E0,1.6814411E0,5.1315193E1,1.1588031E0,1.6199416E0],"tree_param":{"num_deleted":"0","num_feature":"8","num_nodes":"9","size_leaf_vector":"0"}},{"base_weights":[-6.2779313E-1,6.380635E-1,-9.882145E-1,8.707384E-1,-3.165589E-1,-1.5569269E-2,9.5219946E-1,2.2584592E-1,-6.4767814E-1],"categories":[],"categories_nodes":[],"categories_segments":[],"categories_sizes":[],"default_left":[1,1,0,1,1,0,0,0,0],"id":82,"left_children":[1,3,-1,5,7,-1,-1,-1,-1],"loss_changes":[2.9637169E1,3.5402822E0,0E0,8.872957E-1,7.9530275E-1,0E0,0E0,0E0,0E0],"parents":[2147483647,0,0,1,1,3,3,4,4],"right_children":[2,4,-1,6,8,-1,-1,-1,-1],"split_conditions":[9.5E0,6.5422404E-1,-4.9410727E-2,3.9101613E-1,6.5E0,-7.7846344E-4,4.7609974E-2,1.1292296E-2,-3.2383908E-2],"split_indices":[4,2,0,7,4,0,0,0,0],"split_type":[0,0,0,0,0,0,0,0,0],"sum_hessian":[6.2577297E1,1.3697876E1,4.887942E1,1.1084151E1,2.6137245E0,1.0010846E0,1.0083067E1,1.1112777E0,1.5024468E0],"tree_param":{"num_deleted":"0","num_feature":"8","num_nodes":"9","size_leaf_vector":"0"}},{"base_weights":[-6.2492377E-1,6.285347E-1,-9.8683083E-1,8.6187375E-1,-3.1080082E-1,-1.5180492E-2,9.4564575E-1,2.2052841E-1,-6.3905376E-1],"categories":[],"categories_nodes":[],"categories_segments":[],"categories_sizes":[],"default_left":[1,1,0,1,1,0,0,0,0],"id":83,"left_children":[1,3,-1,5,7,-1,-1,-1,-1],"loss_changes":[2.8197222E1,3.3869734E0,0E0,8.7133884E-1,7.6297474E-1,0E0,0E0,0E0,0E0],"parents":[2147483647,0,0,1,1,3,3,4,4],"right_children":[2,4,-1,6,8,-1,-1,-1,-1],"split_conditions":[9.5E0,6.5422404E-1,-4.934154E-2,3.9101613E-1,6.5E0,-7.590246E-4,4.728229E-2,1.1026421E-2,-3.195269E-2],"split_indices":[4,2,0,7,4,0,0,0,0],"split_type":[0,0,0,0,0,0,0,0,0],"sum_hessian":[5.979102E1,1.3230543E1,4.6560474E1,1.0663982E1,2.5665607E0,1.0011541E0,9.662828E0,1.1054273E0,1.4611335E0],"tree_param":{"num_deleted":"0","num_feature":"8","num_nodes":"9","size_leaf_vector":"0"}},{"base_weights":[-6.219596E-1,6.1887145E-1,-9.8542136E-1,8.5277283E-1,-3.051867E-1,-1.4799173E-2,9.388477E-1,2.1532887E-1,-6.30545E-1],"categories":[],"categories_nodes":[],"categories_segments":[],"categories_sizes":[],"default_left":[1,1,0,1,1,0,0,0,0],"id":84,"left_children":[1,3,-1,5,7,-1,-1,-1,-1],"loss_changes":[2.6830118E1,3.2399206E0,0E0,8.551054E-1,7.320908E-1,0E0,0E0,0E0,0E0],"parents":[2147483647,0,0,1,1,3,3,4,4],"right_children":[2,4,-1,6,8,-1,-1,-1,-1],"split_conditions":[9.5E0,6.5422404E-1,-4.927107E-2,3.9101613E-1,6.5E0,-7.3995866E-4,4.6942387E-2,1.0766444E-2,-3.152725E-2],"split_indices":[4,2,0,7,4,0,0,0,0],"split_type":[0,0,0,0,0,0,0,0,0],"sum_hessian":[5.7138763E1,1.278591E1,4.4352856E1,1.0264789E1,2.521121E0,1.0012265E0,9.263562E0,1.0998061E0,1.421315E0],"tree_param":{"num_deleted":"0","num_feature":"8","num_nodes":"9","size_leaf_vector":"0"}},{"base_weights":[-6.189006E-1,8.192545E-1,-9.291022E-1,9.010652E-1,3.1163806E-2,2.6080522E-1,-9.613351E-1,-9.8603636E-1,-9.5926905E-3],"categories":[],"categories_nodes":[],"categories_segments":[],"categories_sizes":[],"default_left":[1,1,1,0,0,0,1,0,0],"id":85,"left_children":[1,3,5,-1,-1,-1,7,-1,-1],"loss_changes":[2.5571596E1,6.423688E-1,2.0232773E0,0E0,0E0,0E0,1.0533867E0,0E0,0E0],"parents":[2147483647,0,0,1,1,2,2,6,6],"right_children":[2,4,6,-1,-1,-1,8,-1,-1],"split_conditions":[7.5E0,7.493243E-1,3.0235517E-1,4.505326E-2,1.5581903E-3,1.3040261E-2,3.5E0,-4.9301818E-2,-4.7963453E-4],"split_indices":[4,2,2,0,0,0,5,0,0],"split_type":[0,0,0,0,0,0,0,0,0],"sum_hessian":[5.461404E1,9.398716E0,4.5215324E1,8.384935E0,1.0137811E0,1.00549E0,4.4209835E1,4.305633E1,1.1535034E0],"tree_param":{"num_deleted":"0","num_feature":"8","num_nodes":"9","size_leaf_vector":"0"}},{"base_weights":[-6.1497474E-1,6.074756E-1,-9.825558E-1,-2.0597437E-1,8.7619275E-1,-5.848598E-1,4.2946154E-1,9.510217E-1,1.6232668E-1],"categories":[],"categories_nodes":[],"categories_segments":[],"categories_sizes":[],"default_left":[1,1,0,1,1,0,0,0,0],"id":86,"left_children":[1,3,-1,5,7,-1,-1,-1,-1],"loss_changes":[2.4512695E1,3.0050673E0,0E0,1.2186289E0,3.7465382E-1,0E0,0E0,0E0,0E0],"parents":[2147483647,0,0,1,1,3,3,4,4],"right_children":[2,4,-1,6,8,-1,-1,-1,-1],"split_conditions":[9.5E0,4.7206864E-1,-4.912779E-2,2.5E0,6.5422404E-1,-2.924299E-2,2.1473078E-2,4.7551084E-2,8.116334E-3],"split_indices":[4,7,0,5,2,0,0,0,0],"split_type":[0,0,0,0,0,0,0,0,0],"sum_hessian":[5.222318E1,1.1922002E1,4.0301178E1,3.0183778E0,8.903625E0,1.9407674E0,1.0776104E0,7.758182E0,1.145442E0],"tree_param":{"num_deleted":"0","num_feature":"8","num_nodes":"9","size_leaf_vector":"0"}},{"base_weights":[-6.113413E-1,5.993516E-1,-9.8105174E-1,8.3653307E-1,-2.879017E-1,1.9599069E-2,9.238117E-1,2.0847286E-1,-6.075988E-1],"categories":[],"categories_nodes":[],"categories_segments":[],"categories_sizes":[],"default_left":[1,1,0,1,1,0,0,0,0],"id":87,"left_children":[1,3,-1,5,7,-1,-1,-1,-1],"loss_changes":[2.338427E1,2.8786802E0,0E0,7.0537615E-1,6.6430646E-1,0E0,0E0,0E0,0E0],"parents":[2147483647,0,0,1,1,3,3,4,4],"right_children":[2,4,-1,6,8,-1,-1,-1,-1],"split_conditions":[9.5E0,6.5422404E-1,-4.905259E-2,4.0862483E-1,6.5E0,9.799534E-4,4.6190586E-2,1.04236435E-2,-3.037994E-2],"split_indices":[4,2,0,7,4,0,0,0,0],"split_type":[0,0,0,0,0,0,0,0,0],"sum_hessian":[4.9929363E1,1.1534881E1,3.839448E1,9.14689E0,2.387991E0,1.0010982E0,8.145792E0,1.0717906E0,1.3162004E0],"tree_param":{"num_deleted":"0","num_feature":"8","num_nodes":"9","size_leaf_vector":"0"}},{"base_weights":[-6.079821E-1,5.893443E-1,-9.7951007E-1,-2.0483175E-1,8.6279595E-1,-5.7026416E-1,4.2372718E-1,9.401578E-1,1.6138604E-1],"categories":[],"categories_nodes":[],"categories_segments":[],"categories_sizes":[],"default_left":[1,1,0,1,1,0,0,0,0],"id":88,"left_children":[1,3,-1,5,7,-1,-1,-1,-1],"loss_changes":[2.226242E1,2.819376E0,0E0,1.143169E0,3.4985876E-1,0E0,0E0,0E0,0E0],"parents":[2147483647,0,0,1,1,3,3,4,4],"right_children":[2,4,-1,6,8,-1,-1,-1,-1],"split_conditions":[9.5E0,4.7206864E-1,-4.8975505E-2,1.5E0,6.5422404E-1,-2.8513208E-2,2.118636E-2,4.700789E-2,8.069302E-3],"split_indices":[4,7,0,3,2,0,0,0,0],"split_type":[0,0,0,0,0,0,0,0,0],"sum_hessian":[4.774818E1,1.1168638E1,3.657954E1,2.924898E0,8.24374E0,1.9082314E0,1.0166665E0,7.1182513E0,1.1254886E0],"tree_param":{"num_deleted":"0","num_feature":"8","num_nodes":"9","size_leaf_vector":"0"}},{"base_weights":[-6.041307E-1,5.812245E-1,-9.7792774E-1,-1.9904916E-1,8.544553E-1,-5.6706405E-1,4.157382E-1,9.344226E-1,1.5734239E-1],"categories":[],"categories_nodes":[],"categories_segments":[],"categories_sizes":[],"default_left":[1,1,0,1,1,0,0,0,0],"id":89,"left_children":[1,3,-1,5,7,-1,-1,-1,-1],"loss_changes":[2.1245918E1,2.6890714E0,0E0,1.1125735E0,3.5134745E-1,0E0,0E0,0E0,0E0],"parents":[2147483647,0,0,1,1,3,3,4,4],"right_children":[2,4,-1,6,8,-1,-1,-1,-1],"split_conditions":[9.5E0,4.7206864E-1,-4.8896387E-2,2.5E0,6.5422404E-1,-2.8353203E-2,2.078691E-2,4.672113E-2,7.867119E-3],"split_indices":[4,7,0,5,2,0,0,0,0],"split_type":[0,0,0,0,0,0,0,0,0],"sum_hessian":[4.566746E1,1.0815452E1,3.4852013E1,2.8754468E0,7.940005E0,1.8472807E0,1.028166E0,6.8175325E0,1.1224723E0],"tree_param":{"num_deleted":"0","num_feature":"8","num_nodes":"9","size_leaf_vector":"0"}},{"base_weights":[-6.0018015E-1,5.7305384E-1,-9.7630155E-1,-3.9754534E-1,7.799329E-1,9.171321E-1,-2.1154913E-1],"categories":[],"categories_nodes":[],"categories_segments":[],"categories_sizes":[],"default_left":[1,1,0,0,1,0,0],"id":90,"left_children":[1,3,-1,-1,5,-1,-1],"loss_changes":[2.0278349E1,2.6148136E0,0E0,0E0,1.5269842E0,0E0,0E0],"parents":[2147483647,0,0,1,1,4,4],"right_children":[2,4,-1,-1,6,-1,-1],"split_conditions":[9.5E0,5E-1,-4.881508E-2,-1.9877268E-2,9.924297E2,4.5856606E-2,-1.0577457E-2],"split_indices":[4,3,0,0,1,0,0],"split_type":[0,0,0,0,0,0,0],"sum_hessian":[4.3685787E1,1.0478053E1,3.3207733E1,1.6790321E0,8.799021E0,7.7953115E0,1.0037094E0],"tree_param":{"num_deleted":"0","num_feature":"8","num_nodes":"7","size_leaf_vector":"0"}},{"base_weights":[-5.9689164E-1,7.8299254E-1,-9.1201156E-1,8.7231606E-1,5.7000786E-2,-9.54415E-1,1.4721741E-1,-7.683153E-2,-9.786794E-1],"categories":[],"categories_nodes":[],"categories_segments":[],"categories_sizes":[],"default_left":[1,1,1,0,0,1,0,0,0],"id":91,"left_children":[1,3,5,-1,-1,7,-1,-1,-1],"loss_changes":[1.9322243E1,5.010953E-1,1.7260151E0,0E0,0E0,6.50404E-1,0E0,0E0,0E0],"parents":[2147483647,0,0,1,1,2,2,5,5],"right_children":[2,4,6,-1,-1,8,-1,-1,-1],"split_conditions":[7.5E0,7.282767E-1,3.5E0,4.3615803E-2,2.8500394E-3,3.8249612E-1,7.3608705E-3,-3.8415764E-3,-4.893397E-2],"split_indices":[4,2,5,0,0,2,0,0,0],"split_type":[0,0,0,0,0,0,0,0,0],"sum_hessian":[4.1794163E1,7.493965E0,3.4300198E1,6.493479E0,1.0004865E0,3.3075077E1,1.2251208E0,1.0019902E0,3.2073086E1],"tree_param":{"num_deleted":"0","num_feature":"8","num_nodes":"9","size_leaf_vector":"0"}},{"base_weights":[-5.92388E-1,5.608588E-1,-9.729701E-1,-2.026724E-1,8.3781916E-1,3.4252322E-1,-5.3492796E-1,9.198452E-1,1.5155195E-1],"categories":[],"categories_nodes":[],"categories_segments":[],"categories_sizes":[],"default_left":[1,1,0,1,1,0,0,0,0],"id":92,"left_children":[1,3,-1,5,7,-1,-1,-1,-1],"loss_changes":[1.8547132E1,2.4559953E0,0E0,8.5036653E-1,3.181429E-1,0E0,0E0,0E0,0E0],"parents":[2147483647,0,0,1,1,3,3,4,4],"right_children":[2,4,-1,6,8,-1,-1,-1,-1],"split_conditions":[9.5E0,4.7206864E-1,-4.8648506E-2,4.4189942E-1,6.5422404E-1,1.7126162E-2,-2.6746398E-2,4.5992263E-2,7.5775976E-3],"split_indices":[4,7,0,2,2,0,0,0,0],"split_type":[0,0,0,0,0,0,0,0,0],"sum_hessian":[4.001441E1,9.811063E0,3.0203344E1,2.6829278E0,7.128135E0,1.0042155E0,1.6787124E0,6.0630856E0,1.0650499E0],"tree_param":{"num_deleted":"0","num_feature":"8","num_nodes":"9","size_leaf_vector":"0"}},{"base_weights":[-5.881561E-1,5.523395E-1,-9.711963E-1,-3.848919E-1,7.607653E-1,9.015787E-1,-1.7848106E-1],"categories":[],"categories_nodes":[],"categories_segments":[],"categories_sizes":[],"default_left":[1,1,0,0,1,0,0],"id":93,"left_children":[1,3,-1,-1,5,-1,-1],"loss_changes":[1.7705639E1,2.3475366E0,0E0,0E0,1.3434234E0,0E0,0E0],"parents":[2147483647,0,0,1,1,4,4],"right_children":[2,4,-1,-1,6,-1,-1],"split_conditions":[9.5E0,5E-1,-4.8559815E-2,-1.9244594E-2,9.74885E2,4.5078937E-2,-8.924053E-3],"split_indices":[4,3,0,0,1,0,0],"split_type":[0,0,0,0,0,0,0],"sum_hessian":[3.8301796E1,9.518534E0,2.8783264E1,1.5776467E0,7.940887E0,6.940465E0,1.0004221E0],"tree_param":{"num_deleted":"0","num_feature":"8","num_nodes":"7","size_leaf_vector":"0"}},{"base_weights":[-5.8458364E-1,5.4155517E-1,-9.693665E-1,-2.062923E-1,8.2208085E-1,2.9219034E-1,-5.177029E-1,9.0766615E-1,1.3942306E-1],"categories":[],"categories_nodes":[],"categories_segments":[],"categories_sizes":[],"default_left":[1,1,0,1,1,0,0,0,0],"id":94,"left_children":[1,3,-1,5,7,-1,-1,-1,-1],"loss_changes":[1.684613E1,2.316533E0,0E0,7.087122E-1,3.1998014E-1,0E0,0E0,0E0,0E0],"parents":[2147483647,0,0,1,1,3,3,4,4],"right_children":[2,4,-1,6,8,-1,-1,-1,-1],"split_conditions":[9.5E0,4.7206864E-1,-4.8468325E-2,4.4905055E-1,6.5422404E-1,1.46095175E-2,-2.5885144E-2,4.5383308E-2,6.971153E-3],"split_indices":[4,7,0,2,2,0,0,0,0],"split_type":[0,0,0,0,0,0,0,0,0],"sum_hessian":[3.666548E1,9.233753E0,2.7431728E1,2.5910232E0,6.6427298E0,1.0200014E0,1.5710218E0,5.609817E0,1.0329131E0],"tree_param":{"num_deleted":"0","num_feature":"8","num_nodes":"9","size_leaf_vector":"0"}},{"base_weights":[-5.8014953E-1,7.582913E-1,-8.98816E-1,8.50584E-1,8.094511E-2,-9.455349E-1,1.5414204E-1,-1.11608945E-1,-9.7183275E-1],"categories":[],"categories_nodes":[],"categories_segments":[],"categories_sizes":[],"default_left":[1,1,1,0,0,1,0,0,0],"id":95,"left_children":[1,3,5,-1,-1,7,-1,-1,-1],"loss_changes":[1.6084805E1,3.992076E-1,1.6031818E0,0E0,0E0,5.167351E-1,0E0,0E0,0E0],"parents":[2147483647,0,0,1,1,2,2,5,5],"right_children":[2,4,6,-1,-1,8,-1,-1,-1],"split_conditions":[7.5E0,6.9826365E-1,3.5E0,4.25292E-2,4.0472555E-3,3.9800432E-1,7.7071018E-3,-5.580447E-3,-4.859164E-2],"split_indices":[4,2,5,0,0,2,0,0,0],"split_type":[0,0,0,0,0,0,0,0,0],"sum_hessian":[3.511408E1,6.4872417E0,2.8626837E1,5.484222E0,1.0030197E0,2.7508335E1,1.1185023E0,1.0012703E0,2.6507065E1],"tree_param":{"num_deleted":"0","num_feature":"8","num_nodes":"9","size_leaf_vector":"0"}},{"base_weights":[-5.751847E-1,5.3155226E-1,-9.656084E-1,-2.0093313E-1,8.11586E-1,1.766473E-1,-5.334748E-1,8.975395E-1,1.433271E-1],"categories":[],"categories_nodes":[],"categories_segments":[],"categories_sizes":[],"default_left":[1,1,0,1,1,0,0,0,0],"id":96,"left_children":[1,3,-1,5,7,-1,-1,-1,-1],"loss_changes":[1.548481E1,2.148743E0,0E0,5.310515E-1,2.8501225E-1,0E0,0E0,0E0,0E0],"parents":[2147483647,0,0,1,1,3,3,4,4],"right_children":[2,4,-1,6,8,-1,-1,-1,-1],"split_conditions":[9.5E0,4.7206864E-1,-4.828042E-2,6.0324526E-1,6.5422404E-1,8.832365E-3,-2.667374E-2,4.4876974E-2,7.1663554E-3],"split_indices":[4,7,0,2,2,0,0,0,0],"split_type":[0,0,0,0,0,0,0,0,0],"sum_hessian":[3.3648613E1,8.6804905E0,2.4968124E1,2.4788973E0,6.201593E0,1.3803697E0,1.0985278E0,5.190831E0,1.010762E0],"tree_param":{"num_deleted":"0","num_feature":"8","num_nodes":"9","size_leaf_vector":"0"}},{"base_weights":[-5.706825E-1,5.2183455E-1,-9.6359456E-1,-3.7562308E-1,7.3334527E-1,8.794593E-1,-1.4239483E-1],"categories":[],"categories_nodes":[],"categories_segments":[],"categories_sizes":[],"default_left":[1,1,0,0,1,0,0],"id":97,"left_children":[1,3,-1,-1,5,-1,-1],"loss_changes":[1.4772648E1,2.0677063E0,0E0,0E0,1.1462879E0,0E0,0E0],"parents":[2147483647,0,