{"learner":{"attributes":{"best_iteration":"99","best_ntree_limit":"100"},"feature_names":["months_to_maturity","total_relationship_value","number_of_products","satisfaction_score","number_of_complaints","months_since_last_interaction","age","tenure_months","monthly_average_balance"],"feature_types":["int","float","int","float","int","int","int","int","float"],"gradient_booster":{"model":{"gbtree_model_param":{"num_parallel_tree":"1","num_trees":"100","size_leaf_vector":"0"},"tree_info":[0,0,0,0,0,0,0,0,0,0,0,0,0,0,0,0,0,0,0,0,0,0,0,0,0,0,0,0,0,0,0,0,0,0,0,0,0,0,0,0,0,0,0,0,0,0,0,0,0,0,0,0,0,0,0,0,0,0,0,0,0,0,0,0,0,0,0,0,0,0,0,0,0,0,0,0,0,0,0,0,0,0,0,0,0,0,0,0,0,0,0,0,0,0,0,0,0,0,0,0],"trees":[{"base_weights":[-1.9371787E0,-1.5588236E0,-1.9513065E0,-8.0851066E-1,-1.6855896E0,-8E-2,-1.3846154E0,-1.7130045E0,-4E-1],"categories":[],"categories_nodes":[],"categories_segments":[],"categories_sizes":[],"default_left":[1,1,0,1,1,0,0,0,0],"id":0,"left_children":[1,3,-1,5,7,-1,-1,-1,-1],"loss_changes":[6.317871E0,5.10495E0,0E0,4.8206873E0,1.3325348E0,0E0,0E0,0E0,0E0],"parents":[2147483647,0,0,1,1,3,3,4,4],"right_children":[2,4,-1,6,8,-1,-1,-1,-1],"split_conditions":[3.4716272E0,2.4049422E4,-1.9513065E-1,1.05E1,4.25E1,-8E-3,-1.3846155E-1,-1.7130046E-1,-4.0000003E-2],"split_indices":[3,1,0,0,7,0,0,0,0],"split_type":[0,0,0,0,0,0,0,0,0],"sum_hessian":[1.75E3,6.7E1,1.683E3,1.075E1,5.625E1,5.25E0,5.5E0,5.475E1,1.5E0],"tree_param":{"num_deleted":"0","num_feature":"9","num_nodes":"9","size_leaf_vector":"0"}},{"base_weights":[-1.760821E0,-1.4272871E0,-1.774152E0,-6.810071E-1,-1.5401156E0,-1.6572205E0,-1.7904006E0,2.2227198E-2,-1.2488897E0,-1.2677596E0,-1.7555066E0,-1.2473896E0,-1.7036599E0],"categories":[],"categories_nodes":[],"categories_segments":[],"categories_sizes":[],"default_left":[1,1,1,1,1,1,0,0,0,0,0,0,0],"id":1,"left_children":[1,3,5,7,9,11,-1,-1,-1,-1,-1,-1,-1],"loss_changes":[5.180664E0,4.9954376E0,1.9384766E-1,4.508563E0,1.3858948E0,1.9942627E0,0E0,0E0,0E0,0E0,0E0,0E0,0E0],"parents":[2147483647,0,0,1,1,2,2,3,3,4,4,5,5],"right_children":[2,4,6,8,10,12,-1,-1,-1,-1,-1,-1,-1],"split_conditions":[3.5181422E0,2.0699586E4,3.5E0,1.05E1,1.15E1,4.8518496E0,-1.7904006E-1,2.2227198E-3,-1.2488897E-1,-1.2677597E-1,-1.7555067E-1,-1.24738954E-1,-1.7036599E-1],"split_indices":[3,1,0,0,0,3,0,0,0,0,0,0,0],"split_type":[0,0,0,0,0,0,0,0,0,0,0,0,0],"sum_hessian":[1.7336539E3,7.078315E1,1.6628707E3,1.0220116E1,6.0563038E1,2.1544267E2,1.4474281E3,4.9951987E0,5.2249174E0,2.9785696E1,3.0777342E1,2.4763527E1,1.9067915E2],"tree_param":{"num_deleted":"0","num_feature":"9","num_nodes":"13","size_leaf_vector":"0"}},{"base_weights":[-1.6267581E0,-1.4388697E0,-1.6491555E0,-1.2608454E0,-1.5969671E0,-6.395453E-1,-1.3256345E0,-1.6063709E0,-4.7011802E-1],"categories":[],"categories_nodes":[],"categories_segments":[],"categories_sizes":[],"default_left":[1,1,0,1,1,0,0,0,0],"id":2,"left_children":[1,3,-1,5,7,-1,-1,-1,-1],"loss_changes":[4.7495117E0,3.2807312E0,0E0,2.904953E0,2.6081848E-1,0E0,0E0,0E0,0E0],"parents":[2147483647,0,0,1,1,3,3,4,4],"right_children":[2,4,-1,6,8,-1,-1,-1,-1],"split_conditions":[4.5558453E0,1.15E1,-1.6491555E-1,4.429263E3,4.533234E0,-6.395453E-2,-1.3256346E-1,-1.606371E-1,-4.7011804E-2],"split_indices":[3,0,0,8,3,0,0,0,0],"split_type":[0,0,0,0,0,0,0,0,0],"sum_hessian":[1.6914678E3,1.8710611E2,1.5043616E3,9.2228325E1,9.487779E1,9.735933E0,8.249239E1,9.367054E1,1.2072499E0],"tree_param":{"num_deleted":"0","num_feature":"9","num_nodes":"9","size_leaf_vector":"0"}},{"base_weights":[-1.520934E0,-1.1715032E0,-1.5327004E0,-4.2763188E-1,-1.3059458E0,-1.4153744E0,-1.5491354E0,-9.0837204E-1,4.0961486E-1,-9.82471E-1,-1.4618753E0,-1.0234039E0,-1.4632685E0],"categories":[],"categories_nodes":[],"categories_segments":[],"categories_sizes":[],"default_left":[1,1,1,1,1,1,0,0,0,0,0,0,0],"id":3,"left_children":[1,3,5,7,9,11,-1,-1,-1,-1,-1,-1,-1],"loss_changes":[4.916992E0,5.1848373E0,8.469238E-1,4.508709E0,9.924545E-1,2.3555908E0,0E0,0E0,0E0,0E0,0E0,0E0,0E0],"parents":[2147483647,0,0,1,1,2,2,3,3,4,4,5,5],"right_children":[2,4,6,8,10,12,-1,-1,-1,-1,-1,-1,-1],"split_conditions":[3.331396E0,2.4049422E4,3.5E0,1.0412471E4,8.5E0,4.8518496E0,-1.5491354E-1,-9.08372E-2,4.0961485E-2,-9.82471E-2,-1.4618753E-1,-1.0234039E-1,-1.4632685E-1],"split_indices":[3,1,0,1,0,3,0,0,0,0,0,0,0],"split_type":[0,0,0,0,0,0,0,0,0,0,0,0,0],"sum_hessian":[1.6316248E3,5.6428417E1,1.5751963E3,9.27738E0,4.7151035E1,2.0424562E2,1.3709507E3,5.8394594E0,3.4379208E0,1.771082E1,2.9440218E1,2.4674515E1,1.795711E2],"tree_param":{"num_deleted":"0","num_feature":"9","num_nodes":"13","size_leaf_vector":"0"}},{"base_weights":[-1.4354526E0,-1.1113658E0,-1.4480854E0,-7.9547787E-1,-1.3908877E0,-1.3306651E0,-1.464734E0,-1.5468198E-1,-9.427776E-1,-9.49253E-1,-1.3781956E0],"categories":[],"categories_nodes":[],"categories_segments":[],"categories_sizes":[],"default_left":[1,1,1,1,0,1,0,0,0,0,0],"id":4,"left_children":[1,3,5,7,-1,9,-1,-1,-1,-1,-1],"loss_changes":[4.781494E0,4.4445496E0,9.819336E-1,2.8604107E0,0E0,2.26474E0,0E0,0E0,0E0,0E0,0E0],"parents":[2147483647,0,0,1,1,2,2,3,3,5,5],"right_children":[2,4,6,8,-1,10,-1,-1,-1,-1,-1],"split_conditions":[3.4716272E0,1.15E1,3.5E0,2.4049422E4,-1.3908878E-1,4.8518496E0,-1.464734E-1,-1.5468198E-2,-9.427776E-2,-9.492531E-2,-1.3781957E-1],"split_indices":[3,0,0,1,0,3,0,0,0,0,0],"split_type":[0,0,0,0,0,0,0,0,0,0,0],"sum_hessian":[1.5600441E3,6.1866688E1,1.4981775E3,3.0849499E1,3.1017189E1,1.960917E2,1.3020857E3,6.149132E0,2.4700367E1,2.4052483E1,1.7203923E2],"tree_param":{"num_deleted":"0","num_feature":"9","num_nodes":"11","size_leaf_vector":"0"}},{"base_weights":[-1.3647463E0,-1.1742809E0,-1.3881276E0,-1.0031981E0,-1.3328623E0,-1.3920765E0,-1.0694807E0,-3.974042E-1,-1.0699385E0,-1.3428475E0,-3.0196193E-1,-1.4690724E-1,-1.2321628E0],"categories":[],"categories_nodes":[],"categories_segments":[],"categories_sizes":[],"default_left":[1,1,1,1,1,0,1,0,0,0,0,0,0],"id":5,"left_children":[1,3,5,7,9,-1,11,-1,-1,-1,-1,-1,-1],"loss_changes":[4.9709473E0,3.2359467E0,1.652832E-1,3.0165176E0,4.6362305E-1,0E0,2.8820553E0,0E0,0E0,0E0,0E0,0E0,0E0],"parents":[2147483647,0,0,1,1,2,2,3,3,4,4,6,6],"right_children":[2,4,6,8,10,-1,12,-1,-1,-1,-1,-1,-1],"split_conditions":[4.5558453E0,1.15E1,2.5E0,4.429263E3,4.533234E0,-1.3920765E-1,4.5E0,-3.974042E-2,-1.06993854E-1,-1.3428475E-1,-3.0196194E-2,-1.4690724E-2,-1.2321629E-1],"split_indices":[3,0,4,8,3,0,0,0,0,0,0,0,0],"split_type":[0,0,0,0,0,0,0,0,0,0,0,0,0],"sum_hessian":[1.4812761E3,1.675578E2,1.3137184E3,8.412604E1,8.343176E1,1.2943097E3,1.940872E1,9.038562E0,7.508747E1,8.233171E1,1.1000563E0,3.1946764E0,1.6214043E1],"tree_param":{"num_deleted":"0","num_feature":"9","num_nodes":"13","size_leaf_vector":"0"}},{"base_weights":[-1.3049815E0,-9.663291E-1,-1.3187412E0,-6.590807E-1,-1.2537161E0,-1.1917173E0,-1.3370354E0,9.6871026E-2,-7.8095967E-1,-6.3467747E-1,-1.306207E0,-8.1287295E-1,-1.2488881E0],"categories":[],"categories_nodes":[],"categories_segments":[],"categories_sizes":[],"default_left":[1,1,1,1,1,1,0,0,0,0,0,0,0],"id":6,"left_children":[1,3,5,7,9,11,-1,-1,-1,-1,-1,-1,-1],"loss_changes":[5.248535E0,4.330326E0,1.5266113E0,2.8703547E0,1.15470886E-1,2.8445435E0,0E0,0E0,0E0,0E0,0E0,0E0,0E0],"parents":[2147483647,0,0,1,1,2,2,3,3,4,4,5,5],"right_children":[2,4,6,8,10,12,-1,-1,-1,-1,-1,-1,-1],"split_conditions":[3.4716272E0,1.15E1,3.5E0,1.5E0,1.0502676E4,1.5E0,-1.3370354E-1,9.687102E-3,-7.8095965E-2,-6.346775E-2,-1.306207E-1,-8.1287295E-2,-1.24888815E-1],"split_indices":[3,0,0,2,1,2,0,0,0,0,0,0,0],"split_type":[0,0,0,0,0,0,0,0,0,0,0,0,0],"sum_hessian":[1.3988818E3,5.7399452E1,1.3414824E3,2.9332804E1,2.8066648E1,1.7720679E2,1.1642756E3,4.101088E0,2.5231714E1,3.2171476E0,2.48495E1,2.5231033E1,1.5197575E2],"tree_param":{"num_deleted":"0","num_feature":"9","num_nodes":"13","size_leaf_vector":"0"}},{"base_weights":[-1.2537793E0,-1.048278E0,-1.279741E0,-7.4426E-1,-1.1442275E0,-1.2840024E0,-9.459332E-1,-1.0392464E-1,-9.635553E-1,-8.3268195E-1,-1.1865957E0,-5.079374E-2,-1.1179122E0],"categories":[],"categories_nodes":[],"categories_segments":[],"categories_sizes":[],"default_left":[1,1,1,1,1,0,1,0,0,0,0,0,0],"id":7,"left_children":[1,3,5,7,9,-1,11,-1,-1,-1,-1,-1,-1],"loss_changes":[5.680664E0,3.6161041E0,4.4128418E-1,5.460932E0,5.240326E-1,0E0,2.7866898E0,0E0,0E0,0E0,0E0,0E0,0E0],"parents":[2147483647,0,0,1,1,2,2,3,3,4,4,6,6],"right_children":[2,4,6,8,10,-1,12,-1,-1,-1,-1,-1,-1],"split_conditions":[4.5558453E0,5.5E0,2.5E0,3.150493E4,1.5E0,-1.2840025E-1,4.5E0,-1.0392464E-2,-9.635553E-2,-8.3268195E-2,-1.1865957E-1,-5.079374E-3,-1.11791216E-1],"split_indices":[3,0,4,1,2,0,0,0,0,0,0,0,0],"split_type":[0,0,0,0,0,0,0,0,0,0,0,0,0],"sum_hessian":[1.3151898E3,1.5215813E2,1.1630316E3,3.860239E1,1.1355573E2,1.1455609E3,1.747067E1,1.0223623E1,2.8378765E1,1.606663E1,9.74891E1,3.0243695E0,1.44463005E1],"tree_param":{"num_deleted":"0","num_feature":"9","num_nodes":"13","size_leaf_vector":"0"}},{"base_weights":[-1.2091131E0,-9.87869E-1,-1.2355696E0,-7.882091E-1,-1.1819041E0,-1.1187329E0,-1.2522209E0,-1.2314994E-1,-8.676269E-1,-1.1349689E0,-1.1052348E-1],"categories":[],"categories_nodes":[],"categories_segments":[],"categories_sizes":[],"default_left":[1,1,1,1,0,1,0,0,0,0,0],"id":8,"left_children":[1,3,5,7,-1,9,-1,-1,-1,-1,-1],"loss_changes":[5.9971924E0,4.3641663E0,7.342529E-1,3.610115E0,0E0,2.268982E0,0E0,0E0,0E0,0E0,0E0],"parents":[2147483647,0,0,1,1,2,2,3,3,5,5],"right_children":[2,4,6,8,-1,10,-1,-1,-1,-1,-1],"split_conditions":[4.4766755E0,1.15E1,3.5E0,4.429263E3,-1.1819041E-1,2.5E0,-1.2522209E-1,-1.2314994E-2,-8.676269E-2,-1.1349689E-1,-1.1052348E-2],"split_indices":[3,0,0,8,0,4,0,0,0,0,0],"split_type":[0,0,0,0,0,0,0,0,0,0,0],"sum_hessian":[1.2321265E3,1.3569624E2,1.0964302E3,6.937368E1,6.632256E1,1.452744E2,9.5115576E2,7.6726036E0,6.170108E1,1.4284827E2,2.426134E0],"tree_param":{"num_deleted":"0","num_feature":"9","num_nodes":"11","size_leaf_vector":"0"}},{"base_weights":[-1.1696332E0,-9.467746E-1,-1.1989244E0,-7.6367205E-1,-1.1326963E0,-1.0789492E0,-1.2160891E0,-2.942129E-1,-8.5506624E-1,-1.144821E0,-2.1297127E-1,-6.620355E-1,-1.1399964E0],"categories":[],"categories_nodes":[],"categories_segments":[],"categories_sizes":[],"default_left":[1,1,1,1,1,1,0,0,0,0,0,0,0],"id":9,"left_children":[1,3,5,7,9,11,-1,-1,-1,-1,-1,-1,-1],"loss_changes":[6.3845215E0,3.8522644E0,7.7685547E-1,2.8755417E0,4.9983215E-1,2.70224E0,0E0,0E0,0E0,0E0,0E0,0E0,0E0],"parents":[2147483647,0,0,1,1,2,2,3,3,4,4,5,5],"right_children":[2,4,6,8,10,12,-1,-1,-1,-1,-1,-1,-1],"split_conditions":[4.5558453E0,1.15E1,3.5E0,2.0724213E4,4.5257397E0,1.5E0,-1.2160891E-1,-2.942129E-2,-8.5506625E-2,-1.14482105E-1,-2.1297127E-2,-6.620356E-2,-1.1399964E-1],"split_indices":[3,0,0,1,3,2,0,0,0,0,0,0,0],"split_type":[0,0,0,0,0,0,0,0,0,0,0,0,0],"sum_hessian":[1.1509197E3,1.3756892E2,1.0133507E3,7.18832E1,6.568572E1,1.348255E2,8.785252E2,1.2401304E1,5.9481895E1,6.458949E1,1.0962274E0,1.8733345E1,1.16092155E2],"tree_param":{"num_deleted":"0","num_feature":"9","num_nodes":"13","size_leaf_vector":"0"}},{"base_weights":[-1.134299E0,-7.343537E-1,-1.1523157E0,-4.195897E-1,-1.0702808E0,-9.965109E-1,-1.1758015E0,1.5499558E-1,-5.8095276E-1,-1.1820408E0,-5.507389E-1,-5.540597E-1,-1.0608164E0],"categories":[],"categories_nodes":[],"categories_segments":[],"categories_sizes":[],"default_left":[1,1,1,1,1,1,0,0,0,0,0,0,0],"id":10,"left_children":[1,3,5,7,9,11,-1,-1,-1,-1,-1,-1,-1],"loss_changes":[6.8898926E0,4.735903E0,2.5811768E0,2.5897264E0,6.888809E-1,3.4211426E0,0E0,0E0,0E0,0E0,0E0,0E0,0E0],"parents":[2147483647,0,0,1,1,2,2,3,3,4,4,5,5],"right_children":[2,4,6,8,10,12,-1,-1,-1,-1,-1,-1,-1],"split_conditions":[3.4716272E0,1.15E1,3.5E0,2.4049422E4,3.45E1,4.8518496E0,-1.1758015E-1,1.5499557E-2,-5.8095276E-2,-1.1820408E-1,-5.5073887E-2,-5.540597E-2,-1.0608164E-1],"split_indices":[3,0,0,1,7,3,0,0,0,0,0,0,0],"split_type":[0,0,0,0,0,0,0,0,0,0,0,0,0],"sum_hessian":[1.0726118E3,4.803624E1,1.0245757E3,2.5960379E1,2.207586E1,1.399012E2,8.8467444E2,5.7006907E0,2.025969E1,1.7118328E1,4.95753E0,1.897315E1,1.2092805E2],"tree_param":{"num_deleted":"0","num_feature":"9","num_nodes":"13","size_leaf_vector":"0"}},{"base_weights":[-1.1023098E0,-8.576446E-1,-1.1358639E0,-6.705735E-1,-1.0590514E0,-1.0016845E0,-1.1555756E0,-5.3995267E-2,-7.482629E-1,-1.0726339E0,-1.4859276E-1,-5.585548E-1,-1.0694255E0],"categories":[],"categories_nodes":[],"categories_segments":[],"categories_sizes":[],"default_left":[1,1,1,1,1,1,0,0,0,0,0,0,0],"id":11,"left_children":[1,3,5,7,9,11,-1,-1,-1,-1,-1,-1,-1],"loss_changes":[7.224365E0,3.9816437E0,1.1572266E0,3.1827374E0,5.608139E-1,2.9930267E0,0E0,0E0,0E0,0E0,0E0,0E0,0E0],"parents":[2147483647,0,0,1,1,2,2,3,3,4,4,5,5],"right_children":[2,4,6,8,10,12,-1,-1,-1,-1,-1,-1,-1],"split_conditions":[4.5558453E0,1.15E1,3.5E0,4.429263E3,4.5257397E0,1.5E0,-1.1555757E-1,-5.3995266E-3,-7.482629E-2,-1.07263386E-1,-1.4859276E-2,-5.5855483E-2,-1.0694255E-1],"split_indices":[3,0,0,8,3,2,0,0,0,0,0,0,0],"split_type":[0,0,0,0,0,0,0,0,0,0,0,0,0],"sum_hessian":[9.976773E2,1.235259E2,8.741514E2,6.628673E1,5.7239174E1,1.186068E2,7.555446E2,7.6072397E0,5.8679485E1,5.6222305E1,1.0168669E0,1.6953062E1,1.0165373E2],"tree_param":{"num_deleted":"0","num_feature":"9","num_nodes":"13","size_leaf_vector":"0"}},{"base_weights":[-1.0727544E0,-8.0726045E-1,-1.1074581E0,-6.005072E-1,-1.0351275E0,-9.6225756E-1,-1.1292973E0,-4.29963E-2,-7.003083E-1,-9.830161E-1,1.02133475E-1],"categories":[],"categories_nodes":[],"categories_segments":[],"categories_sizes":[],"default_left":[1,1,1,1,0,1,0,0,0,0,0],"id":12,"left_children":[1,3,5,7,-1,9,-1,-1,-1,-1,-1],"loss_changes":[7.6539307E0,4.6050415E0,1.5065918E0,3.3387108E0,0E0,2.6122513E0,0E0,0E0,0E0,0E0,0E0],"parents":[2147483647,0,0,1,1,2,2,3,3,5,5],"right_children":[2,4,6,8,-1,10,-1,-1,-1,-1,-1],"split_conditions":[4.4766755E0,1.15E1,3.5E0,1.5E0,-1.0351276E-1,2.5E0,-1.12929724E-1,-4.29963E-3,-7.003083E-2,-9.830161E-2,1.0213348E-2],"split_indices":[3,0,0,2,0,4,0,0,0,0,0],"split_type":[0,0,0,0,0,0,0,0,0,0,0],"sum_hessian":[9.267548E2,1.09940155E2,8.168147E2,5.9546486E1,5.0393665E1,1.12683365E2,7.0413135E2,9.25832E0,5.0288166E1,1.1060276E2,2.0805998E0],"tree_param":{"num_deleted":"0","num_feature":"9","num_nodes":"11","size_leaf_vector":"0"}},{"base_weights":[-1.0451866E0,-7.771419E-1,-1.083968E0,-3.6150298E-1,-8.7210983E-1,-9.330688E-1,-1.1068494E0,-5.7274604E-1,7.885824E-1,-8.982675E-1,2.6246294E-1,-4.6321896E-1,-1.0086026E0],"categories":[],"categories_nodes":[],"categories_segments":[],"categories_sizes":[],"default_left":[1,1,1,1,1,1,0,0,0,0,0,0,0],"id":13,"left_children":[1,3,5,7,9,11,-1,-1,-1,-1,-1,-1,-1],"loss_changes":[8.106689E0,4.1192856E0,1.5552368E0,5.9430523E0,2.9287949E0,3.2613525E0,0E0,0E0,0E0,0E0,0E0,0E0,0E0],"parents":[2147483647,0,0,1,1,2,2,3,3,4,4,5,5],"right_children":[2,4,6,8,10,12,-1,-1,-1,-1,-1,-1,-1],"split_conditions":[4.5558453E0,2.56962E4,3.5E0,1.5E0,5.5E0,1.5E0,-1.10684946E-1,-5.7274606E-2,7.885824E-2,-8.9826755E-2,2.6246294E-2,-4.6321895E-2,-1.0086026E-1],"split_indices":[3,1,0,4,5,2,0,0,0,0,0,0,0],"split_type":[0,0,0,0,0,0,0,0,0,0,0,0,0],"sum_hessian":[8.5989355E2,1.1134581E2,7.485477E2,2.160321E1,8.97426E1,1.0406082E2,6.4448694E2,1.8675049E1,2.9281616E0,8.792379E1,1.8188145E0,1.5399917E1,8.8660904E1],"tree_param":{"num_deleted":"0","num_feature":"9","num_nodes":"13","size_leaf_vector":"0"}},{"base_weights":[-1.0190736E0,-7.3823833E-1,-1.0609316E0,-5.385302E-1,-9.7225165E-1,-9.008172E-1,-1.085645E0,-2.2449023E-1,-7.274376E-1,-4.5309043E-1,-1.0176882E0,-4.3267748E-1,-9.79336E-1,-1.0897857E0,-7.353383E-1],"categories":[],"categories_nodes":[],"categories_segments":[],"categories_sizes":[],"default_left":[1,1,1,1,1,1,1,0,0,0,0,0,0,0,0],"id":14,"left_children":[1,3,5,7,9,11,13,-1,-1,-1,-1,-1,-1,-1,-1],"loss_changes":[8.600647E0,4.469326E0,1.7620239E0,3.3893242E0,6.700096E-1,3.1954727E0,6.1645508E-2,0E0,0E0,0E0,0E0,0E0,0E0,0E0,0E0],"parents":[2147483647,0,0,1,1,2,2,3,3,4,4,5,5,6,6],"right_children":[2,4,6,8,10,12,14,-1,-1,-1,-1,-1,-1,-1,-1],"split_conditions":[4.5558453E0,1.15E1,3.5E0,3.4759521E0,1.0502676E4,1.5E0,2.5E0,-2.2449022E-2,-7.2743766E-2,-4.5309044E-2,-1.01768814E-1,-4.326775E-2,-9.7933605E-2,-1.0897857E-1,-7.3533826E-2],"split_indices":[3,0,0,3,1,2,4,0,0,0,0,0,0,0,0],"split_type":[0,0,0,0,0,0,0,0,0,0,0,0,0,0,0],"sum_hessian":[7.9727856E2,1.0583591E2,6.914427E2,5.8884693E1,4.6951214E1,9.746093E1,5.9398175E2,2.2939087E1,3.5945606E1,4.661419E0,4.2289795E1,1.4933841E1,8.2527084E1,5.849565E2,9.02528E0],"tree_param":{"num_deleted":"0","num_feature":"9","num_nodes":"15","size_leaf_vector":"0"}},{"base_weights":[-9.944391E-1,-7.024733E-1,-1.0393401E0,-5.035675E-1,-9.443322E-1,-8.695152E-1,-1.0660523E0,1.20548725E-1,-5.8974284E-1,-4.270624E-1,-9.9181825E-1,-4.0361044E-1,-9.511824E-1,-1.0704647E0,-7.0490783E-1],"categories":[],"categories_nodes":[],"categories_segments":[],"categories_sizes":[],"default_left":[1,1,1,1,1,1,1,0,0,0,0,0,0,0,0],"id":15,"left_children":[1,3,5,7,9,11,13,-1,-1,-1,-1,-1,-1,-1,-1],"loss_changes":[8.970032E0,4.4174614E0,1.9727173E0,3.188035E0,6.758003E-1,3.128151E0,1.1859131E-1,0E0,0E0,0E0,0E0,0E0,0E0,0E0,0E0],"parents":[2147483647,0,0,1,1,2,2,3,3,4,4,5,5,6,6],"right_children":[2,4,6,8,10,12,14,-1,-1,-1,-1,-1,-1,-1,-1],"split_conditions":[4.5558453E0,1.15E1,3.5E0,4.429263E3,1.0502676E4,1.5E0,2.5E0,1.2054873E-2,-5.8974285E-2,-4.270624E-2,-9.918182E-2,-4.0361043E-2,-9.511825E-2,-1.0704648E-1,-7.0490785E-2],"split_indices":[3,0,0,8,1,2,4,0,0,0,0,0,0,0,0],"split_type":[0,0,0,0,0,0,0,0,0,0,0,0,0,0,0],"sum_hessian":[7.389283E2,1.00710464E2,6.382178E2,5.6953625E1,4.375684E1,9.130282E1,5.46915E2,6.8614388E0,5.0092186E1,4.519459E0,3.923738E1,1.4503535E1,7.679928E1,5.3837305E2,8.541927E0],"tree_param":{"num_deleted":"0","num_feature":"9","num_nodes":"15","size_leaf_vector":"0"}},{"base_weights":[-9.706097E-1,-6.6720766E-1,-1.0188457E0,-4.693427E-1,-9.172715E-1,-8.3891296E-1,-1.0477238E0,-1.6276899E-1,-6.626804E-1,-4.0222389E-1,-9.669452E-1,-3.7598708E-1,-9.2383623E-1,-1.0524417E0,-6.7515475E-1],"categories":[],"categories_nodes":[],"categories_segments":[],"categories_sizes":[],"default_left":[1,1,1,1,1,1,1,0,0,0,0,0,0,0,0],"id":16,"left_children":[1,3,5,7,9,11,13,-1,-1,-1,-1,-1,-1,-1,-1],"loss_changes":[9.355469E0,4.3669014E0,2.1854248E0,3.221859E0,6.8003464E-1,3.0563126E0,1.7565918E-1,0E0,0E0,0E0,0E0,0E0,0E0,0E0,0E0],"parents":[2147483647,0,0,1,1,2,2,3,3,4,4,5,5,6,6],"right_children":[2,4,6,8,10,12,14,-1,-1,-1,-1,-1,-1,-1,-1],"split_conditions":[4.5558453E0,1.15E1,3.5E0,3.4759521E0,1.0502676E4,1.5E0,2.5E0,-1.62769E-2,-6.626804E-2,-4.0222388E-2,-9.669452E-2,-3.759871E-2,-9.238362E-2,-1.05244175E-1,-6.751548E-2],"split_indices":[3,0,0,3,1,2,4,0,0,0,0,0,0,0,0],"split_type":[0,0,0,0,0,0,0,0,0,0,0,0,0,0,0],"sum_hessian":[6.847051E2,9.5958954E1,5.887461E2,5.517679E1,4.0782166E1,8.557826E1,5.0316785E2,2.2051622E1,3.3125168E1,4.3874702E0,3.6394695E1,1.410698E1,7.147128E1,4.9507376E2,8.094104E0],"tree_param":{"num_deleted":"0","num_feature":"9","num_nodes":"15","size_leaf_vector":"0"}},{"base_weights":[-9.4749707E-1,-6.688576E-1,-1.006077E0,-4.0847782E-2,-7.573168E-1,-1.0135775E0,-5.113471E-1,4.1040006E-1,-8.403942E-1,-4.3020153E-1,-8.585309E-1,-8.6245066E-1,-1.0374066E0,7.7339286E-1,-7.727881E-1],"categories":[],"categories_nodes":[],"categories_segments":[],"categories_sizes":[],"default_left":[1,1,1,1,1,1,1,0,0,0,0,0,0,0,0],"id":17,"left_children":[1,3,5,7,9,11,13,-1,-1,-1,-1,-1,-1,-1,-1],"loss_changes":[9.69928E0,6.2671394E0,1.4227905E0,5.776389E0,2.9188614E0,9.571533E-1,3.8993878E0,0E0,0E0,0E0,0E0,0E0,0E0,0E0,0E0],"parents":[2147483647,0,0,1,1,2,2,3,3,4,4,5,5,6,6],"right_children":[2,4,6,8,10,12,14,-1,-1,-1,-1,-1,-1,-1,-1],"split_conditions":[4.851809E0,2.5E0,2.5E0,1.1460576E4,3.2419953E0,3.5E0,2.05E1,4.1040007E-2,-8.403942E-2,-4.3020155E-2,-8.585309E-2,-8.624507E-2,-1.03740655E-1,7.7339284E-2,-7.7278815E-2],"split_indices":[3,0,4,8,3,0,6,0,0,0,0,0,0,0,0],"split_type":[0,0,0,0,0,0,0,0,0,0,0,0,0,0,0],"sum_hessian":[6.344468E2,1.1236987E2,5.220769E2,1.4054291E1,9.831558E1,5.1324695E2,8.8299465E0,9.295057E0,4.7592335E0,2.447261E1,7.384297E1,7.497025E1,4.382767E2,1.1619328E0,7.668014E0],"tree_param":{"num_deleted":"0","num_feature":"9","num_nodes":"15","size_leaf_vector":"0"}},{"base_weights":[-9.245614E-1,-6.357766E-1,-9.873325E-1,-4.0701076E-2,-7.242013E-1,-8.138169E-1,-1.0156053E0,3.6488223E-1,-8.08103E-1,-4.000876E-1,-8.2843107E-1,-1.3637364E-1,-8.535238E-1,-1.0213435E0,-5.9704137E-1],"categories":[],"categories_nodes":[],"categories_segments":[],"categories_sizes":[],"default_left":[1,1,1,1,1,1,1,0,0,0,0,0,0,0,0],"id":18,"left_children":[1,3,5,7,9,11,13,-1,-1,-1,-1,-1,-1,-1,-1],"loss_changes":[1.00494995E1,5.65226E0,1.5382385E0,4.9724813E0,2.8423805E0,1.8357162E0,3.7606812E-1,0E0,0E0,0E0,0E0,0E0,0E0,0E0,0E0],"parents":[2147483647,0,0,1,1,2,2,3,3,4,4,5,5,6,6],"right_children":[2,4,6,8,10,12,14,-1,-1,-1,-1,-1,-1,-1,-1],"split_conditions":[4.851809E0,2.5E0,3.5E0,1.1460576E4,3.2419953E0,1.5182595E3,2.5E0,3.6488224E-2,-8.08103E-2,-4.000876E-2,-8.284311E-2,-1.3637364E-2,-8.535238E-2,-1.0213435E-1,-5.9704136E-2],"split_indices":[3,0,0,8,3,1,4,0,0,0,0,0,0,0,0],"split_type":[0,0,0,0,0,0,0,0,0,0,0,0,0,0,0],"sum_hessian":[5.8801227E2,1.0697801E2,4.8103427E2,1.4028715E1,9.2949295E1,7.157147E1,4.094628E2,9.521162E0,4.5075526E0,2.3794928E1,6.9154366E1,4.2082663E0,6.7363205E1,4.0250467E2,6.958127E0],"tree_param":{"num_deleted":"0","num_feature":"9","num_nodes":"15","size_leaf_vector":"0"}},{"base_weights":[-9.01887E-1,-6.0355014E-1,-9.690167E-1,-3.796324E-1,-8.55539E-1,-7.8479147E-1,-9.997103E-1,2.1196182E-1,-5.0819457E-1,-5.9744745E-1,-1.0301293E0,-1.2650722E-1,-8.256776E-1,-1.005879E0,-5.693043E-1],"categories":[],"categories_nodes":[],"categories_segments":[],"categories_sizes":[],"default_left":[1,1,1,1,1,1,1,0,0,0,0,0,0,0,0],"id":19,"left_children":[1,3,5,7,9,11,13,-1,-1,-1,-1,-1,-1,-1,-1],"loss_changes":[1.0355072E1,5.486294E0,1.7275696E0,4.3919277E0,1.5320778E0,1.7284203E0,4.2874146E-1,0E0,0E0,0E0,0E0,0E0,0E0,0E0,0E0],"parents":[2147483647,0,0,1,1,2,2,3,3,4,4,5,5,6,6],"right_children":[2,4,6,8,10,12,14,-1,-1,-1,-1,-1,-1,-1,-1],"split_conditions":[4.851809E0,1.05E1,3.5E0,2.0724213E4,2.5E0,1.5182595E3,2.5E0,2.1196183E-2,-5.0819457E-2,-5.9744745E-2,-1.03012934E-1,-1.2650723E-2,-8.256776E-2,-1.00587904E-1,-5.693043E-2],"split_indices":[3,0,0,1,2,1,4,0,0,0,0,0,0,0,0],"split_type":[0,0,0,0,0,0,0,0,0,0,0,0,0,0,0],"sum_hessian":[5.4525244E2,1.0198826E2,4.4326416E2,5.53292E1,4.665906E1,6.70992E1,3.7616495E2,9.761549E0,4.556765E1,2.0611584E1,2.604748E1,4.1632476E0,6.2935947E1,3.6953168E2,6.6332736E0],"tree_param":{"num_deleted":"0","num_feature":"9","num_nodes":"15","size_leaf_vector":"0"}},{"base_weights":[-8.792726E-1,-5.3364086E-1,-9.4275963E-1,-3.3196744E-1,-8.214457E-1,-7.1651596E-1,-9.8245376E-1,2.834198E-1,-4.2672646E-1,-3.221617E-1,-9.08113E-1,-1.7699271E-1,-8.2535166E-1,-9.887009E-1,-5.6500334E-1],"categories":[],"categories_nodes":[],"categories_segments":[],"categories_sizes":[],"default_left":[1,1,1,1,1,1,1,0,0,0,0,0,0,0,0],"id":20,"left_children":[1,3,5,7,9,11,13,-1,-1,-1,-1,-1,-1,-1,-1],"loss_changes":[1.0620789E1,4.427105E0,3.1304626E0,2.9951015E0,1.1217041E0,3.8130226E0,3.8165283E-1,0E0,0E0,0E0,0E0,0E0,0E0,0E0,0E0],"parents":[2147483647,0,0,1,1,2,2,3,3,4,4,5,5,6,6],"right_children":[2,4,6,8,10,12,14,-1,-1,-1,-1,-1,-1,-1,-1],"split_conditions":[4.5558453E0,1.15E1,3.5E0,4.429263E3,2.4078168E4,1.5E0,2.5E0,2.8341979E-2,-4.2672645E-2,-3.2216173E-2,-9.0811305E-2,-1.7699271E-2,-8.253517E-2,-9.887009E-2,-5.6500334E-2],"split_indices":[3,0,0,8,1,2,4,0,0,0,0,0,0,0,0],"split_type":[0,0,0,0,0,0,0,0,0,0,0,0,0,0,0],"sum_hessian":[5.0594122E2,7.997152E1,4.2596973E2,4.828807E1,3.1683445E1,6.642421E1,3.595455E2,6.177698E0,4.211037E1,5.3839784E0,2.6299467E1,1.1591036E1,5.4833176E1,3.5289594E2,6.649563E0],"tree_param":{"num_deleted":"0","num_feature":"9","num_nodes":"15","size_leaf_vector":"0"}},{"base_weights":[-8.566236E-1,-5.396074E-1,-9.3318415E-1,-3.3590704E-1,-8.2576805E-1,-7.2920656E-1,-9.6892345E-1,2.7906913E-1,-4.6847647E-1,-5.854147E-1,-9.887162E-1,-6.7084685E-2,-7.737608E-1,-9.760686E-1,-5.146659E-1],"categories":[],"categories_nodes":[],"categories_segments":[],"categories_sizes":[],"default_left":[1,1,1,1,1,1,1,0,0,0,0,0,0,0,0],"id":21,"left_children":[1,3,5,7,9,11,13,-1,-1,-1,-1,-1,-1,-1,-1],"loss_changes":[1.0922699E1,5.1990604E0,2.047882E0,4.7425723E0,9.244156E-1,1.7291069E0,5.312805E-1,0E0,0E0,0E0,0E0,0E0,0E0,0E0,0E0],"parents":[2147483647,0,0,1,1,2,2,3,3,4,4,5,5,6,6],"right_children":[2,4,6,8,10,12,14,-1,-1,-1,-1,-1,-1,-1,-1],"split_conditions":[4.851809E0,1.15E1,3.5E0,1.5E0,2.5E0,1.5182595E3,2.5E0,2.7906913E-2,-4.684765E-2,-5.8541473E-2,-9.887162E-2,-6.708469E-3,-7.737608E-2,-9.760686E-2,-5.146659E-2],"split_indices":[3,0,0,2,2,1,4,0,0,0,0,0,0,0,0],"split_type":[0,0,0,0,0,0,0,0,0,0,0,0,0,0,0],"sum_hessian":[4.6978204E2,9.294991E1,3.7683215E2,5.5568165E1,3.7381744E1,5.937282E1,3.1745932E2,9.658461E0,4.5909706E1,1.6959143E1,2.0422602E1,3.9012873E0,5.5471535E1,3.114123E2,6.0470357E0],"tree_param":{"num_deleted":"0","num_feature":"9","num_nodes":"15","size_leaf_vector":"0"}},{"base_weights":[-8.336812E-1,-5.0965446E-1,-9.150974E-1,-1.5950738E-1,-6.723458E-1,-7.003969E-1,-9.5369977E-1,4.4988307E-1,-4.185427E-1,-2.800696E-1,-7.924812E-1,-7.267388E-1,2.8632745E-1,-9.6138227E-1,-4.889574E-1],"categories":[],"categories_nodes":[],"categories_segments":[],"categories_sizes":[],"default_left":[1,1,1,1,1,1,1,0,0,0,0,0,0,0,0],"id":22,"left_children":[1,3,5,7,9,11,13,-1,-1,-1,-1,-1,-1,-1,-1],"loss_changes":[1.1080902E1,5.0283947E0,2.2208557E0,4.909832E0,2.664154E0,1.6866245E0,5.7489014E-1,0E0,0E0,0E0,0E0,0E0,0E0,0E0,0E0],"parents":[2147483647,0,0,1,1,2,2,3,3,4,4,5,5,6,6],"right_children":[2,4,6,8,10,12,14,-1,-1,-1,-1,-1,-1,-1,-1],"split_conditions":[4.851809E0,5.5E0,3.5E0,3.150493E4,3.189824E0,2.5E0,2.5E0,4.4988308E-2,-4.1854274E-2,-2.800696E-2,-7.924812E-2,-7.267388E-2,2.8632745E-2,-9.613823E-2,-4.8895743E-2],"split_indices":[3,0,0,1,3,4,4,0,0,0,0,0,0,0,0],"split_type":[0,0,0,0,0,0,0,0,0,0,0,0,0,0,0],"sum_hessian":[4.3671082E2,8.915285E1,3.4755795E2,2.8910852E1,6.0241993E1,5.5883873E1,2.916741E2,8.403809E0,2.0507044E1,1.4904815E1,4.5337177E1,5.46874E1,1.1964722E0,2.8587967E2,5.7944255E0],"tree_param":{"num_deleted":"0","num_feature":"9","num_nodes":"15","size_leaf_vector":"0"}},{"base_weights":[-8.104921E-1,-4.8041698E-1,-8.967993E-1,-2.8171763E-1,-7.800979E-1,-7.182602E-1,-9.5074725E-1,3.365886E-1,-4.240252E-1,-5.2223974E-1,-9.623903E-1,-7.4803853E-1,4.001557E-1,-9.6647197E-1,-6.1778903E-1],"categories":[],"categories_nodes":[],"categories_segments":[],"categories_sizes":[],"default_left":[1,1,1,1,1,1,1,0,0,0,0,0,0,0,0],"id":23,"left_children":[1,3,5,7,9,11,13,-1,-1,-1,-1,-1,-1,-1,-1],"loss_changes":[1.1172302E1,4.935669E0,2.4158936E0,4.8612313E0,1.0933666E0,2.9218636E0,6.8032837E-1,0E0,0E0,0E0,0E0,0E0,0E0,0E0,0E0],"parents":[2147483647,0,0,1,1,2,2,3,3,4,4,5,5,6,6],"right_children":[2,4,6,8,10,12,14,-1,-1,-1,-1,-1,-1,-1,-1],"split_conditions":[4.851809E0,1.15E1,5.5E0,2.55E1,2.5E0,2.5E0,6.45E1,3.365886E-2,-4.240252E-2,-5.2223977E-2,-9.623903E-2,-7.480385E-2,4.001557E-2,-9.6647196E-2,-6.1778903E-2],"split_indices":[3,0,0,6,2,4,6,0,0,0,0,0,0,0,0],"split_type":[0,0,0,0,0,0,0,0,0,0,0,0,0,0,0],"sum_hessian":[4.063002E2,8.5578445E1,3.2072174E2,5.2625732E1,3.2952717E1,7.774403E1,2.429777E2,9.590621E0,4.303511E1,1.5248333E1,1.7704384E1,7.605032E1,1.693711E0,2.3020312E2,1.2774572E1],"tree_param":{"num_deleted":"0","num_feature":"9","num_nodes":"15","size_leaf_vector":"0"}},{"base_weights":[-7.868255E-1,-4.519995E-1,-8.781655E-1,6.653497E-2,-5.599009E-1,-6.906685E-1,-9.361474E-1,6.0331154E-1,-5.801841E-1,-3.8896528E-1,-8.9037025E-1,-2.595475E-1,-7.854243E-1,-9.52998E-1,-5.915345E-1],"categories":[],"categories_nodes":[],"categories_segments":[],"categories_sizes":[],"default_left":[1,1,1,1,1,1,1,0,0,0,0,0,0,0,0],"id":24,"left_children":[1,3,5,7,9,11,13,-1,-1,-1,-1,-1,-1,-1,-1],"loss_changes":[1.1213486E1,4.705097E0,2.5845184E0,5.6488223E0,3.5606842E0,2.8197098E0,7.381439E-1,0E0,0E0,0E0,0E0,0E0,0E0,0E0,0E0],"parents":[2147483647,0,0,1,1,2,2,3,3,4,4,5,5,6,6],"right_children":[2,4,6,8,10,12,14,-1,-1,-1,-1,-1,-1,-1,-1],"split_conditions":[4.851809E0,1.5E0,5.5E0,5.0944977E4,1.35E1,2.3450152E4,6.45E1,6.0331155E-2,-5.8018412E-2,-3.8896527E-2,-8.903702E-2,-2.5954751E-2,-7.854243E-2,-9.52998E-2,-5.915345E-2],"split_indices":[3,2,0,1,0,1,6,0,0,0,0,0,0,0,0],"split_type":[0,0,0,0,0,0,0,0,0,0,0,0,0,0,0],"sum_hessian":[3.7863672E2,8.2428E1,2.9620874E2,1.4263971E1,6.816403E1,7.301403E1,2.231947E2,7.831199E0,6.4327726E0,4.6360844E1,2.1803188E1,1.38298645E1,5.9184166E1,2.1110677E2,1.2087931E1],"tree_param":{"num_deleted":"0","num_feature":"9","num_nodes":"15","size_leaf_vector":"0"}},{"base_weights":[-7.628959E-1,-4.2465568E-1,-8.591609E-1,-2.3616259E-1,-7.326779E-1,-6.09734E-1,-9.0751356E-1,3.2941535E-1,-3.7411335E-1,-4.6585566E-1,-9.3382835E-1,-2.2607107E-1,-7.330715E-1,-9.1737896E-1,-3.7094873E-1],"categories":[],"categories_nodes":[],"categories_segments":[],"categories_sizes":[],"default_left":[1,1,1,1,1,1,1,0,0,0,0,0,0,0,0],"id":25,"left_children":[1,3,5,7,9,11,13,-1,-1,-1,-1,-1,-1,-1,-1],"loss_changes":[1.117421E1,4.500328E0,2.7620087E0,4.134361E0,1.1794968E0,2.0906887E0,8.677063E-1,0E0,0E0,0E0,0E0,0E0,0E0,0E0,0E0],"parents":[2147483647,0,0,1,1,2,2,3,3,4,4,5,5,6,6],"right_children":[2,4,6,8,10,12,14,-1,-1,-1,-1,-1,-1,-1,-1],"split_conditions":[4.851809E0,1.15E1,3.5E0,2.55E1,2.5E0,6.383065E0,2.5E0,3.2941535E-2,-3.7411336E-2,-4.6585567E-2,-9.3382835E-2,-2.2607109E-2,-7.330715E-2,-9.1737896E-2,-3.7094872E-2],"split_indices":[3,0,0,6,2,3,4,0,0,0,0,0,0,0,0],"split_type":[0,0,0,0,0,0,0,0,0,0,0,0,0,0,0],"sum_hessian":[3.533859E2,7.9491844E1,2.7389404E2,5.0410202E1,2.908164E1,4.6684174E1,2.2720987E2,9.612488E0,4.0797714E1,1.392558E1,1.5156059E1,1.2045985E1,3.463819E1,2.2241086E2,4.7990055E0],"tree_param":{"num_deleted":"0","num_feature":"9","num_nodes":"15","size_leaf_vector":"0"}},{"base_weights":[-7.385143E-1,-3.982126E-1,-8.397155E-1,1.2940939E-1,-5.000008E-1,-6.841904E-1,-9.297317E-1,5.0987905E-1,-6.94932E-1,-1.1409955E-1,-6.4427304E-1,-2.856018E-1,-7.740618E-1,-9.394105E-1,-4.0261975E-1],"categories":[],"categories_nodes":[],"categories_segments":[],"categories_sizes":[],"default_left":[1,1,1,1,1,1,1,0,0,0,0,0,0,0,0],"id":26,"left_children":[1,3,5,7,9,11,13,-1,-1,-1,-1,-1,-1,-1,-1],"loss_changes":[1.1076721E1,4.245821E0,2.926712E0,4.55226E0,3.571392E0,3.25663E0,4.2993164E-1,0E0,0E0,0E0,0E0,0E0,0E0,0E0,0E0],"parents":[2147483647,0,0,1,1,2,2,3,3,4,4,5,5,6,6],"right_children":[2,4,6,8,10,12,14,-1,-1,-1,-1,-1,-1,-1,-1],"split_conditions":[4.851809E0,2.5E0,8.5E0,1.1460576E4,3.2419953E0,2.3450152E4,2.5E0,5.0987907E-2,-6.94932E-2,-1.1409955E-2,-6.442731E-2,-2.856018E-2,-7.740618E-2,-9.3941055E-2,-4.0261976E-2],"split_indices":[3,0,0,8,3,1,4,0,0,0,0,0,0,0,0],"split_type":[0,0,0,0,0,0,0,0,0,0,0,0,0,0,0],"sum_hessian":[3.3034348E2,7.685241E1,2.5349107E2,1.2384679E1,6.446773E1,9.60837E1,1.5740736E2,8.734702E0,3.6499767E0,1.8030468E1,4.643726E1,1.8447065E1,7.763664E1,1.538011E2,3.6062708E0],"tree_param":{"num_deleted":"0","num_feature":"9","num_nodes":"15","size_leaf_vector":"0"}},{"base_weights":[-7.138495E-1,-3.728666E-1,-8.197042E-1,-2.1467859E-1,-7.413851E-1,-6.041147E-1,-8.912245E-1,3.7370807E-1,-3.2315427E-1,-8.1441635E-1,1.7274897E-1,-6.4104414E-1,5.2569175E-1,-9.1254485E-1,-4.7995713E-1],"categories":[],"categories_nodes":[],"categories_segments":[],"categories_sizes":[],"default_left":[1,1,1,1,1,1,1,0,0,0,0,0,0,0,0],"id":27,"left_children":[1,3,5,7,9,11,13,-1,-1,-1,-1,-1,-1,-1,-1],"loss_changes":[1.0893158E1,4.2324953E0,3.0993805E0,3.5748005E0,1.623971E0,2.9185925E0,1.0969238E0,0E0,0E0,0E0,0E0,0E0,0E0,0E0,0E0],"parents":[2147483647,0,0,1,1,2,2,3,3,4,4,5,5,6,6],"right_children":[2,4,6,8,10,12,14,-1,-1,-1,-1,-1,-1,-1,-1],"split_conditions":[4.851809E0,1.35E1,5.5E0,4.5882705E3,3.85E1,2.5E0,6.45E1,3.737081E-2,-3.231543E-2,-8.144163E-2,1.7274898E-2,-6.4104415E-2,5.2569177E-2,-9.125449E-2,-4.7995713E-2],"split_indices":[3,0,0,8,7,4,6,0,0,0,0,0,0,0,0],"split_type":[0,0,0,0,0,0,0,0,0,0,0,0,0,0,0],"sum_hessian":[3.0926193E2,7.433473E1,2.349272E2,5.3116722E1,2.1218014E1,6.087461E1,1.7405258E2,7.8876996E0,4.5229023E1,1.9749304E1,1.4687102E0,5.9366726E1,1.5078835E0,1.6431552E2,9.737066E0],"tree_param":{"num_deleted":"0","num_feature":"9","num_nodes":"15","size_leaf_vector":"0"}},{"base_weights":[-6.885048E-1,-2.916814E-1,-7.832553E-1,1.8619503E-1,-4.3736124E-1,-4.5848954E-1,-8.547251E-1,-3.811848E-1,7.613916E-1,-5.42835E-1,2.4596845E-1,1.80133E-1,-6.131432E-1,-7.410031E-1,-9.4108653E-1],"categories":[],"categories_nodes":[],"categories_segments":[],"categories_sizes":[],"default_left":[1,1,1,1,1,1,1,0,0,0,0,0,0,0,0],"id":28,"left_children":[1,3,5,7,9,11,13,-1,-1,-1,-1,-1,-1,-1,-1],"loss_changes":[1.0712952E1,4.0971913E0,5.0468597E0,4.917247E0,3.341195E0,4.4977474E0,1.177475E0,0E0,0E0,0E0,0E0,0E0,0E0,0E0,0E0],"parents":[2147483647,0,0,1,1,2,2,3,3,4,4,5,5,6,6],"right_children":[2,4,6,8,10,12,14,-1,-1,-1,-1,-1,-1,-1,-1],"split_conditions":[4.4766755E0,2.56962E4,3.5E0,5E-1,3.65E1,1.5E0,6.977705E0,-3.8118478E-2,7.613916E-2,-5.42835E-2,2.4596846E-2,1.80133E-2,-6.1314322E-2,-7.410031E-2,-9.4108656E-2],"split_indices":[3,1,0,4,7,2,3,0,0,0,0,0,0,0,0],"split_type":[0,0,0,0,0,0,0,0,0,0,0,0,0,0,0],"sum_hessian":[2.9000116E2,5.668359E1,2.3331757E2,1.3177866E1,4.3505722E1,4.3421474E1,1.8989609E2,6.803812E0,6.374054E0,3.7866528E1,5.6391954E0,8.433142E0,3.4988335E1,8.609938E1,1.0379671E2],"tree_param":{"num_deleted":"0","num_feature":"9","num_nodes":"15","size_leaf_vector":"0"}},{"base_weights":[-6.629999E-1,-3.22234E-1,-7.78184E-1,1.7711674E-1,-4.3707544E-1,-6.002629E-1,-8.8789755E-1,6.449568E-1,-4.7417128E-1,-2.72907E-1,-8.1265306E-1,-1.6198565E-1,-7.0526457E-1,-9.0029454E-1,-2.894884E-1],"categories":[],"categories_nodes":[],"categories_segments":[],"categories_sizes":[],"default_left":[1,1,1,1,1,1,1,0,0,0,0,0,0,0,0],"id":29,"left_children":[1,3,5,7,9,11,13,-1,-1,-1,-1,-1,-1,-1,-1],"loss_changes":[1.048082E1,4.136195E0,3.4420395E0,4.554983E0,3.3439894E0,3.6023026E0,6.583252E-1,0E0,0E0,0E0,0E0,0E0,0E0,0E0,0E0],"parents":[2147483647,0,0,1,1,2,2,3,3,4,4,5,5,6,6],"right_children":[2,4,6,8,10,12,14,-1,-1,-1,-1,-1,-1,-1,-1],"split_conditions":[4.851809E0,1.5E0,8.5E0,5.0944977E4,1.35E1,2.3450152E4,2.5E0,6.449568E-2,-4.741713E-2,-2.72907E-2,-8.126531E-2,-1.6198566E-2,-7.052646E-2,-9.0029456E-2,-2.8948842E-2],"split_indices":[3,2,0,1,0,1,4,0,0,0,0,0,0,0,0],"split_type":[0,0,0,0,0,0,0,0,0,0,0,0,0,0,0],"sum_hessian":[2.7241046E2,6.977686E1,2.0263359E2,1.294546E1,5.6831406E1,7.9759605E1,1.2287398E2,7.5394E0,5.4060607E0,4.07471E1,1.6084303E1,1.5906901E1,6.3852707E1,1.1988588E2,2.9881032E0],"tree_param":{"num_deleted":"0","num_feature":"9","num_nodes":"15","size_leaf_vector":"0"}},{"base_weights":[-6.3727784E-1,-3.902335E-1,-8.055935E-1,-2.5919643E-1,-8.9898086E-1,-8.224536E-1,3.0320823E-1,-8.2104266E-2,-6.4403087E-1,2.367529E-1,-9.879108E-1,-8.3944666E-1,1.9739997E-1,9.771943E-1,-5.1984143E-1],"categories":[],"categories_nodes":[],"categories_segments":[],"categories_sizes":[],"default_left":[1,1,1,1,1,1,1,0,0,0,0,0,0,0,0],"id":30,"left_children":[1,3,5,7,9,11,13,-1,-1,-1,-1,-1,-1,-1,-1],"loss_changes":[1.039312E1,6.85268E0,3.0950165E0,5.8029532E0,2.3916988E0,2.7688675E0,2.1780128E0,0E0,0E0,0E0,0E0,0E0,0E0,0E0,0E0],"parents":[2147483647,0,0,1,1,2,2,3,3,4,4,5,5,6,6],"right_children":[2,4,6,8,10,12,14,-1,-1,-1,-1,-1,-1,-1,-1],"split_conditions":[5.9836617E0,1.75E1,7.35E1,3.5E0,2.7462825E3,5.5E0,5.1440746E4,-8.210427E-3,-6.440309E-2,2.367529E-2,-9.8791085E-2,-8.394467E-2,1.9739999E-2,9.771943E-2,-5.1984143E-2],"split_indices":[3,0,6,2,1,5,1,0,0,0,0,0,0,0,0],"split_type":[0,0,0,0,0,0,0,0,0,0,0,0,0,0,0],"sum_hessian":[2.565065E2,1.0528844E2,1.5121806E2,8.4924164E1,2.0364271E1,1.492075E2,2.010554E0,5.8991123E1,2.593304E1,1.3580638E0,1.9006207E1,1.4693611E2,2.2713928E0,1.0024084E0,1.0081456E0],"tree_param":{"num_deleted":"0","num_feature":"9","num_nodes":"15","size_leaf_vector":"0"}},{"base_weights":[-6.1066765E-1,-3.654924E-1,-7.8497237E-1,-2.3956418E-1,-8.8416046E-1,-8.027644E-1,2.8181827E-1,-7.454289E-2,-6.149297E-1,2.2028778E-1,-9.7967184E-1,-8.207225E-1,1.8123811E-1,9.549072E-1,-5.268022E-1],"categories":[],"categories_nodes":[],"categories_segments":[],"categories_sizes":[],"default_left":[1,1,1,1,1,1,1,0,0,0,0,0,0,0,0],"id":31,"left_children":[1,3,5,7,9,11,13,-1,-1,-1,-1,-1,-1,-1,-1],"loss_changes":[1.0102882E1,6.508704E0,2.9067688E0,5.1675763E0,2.2970448E0,2.6079788E0,2.166841E0,0E0,0E0,0E0,0E0,0E0,0E0,0E0,0E0],"parents":[2147483647,0,0,1,1,2,2,3,3,4,4,5,5,6,6],"right_children":[2,4,6,8,10,12,14,-1,-1,-1,-1,-1,-1,-1,-1],"split_conditions":[5.9836617E0,1.75E1,7.35E1,3.5E0,2.7462825E3,5.5E0,9.676151E3,-7.4542887E-3,-6.149297E-2,2.202878E-2,-9.7967185E-2,-8.207225E-2,1.8123811E-2,9.549072E-2,-5.268022E-2],"split_indices":[3,0,6,2,1,5,8,0,0,0,0,0,0,0,0],"split_type":[0,0,0,0,0,0,0,0,0,0,0,0,0,0,0],"sum_hessian":[2.4212022E2,1.0189401E2,1.4022621E2,8.31643E1,1.872971E1,1.381693E2,2.0569072E0,5.8600468E1,2.4563835E1,1.3868169E0,1.7342894E1,1.3585587E2,2.3134391E0,1.0237976E0,1.0331095E0],"tree_param":{"num_deleted":"0","num_feature":"9","num_nodes":"15","size_leaf_vector":"0"}},{"base_weights":[-5.839365E-1,-3.738977E-1,-7.937719E-1,-2.4786021E-1,-8.977047E-1,-8.164832E-1,3.969745E-1,-7.352954E-2,-6.530884E-1,1.5730172E-1,-9.820487E-1,-5.721329E-1,-9.0277517E-1],"categories":[],"categories_nodes":[],"categories_segments":[],"categories_sizes":[],"default_left":[1,1,1,1,1,1,0,0,0,0,0,0,0],"id":32,"left_children":[1,3,5,7,9,11,-1,-1,-1,-1,-1,-1,-1],"loss_changes":[9.841644E0,7.491974E0,3.4119873E0,6.7033825E0,2.137209E0,1.8529205E0,0E0,0E0,0E0,0E0,0E0,0E0,0E0],"parents":[2147483647,0,0,1,1,2,2,3,3,4,4,5,5],"right_children":[2,4,6,8,10,12,-1,-1,-1,-1,-1,-1,-1],"split_conditions":[6.4766097E0,1.75E1,7.35E1,3.5E0,2.7462825E3,5.5E0,3.969745E-2,-7.3529542E-3,-6.530884E-2,1.5730172E-2,-9.820487E-2,-5.7213288E-2,-9.0277515E-2],"split_indices":[3,0,6,2,1,0,0,0,0,0,0,0,0],"split_type":[0,0,0,0,0,0,0,0,0,0,0,0,0],"sum_hessian":[2.2903409E2,1.1585182E2,1.13182274E2,9.456979E1,2.1282024E1,1.1137237E2,1.8099082E0,6.694938E1,2.7620419E1,1.511434E0,1.9770592E1,3.1057634E1,8.031473E1],"tree_param":{"num_deleted":"0","num_feature":"9","num_nodes":"13","size_leaf_vector":"0"}},{"base_weights":[-5.5739784E-1,-1.6668801E-1,-6.712081E-1,-6.719224E-2,-8.7114555E-1,-2.8248167E-1,-7.671712E-1,-2.570271E-1,3.3746532E-1,-3.4106564E-2,-8.5069764E-1,-6.288113E-1,-8.829477E-1],"categories":[],"categories_nodes":[],"categories_segments":[],"categories_sizes":[],"default_left":[1,1,1,1,0,1,1,0,0,0,0,0,0],"id":33,"left_children":[1,3,5,7,-1,9,11,-1,-1,-1,-1,-1,-1],"loss_changes":[9.592384E0,3.48527E0,6.07547E0,3.573258E0,0E0,4.907562E0,1.6024857E0,0E0,0E0,0E0,0E0,0E0,0E0],"parents":[2147483647,0,0,1,1,2,2,3,3,5,5,6,6],"right_children":[2,4,6,8,-1,10,12,-1,-1,-1,-1,-1,-1],"split_conditions":[4.4766755E0,1.85E1,3.5E0,3.25E1,-8.711456E-2,3.5E0,6.977705E0,-2.570271E-2,3.3746533E-2,-3.4106565E-3,-8.506977E-2,-6.2881134E-2,-8.829477E-2],"split_indices":[3,0,0,7,0,2,3,0,0,0,0,0,0],"split_type":[0,0,0,0,0,0,0,0,0,0,0,0,0],"sum_hessian":[2.1723625E2,4.956038E1,1.6767587E2,4.4386696E1,5.173681E0,3.397875E1,1.3369713E2,3.0461353E1,1.3925344E1,2.4381348E1,9.597402E0,6.3838055E1,6.985907E1],"tree_param":{"num_deleted":"0","num_feature":"9","num_nodes":"13","size_leaf_vector":"0"}},{"base_weights":[-5.312697E-1,-2.916443E-1,-7.2660434E-1,1.904484E-1,-4.2965862E-1,-3.1779554E-1,-8.1076884E-1,1.140051E0,-1.836539E-1,-2.1751949E-1,-7.779317E-1,-4.571686E-1,3.0969617E-1,-9.1675943E-1,-6.359408E-1],"categories":[],"categories_nodes":[],"categories_segments":[],"categories_sizes":[],"default_left":[1,1,1,1,1,1,1,0,0,0,0,0,0,0,0],"id":34,"left_children":[1,3,5,7,9,11,13,-1,-1,-1,-1,-1,-1,-1,-1],"loss_changes":[9.49987E0,6.392684E0,3.6522293E0,7.954864E0,5.301491E0,1.982126E0,1.1512375E0,0E0,0E0,0E0,0E0,0E0,0E0,0E0,0E0],"parents":[2147483647,0,0,1,1,2,2,3,3,4,4,5,5,6,6],"right_children":[2,4,6,8,10,12,14,-1,-1,-1,-1,-1,-1,-1,-1],"split_conditions":[8.5E0,2.3510605E4,4.3707333E0,1.5E0,6.9810944E0,4.129254E0,5E-1,1.140051E-1,-1.836539E-2,-2.175195E-2,-7.779317E-2,-4.5716863E-2,3.0969618E-2,-9.1675945E-2,-6.359408E-2],"split_indices":[0,1,3,2,3,3,4,0,0,0,0,0,0,0,0],"split_type":[0,0,0,0,0,0,0,0,0,0,0,0,0,0,0],"sum_hessian":[2.0648495E2,9.384918E1,1.1263577E2,2.0803013E1,7.3046165E1,2.0045494E1,9.259028E1,5.3006577E0,1.5502356E1,4.6404778E1,2.6641386E1,1.6624449E1,3.4210446E0,5.5001507E1,3.7588776E1],"tree_param":{"num_deleted":"0","num_feature":"9","num_nodes":"15","size_leaf_vector":"0"}},{"base_weights":[-5.051571E-1,-3.0300575E-1,-7.390924E-1,-1.8116157E-1,-8.670751E-1,-7.6728314E-1,5.045059E-1,-1.2758241E-2,-5.996122E-1,2.0650907E-1,-9.6636575E-1,-4.940809E-1,-8.7610084E-1],"categories":[],"categories_nodes":[],"categories_segments":[],"categories_sizes":[],"default_left":[1,1,1,1,1,1,0,0,0,0,0,0,0],"id":35,"left_children":[1,3,5,7,9,11,-1,-1,-1,-1,-1,-1,-1],"loss_changes":[9.117859E0,7.242544E0,3.573063E0,6.320653E0,2.210104E0,2.220749E0,0E0,0E0,0E0,0E0,0E0,0E0,0E0],"parents":[2147483647,0,0,1,1,2,2,3,3,4,4,5,5],"right_children":[2,4,6,8,10,12,-1,-1,-1,-1,-1,-1,-1],"split_conditions":[6.5445065E0,1.75E1,7.35E1,3.5E0,2.7462825E3,5.5E0,5.045059E-2,-1.2758242E-3,-5.996122E-2,2.0650906E-2,-9.663658E-2,-4.940809E-2,-8.761009E-2],"split_indices":[3,0,6,2,1,0,0,0,0,0,0,0,0],"split_type":[0,0,0,0,0,0,0,0,0,0,0,0,0],"sum_hessian":[1.9654156E2,1.06664474E2,8.987709E1,8.8803314E1,1.7861162E1,8.8259384E1,1.6177111E0,6.405514E1,2.4748177E1,1.4206363E0,1.6440527E1,2.6718708E1,6.1540672E1],"tree_param":{"num_deleted":"0","num_feature":"9","num_nodes":"13","size_leaf_vector":"0"}},{"base_weights":[-4.7909474E-1,-2.4556652E-1,-6.828999E-1,3.718802E-1,-3.467998E-1,-2.7163705E-1,-7.753E-1,6.0375875E-1,-7.37288E-1,-6.670493E-1,-1.3005707E-1,-6.7267287E-1,-2.5656912E-2,-8.9601403E-1,-5.8220464E-1],"categories":[],"categories_nodes":[],"categories_segments":[],"categories_sizes":[],"default_left":[1,1,1,1,1,1,1,0,0,0,0,0,0,0,0],"id":36,"left_children":[1,3,5,7,9,11,13,-1,-1,-1,-1,-1,-1,-1,-1],"loss_changes":[8.8125E0,5.722697E0,3.5967484E0,3.8113365E0,5.2858963E0,1.9477942E0,1.3727188E0,0E0,0E0,0E0,0E0,0E0,0E0,0E0,0E0],"parents":[2147483647,0,0,1,1,2,2,3,3,4,4,5,5,6,6],"right_children":[2,4,6,8,10,12,14,-1,-1,-1,-1,-1,-1,-1,-1],"split_conditions":[8.5E0,3.4630187E0,4.3707333E0,3.5E0,1.5E0,7.151833E3,5E-1,6.0375877E-2,-7.37288E-2,-6.670493E-2,-1.30057065E-2,-6.726729E-2,-2.5656912E-3,-8.9601405E-2,-5.8220465E-2],"split_indices":[0,3,3,5,5,8,4,0,0,0,0,0,0,0,0],"split_type":[0,0,0,0,0,0,0,0,0,0,0,0,0,0,0],"sum_hessian":[1.8768233E2,8.849084E1,9.919148E1,1.2088233E1,7.64026E1,1.8920078E1,8.027141E1,1.037495E1,1.7132826E0,2.9999321E1,4.6403286E1,6.5334883E0,1.2386591E1,4.7153206E1,3.3118202E1],"tree_param":{"num_deleted":"0","num_feature":"9","num_nodes":"15","size_leaf_vector":"0"}},{"base_weights":[-4.5392632E-1,-2.5608838E-1,-6.9844586E-1,-1.4041138E-1,-8.4170926E-1,-7.469662E-1,1.9412014E-1,1.8045027E-2,-5.56745E-1,2.2921513E-1,-9.543201E-1,-4.3554363E-1,-8.827652E-1,9.715322E-1,-4.3531242E-1],"categories":[],"categories_nodes":[],"categories_segments":[],"categories_sizes":[],"default_left":[1,1,1,1,1,1,1,0,0,0,0,0,0,0,0],"id":37,"left_children":[1,3,5,7,9,11,13,-1,-1,-1,-1,-1,-1,-1,-1],"loss_changes":[8.558567E0,6.752163E0,3.6182594E0,5.67625E0,2.2120304E0,2.8410873E0,2.8346477E0,0E0,0E0,0E0,0E0,0E0,0E0,0E0,0E0],"parents":[2147483647,0,0,1,1,2,2,3,3,4,4,5,5,6,6],"right_children":[2,4,6,8,10,12,14,-1,-1,-1,-1,-1,-1,-1,-1],"split_conditions":[6.5445065E0,1.75E1,6.55E1,3.5E0,2.7462825E3,5.5E0,2.5E0,1.8045027E-3,-5.56745E-2,2.2921514E-2,-9.5432006E-2,-4.3554362E-2,-8.827652E-2,9.7153224E-2,-4.3531243E-2],"split_indices":[3,0,6,2,1,0,2,0,0,0,0,0,0,0,0],"split_type":[0,0,0,0,0,0,0,0,0,0,0,0,0,0,0],"sum_hessian":[1.7961781E2,1.00418045E2,7.919977E1,8.4889656E1,1.5528389E1,7.527112E1,3.9286475E0,6.2180458E1,2.27092E1,1.3789706E0,1.4149419E1,2.413364E1,5.113748E1,1.5145375E0,2.4141102E0],"tree_param":{"num_deleted":"0","num_feature":"9","num_nodes":"15","size_leaf_vector":"0"}},{"base_weights":[-4.287277E-1,-2.3780209E-1,-6.7524374E-1,-1.2885468E-1,-8.2600707E-1,-7.2573453E-1,1.8196376E-1,1.6243814E-2,-5.2909017E-1,2.132242E-1,-9.464873E-1,-4.1031018E-1,-8.6958206E-1,8.605043E-1,-4.1702044E-1],"categories":[],"categories_nodes":[],"categories_segments":[],"categories_sizes":[],"default_left":[1,1,1,1,1,1,1,0,0,0,0,0,0,0,0],"id":38,"left_children":[1,3,5,7,9,11,13,-1,-1,-1,-1,-1,-1,-1,-1],"loss_changes":[7.996332E0,6.2512264E0,3.3823776E0,4.938465E0,2.1198664E0,2.870182E0,2.3816202E0,0E0,0E0,0E0,0E0,0E0,0E0,0E0,0E0],"parents":[2147483647,0,0,1,1,2,2,3,3,4,4,5,5,6,6],"right_children":[2,4,6,8,10,12,14,-1,-1,-1,-1,-1,-1,-1,-1],"split_conditions":[6.5445065E0,1.75E1,6.55E1,3.5E0,2.7462825E3,5.5E0,2.5E0,1.6243814E-3,-5.2909017E-2,2.132242E-2,-9.4648734E-2,-4.1031018E-2,-8.695821E-2,8.6050436E-2,-4.1702043E-2],"split_indices":[3,0,6,2,1,0,2,0,0,0,0,0,0,0,0],"split_type":[0,0,0,0,0,0,0,0,0,0,0,0,0,0,0],"sum_hessian":[1.7230708E2,9.820916E1,7.409792E1,8.389009E1,1.431907E1,7.012106E1,3.9768643E0,6.227337E1,2.1616722E1,1.4076098E0,1.291146E1,2.316906E1,4.6952E1,1.6598963E0,2.316968E0],"tree_param":{"num_deleted":"0","num_feature":"9","num_nodes":"15","size_leaf_vector":"0"}},{"base_weights":[-4.0410367E-1,-1.8335694E-1,-6.16448E-1,2.9359293E-1,-3.2939255E-1,-2.124452E-1,-7.1943647E-1,1.0766938E0,-6.739785E-2,-3.7599382E-1,1.0179713E0,-6.2824744E-1,2.8739285E-2,-4.250854E-1,-8.2934636E-1],"categories":[],"categories_nodes":[],"categories_segments":[],"categories_sizes":[],"default_left":[1,1,1,1,1,1,1,0,0,0,0,0,0,0,0],"id":39,"left_children":[1,3,5,7,9,11,13,-1,-1,-1,-1,-1,-1,-1,-1],"loss_changes":[7.6997166E0,5.8878098E0,3.3642845E0,5.7316904E0,4.409093E0,1.8823855E0,1.8131142E0,0E0,0E0,0E0,0E0,0E0,0E0,0E0,0E0],"parents":[2147483647,0,0,1,1,2,2,3,3,4,4,5,5,6,6],"right_children":[2,4,6,8,10,12,14,-1,-1,-1,-1,-1,-1,-1,-1],"split_conditions":[8.5E0,2.3510605E4,4.3707333E0,1.5E0,5.5E0,7.151833E3,7.3859854E3,1.07669376E-1,-6.739785E-3,-3.759938E-2,1.01797126E-1,-6.282475E-2,2.8739285E-3,-4.250854E-2,-8.293464E-2],"split_indices":[0,1,3,2,5,8,8,0,0,0,0,0,0,0,0],"split_type":[0,0,0,0,0,0,0,0,0,0,0,0,0,0,0],"sum_hessian":[1.6567447E2,8.214378E1,8.3530685E1,1.9018677E1,6.3125103E1,1.7590307E1,6.594038E1,5.3753247E0,1.36433525E1,6.1711628E1,1.4134781E0,5.868377E0,1.172193E1,1.9251162E1,4.6689217E1],"tree_param":{"num_deleted":"0","num_feature":"9","num_nodes":"15","size_leaf_vector":"0"}},{"base_weights":[-3.795665E-1,-2.0158853E-1,-6.446765E-1,-9.717399E-2,-8.0798024E-1,-7.050108E-1,3.0757633E-1,-1.3882095E-1,9.7033936E-1,2.1508838E-1,-9.3752444E-1,4.3393046E-1,-7.329049E-1,9.277899E-1,-3.3637512E-1],"categories":[],"categories_nodes":[],"categories_segments":[],"categories_sizes":[],"default_left":[1,1,1,1,1,1,1,0,0,0,0,0,0,0,0],"id":40,"left_children":[1,3,5,7,9,11,13,-1,-1,-1,-1,-1,-1,-1,-1],"loss_changes":[7.4379215E0,6.089811E0,3.8921757E0,3.8802168E0,2.0801744E0,2.2389202E0,2.1124792E0,0E0,0E0,0E0,0E0,0E0,0E0,0E0,0E0],"parents":[2147483647,0,0,1,1,2,2,3,3,4,4,5,5,6,6],"right_children":[2,4,6,8,10,12,14,-1,-1,-1,-1,-1,-1,-1,-1],"split_conditions":[6.688588E0,1.75E1,6.55E1,2.5E0,2.7462825E3,6.9705205E0,4.250833E4,-1.3882095E-2,9.703394E-2,2.1508839E-2,-9.3752444E-2,4.3393046E-2,-7.329049E-2,9.2778996E-2,-3.3637512E-2],"split_indices":[3,0,6,4,1,8,1,0,0,0,0,0,0,0,0],"split_type":[0,0,0,0,0,0,0,0,0,0,0,0,0,0,0],"sum_hessian":[1.5939171E2,9.642111E1,6.29706E1,8.324706E1,1.3174054E1,5.946271E1,3.507888E0,8.095857E1,2.288483E0,1.4064379E0,1.1767616E1,1.0735242E0,5.8389187E1,1.5623523E0,1.9455359E0],"tree_param":{"num_deleted":"0","num_feature":"9","num_nodes":"15","size_leaf_vector":"0"}},{"base_weights":[-3.5521194E-1,-1.4189078E-1,-5.7178783E-1,2.960425E-1,-2.831032E-1,-3.466639E-1,-7.8121465E-1,-1.735708E-1,7.8570724E-1,-9.719711E-2,-6.6514814E-1,-1.9165078E-1,-8.064431E-1,-8.477124E-1,1.5959E-1],"categories":[],"categories_nodes":[],"categories_segments":[],"categories_sizes":[],"default_left":[1,1,1,1,1,1,1,0,0,0,0,0,0,0,0],"id":41,"left_children":[1,3,5,7,9,11,13,-1,-1,-1,-1,-1,-1,-1,-1],"loss_changes":[7.068531E0,4.9874063E0,3.3340893E0,4.694667E0,4.2302074E0,2.5999074E0,2.56353E0,0E0,0E0,0E0,0E0,0E0,0E0,0E0,0E0],"parents":[2147483647,0,0,1,1,2,2,3,3,4,4,5,5,6,6],"right_children":[2,4,6,8,10,12,14,-1,-1,-1,-1,-1,-1,-1,-1],"split_conditions":[8.5E0,2.3510605E4,6.208338E0,5E-1,6.9810944E0,1.85E1,6.55E1,-1.735708E-2,7.857072E-2,-9.719711E-3,-6.651481E-2,-1.9165078E-2,-8.064431E-2,-8.477124E-2,1.5959E-2],"split_indices":[0,1,3,4,3,0,6,0,0,0,0,0,0,0,0],"split_type":[0,0,0,0,0,0,0,0,0,0,0,0,0,0,0],"sum_hessian":[1.5375388E2,7.829281E1,7.546106E1,1.88227E1,5.9470108E1,3.7647297E1,3.7813766E1,9.937585E0,8.885116E0,4.0847702E1,1.8622404E1,2.9214539E1,8.432759E0,3.540988E1,2.4038823E0],"tree_param":{"num_deleted":"0","num_feature":"9","num_nodes":"15","size_leaf_vector":"0"}},{"base_weights":[-3.33137E-1,-5.8216274E-2,-4.9100834E-1,8.881241E-2,-6.9768715E-1,1.6120245E-1,-5.883783E-1,6.772659E-1,-1.2003475E-1,-8.7054896E-1,4.7184917E-1,-3.376625E-1,7.48805E-1,-2.7740029E-1,-6.949696E-1],"categories":[],"categories_nodes":[],"categories_segments":[],"categories_sizes":[],"default_left":[1,1,1,1,1,1,1,0,0,0,0,0,0,0,0],"id":42,"left_children":[1,3,5,7,9,11,13,-1,-1,-1,-1,-1,-1,-1,-1],"loss_changes":[6.4684525E0,5.302578E0,6.125038E0,5.7598944E0,2.5401664E0,4.0986276E0,2.553009E0,0E0,0E0,0E0,0E0,0E0,0E0,0E0,0E0],"parents":[2147483647,0,0,1,1,2,2,3,3,4,4,5,5,6,6],"right_children":[2,4,6,8,10,12,14,-1,-1,-1,-1,-1,-1,-1,-1],"split_conditions":[5.5E0,5.35E1,3.4716272E0,2.3510605E4,9.072908E0,3.25E1,2.65E1,6.772659E-2,-1.2003475E-2,-8.70549E-2,4.7184918E-2,-3.376625E-2,7.48805E-2,-2.774003E-2,-6.949696E-2],"split_indices":[0,6,3,1,3,7,7,0,0,0,0,0,0,0,0],"split_type":[0,0,0,0,0,0,0,0,0,0,0,0,0,0,0],"sum_hessian":[1.4869406E2,5.4739033E1,9.395503E1,4.5206226E1,9.532808E0,1.211953E1,8.18355E1,1.1253939E1,3.3952286E1,8.527987E0,1.0048219E0,6.7847466E0,5.3347826E0,2.1809414E1,6.002609E1],"tree_param":{"num_deleted":"0","num_feature":"9","num_nodes":"15","size_leaf_vector":"0"}},{"base_weights":[-3.1120682E-1,-1.5974726E-1,-6.073187E-1,-7.81241E-2,-7.1845835E-1,-6.591286E-1,7.536197E-1,4.3070674E-1,-1.9328496E-1,1.4167517E-1,-8.503793E-1,-2.415824E-1,-8.3097935E-1],"categories":[],"categories_nodes":[],"categories_segments":[],"categories_sizes":[],"default_left":[1,1,1,1,1,1,0,0,0,0,0,0,0],"id":43,"left_children":[1,3,5,7,9,11,-1,-1,-1,-1,-1,-1,-1],"loss_changes":[6.406596E0,4.3809376E0,3.9316616E0,5.123549E0,1.5139165E0,3.204939E0,0E0,0E0,0E0,0E0,0E0,0E0,0E0],"parents":[2147483647,0,0,1,1,2,2,3,3,4,4,5,5],"right_children":[2,4,6,8,10,12,-1,-1,-1,-1,-1,-1,-1],"split_conditions":[6.977705E0,4.5E0,7.35E1,2.5E0,3.242763E0,4.5E0,7.536197E-2,4.3070674E-2,-1.9328495E-2,1.4167517E-2,-8.503793E-2,-2.415824E-2,-8.3097935E-2],"split_indices":[3,2,6,0,3,0,0,0,0,0,0,0,0],"split_type":[0,0,0,0,0,0,0,0,0,0,0,0,0],"sum_hessian":[1.4401146E2,9.629605E1,4.7715405E1,8.501576E1,1.1280286E1,4.64623E1,1.2531048E0,1.5184404E1,6.983136E1,1.490192E0,9.790093E0,1.42484865E1,3.221381E1],"tree_param":{"num_deleted":"0","num_feature":"9","num_nodes":"13","size_leaf_vector":"0"}},{"base_weights":[-2.9011822E-1,-1.9956866E-1,-7.81926E-1,-4.2041853E-2,-4.937133E-1,3.7257094E-2,-8.5948896E-1,8.223259E-2,-4.1124994E-1,-5.847794E-1,6.227513E-1,-9.0443796E-1,-4.010225E-2],"categories":[],"categories_nodes":[],"categories_segments":[],"categories_sizes":[],"default_left":[1,1,1,1,1,0,1,0,0,0,0,0,0],"id":44,"left_children":[1,3,5,7,9,-1,11,-1,-1,-1,-1,-1,-1],"loss_changes":[6.1162233E0,5.5528884E0,1.4017229E0,3.6782799E0,4.620085E0,0E0,6.9054794E-1,0E0,0E0,0E0,0E0,0E0,0E0],"parents":[2147483647,0,0,1,1,2,2,3,3,4,4,6,6],"right_children":[2,4,6,8,10,-1,12,-1,-1,-1,-1,-1,-1],"split_conditions":[1.75E1,6.688588E0,2.4507007E3,3.5E0,6.55E1,3.7257094E-3,9.997939E0,8.223259E-3,-4.1124996E-2,-5.847794E-2,6.227513E-2,-9.04438E-2,-4.010225E-3],"split_indices":[0,3,1,2,6,0,3,0,0,0,0,0,0],"split_type":[0,0,0,0,0,0,0,0,0,0,0,0,0],"sum_hessian":[1.3984555E2,1.1928845E2,2.0557098E1,7.842924E1,4.085922E1,1.8230091E0,1.8734089E1,5.9259815E1,1.916942E1,3.8218124E1,2.641096E0,1.766144E1,1.0726492E0],"tree_param":{"num_deleted":"0","num_feature":"9","num_nodes":"13","size_leaf_vector":"0"}},{"base_weights":[-2.7016833E-1,-1.8395089E-1,-7.639739E-1,-1.06132194E-1,-7.5143313E-1,3.476942E-2,-8.46003E-1,-1.4377438E-1,1.1474605E0,2.110734E-1,-8.7058145E-1,-8.9406204E-1,-3.8108364E-2],"categories":[],"categories_nodes":[],"categories_segments":[],"categories_sizes":[],"default_left":[1,1,1,1,1,0,1,0,0,0,0,0,0],"id":45,"left_children":[1,3,5,7,9,-1,11,-1,-1,-1,-1,-1,-1],"loss_changes":[5.697505E0,5.1338215E0,1.3441267E0,5.1190715E0,1.7976179E0,0E0,6.7398834E-1,0E0,0E0,0E0,0E0,0E0,0E0],"parents":[2147483647,0,0,1,1,2,2,3,3,4,4,6,6],"right_children":[2,4,6,8,10,-1,12,-1,-1,-1,-1,-1,-1],"split_conditions":[1.75E1,4.5E0,2.4507007E3,5.5E0,3.242763E0,3.476942E-3,9.997939E0,-1.43774375E-2,1.1474605E-1,2.110734E-2,-8.705815E-2,-8.940621E-2,-3.8108365E-3],"split_indices":[0,2,1,5,3,0,3,0,0,0,0,0,0],"split_type":[0,0,0,0,0,0,0,0,0,0,0,0,0],"sum_hessian":[1.3612477E2,1.1705903E2,1.9065746E1,1.0398642E2,1.3072608E1,1.829309E0,1.7236439E1,1.018145E2,2.1719196E0,1.3550107E0,1.1717598E1,1.6168E1,1.068439E0],"tree_param":{"num_deleted":"0","num_feature":"9","num_nodes":"13","size_leaf_vector":"0"}},{"base_weights":[-2.505114E-1,-1.1326216E-1,-5.4421264E-1,8.974361E-2,-3.0362082E-1,-1.1815655E-1,-7.35267E-1,5.579652E-1,-1.4402066E-1,-3.711186E-1,1.3683482E0,-6.047165E-1,3.2273048E-1,-8.224733E-1,1.9260706E-1],"categories":[],"categories_nodes":[],"categories_segments":[],"categories_sizes":[],"default_left":[1,1,1,1,1,1,1,0,0,0,0,0,0,0,0],"id":46,"left_children":[1,3,5,7,9,11,13,-1,-1,-1,-1,-1,-1,-1,-1],"loss_changes":[5.332384E0,3.6002154E0,3.3607225E0,5.062123E0,5.9184847E0,3.2636282E0,2.5090227E0,0E0,0E0,0E0,0E0,0E0,0E0,0E0,0E0],"parents":[2147483647,0,0,1,1,2,2,3,3,4,4,5,5,6,6],"right_children":[2,4,6,8,10,12,14,-1,-1,-1,-1,-1,-1,-1,-1],"split_conditions":[6.977705E0,2.5E0,4.5E0,7.388379E3,5.5E0,2.95E1,6.55E1,5.5796523E-2,-1.4402066E-2,-3.711186E-2,1.3683483E-1,-6.047165E-2,3.227305E-2,-8.224733E-2,1.9260706E-2],"split_indices":[3,2,0,8,5,7,6,0,0,0,0,0,0,0,0],"split_type":[0,0,0,0,0,0,0,0,0,0,0,0,0,0,0],"sum_hessian":[1.328126E2,9.145874E1,4.135386E1,4.45149E1,4.694384E1,1.3304014E1,2.8049845E1,1.4361816E1,3.0153086E1,4.587009E1,1.0737516E0,6.147778E0,7.156236E0,2.5743898E1,2.3059475E0],"tree_param":{"num_deleted":"0","num_feature":"9","num_nodes":"15","size_leaf_vector":"0"}},{"base_weights":[-2.3172525E-1,-1.4996901E-1,-7.347176E-1,-7.74046E-2,-7.19242E-1,5.2539147E-2,-8.244523E-1,-1.474686E-1,4.6903434E-1,2.1931823E-1,-8.491569E-1,-8.779185E-1,-9.595013E-3],"categories":[],"categories_nodes":[],"categories_segments":[],"categories_sizes":[],"default_left":[1,1,1,1,1,0,1,0,0,0,0,0,0],"id":47,"left_children":[1,3,5,7,9,-1,11,-1,-1,-1,-1,-1,-1],"loss_changes":[5.2624846E0,4.638649E0,1.3156328E0,3.9709463E0,1.7380967E0,0E0,6.9855595E-1,0E0,0E0,0E0,0E0,0E0,0E0],"parents":[2147483647,0,0,1,1,2,2,3,3,4,4,6,6],"right_children":[2,4,6,8,10,-1,12,-1,-1,-1,-1,-1,-1],"split_conditions":[1.75E1,4.5E0,2.4507007E3,1.5E0,3.242763E0,5.2539147E-3,9.984274E0,-1.474686E-2,4.6903435E-2,2.1931823E-2,-8.491569E-2,-8.779185E-2,-9.595013E-4],"split_indices":[0,2,1,4,3,0,3,0,0,0,0,0,0],"split_type":[0,0,0,0,0,0,0,0,0,0,0,0,0],"sum_hessian":[1.2964954E2,1.1263933E2,1.701021E1,1.0091217E2,1.1727159E1,1.7829151E0,1.5227294E1,9.009091E1,1.082126E1,1.3422207E0,1.0384937E1,1.4217065E1,1.0102298E0],"tree_param":{"num_deleted":"0","num_feature":"9","num_nodes":"13","size_leaf_vector":"0"}},{"base_weights":[-2.1467452E-1,-1.3757145E-1,-7.150568E-1,2.1131234E-3,-4.220742E-1,4.9011912E-2,-8.092513E-1,1.1750173E-1,-4.1332504E-1,-5.193393E-1,5.8374774E-1,-8.661048E-1,-9.117453E-3],"categories":[],"categories_nodes":[],"categories_segments":[],"categories_sizes":[],"default_left":[1,1,1,1,1,0,1,0,0,0,0,0,0],"id":48,"left_children":[1,3,5,7,9,-1,11,-1,-1,-1,-1,-1,-1],"loss_changes":[4.8379707E0,4.455929E0,1.251996E0,3.7005107E0,3.9151306E0,0E0,6.7687416E-1,0E0,0E0,0E0,0E0,0E0,0E0],"parents":[2147483647,0,0,1,1,2,2,3,3,4,4,6,6],"right_children":[2,4,6,8,10,-1,12,-1,-1,-1,-1,-1,-1],"split_conditions":[1.75E1,6.688588E0,2.4507007E3,5.15E1,6.55E1,4.901191E-3,9.984274E0,1.1750173E-2,-4.1332506E-2,-5.1933933E-2,5.8374774E-2,-8.661048E-2,-9.1174536E-4],"split_indices":[0,3,1,6,6,0,3,0,0,0,0,0,0],"split_type":[0,0,0,0,0,0,0,0,0,0,0,0,0],"sum_hessian":[1.2694749E2,1.11102776E2,1.5844707E1,7.5182434E1,3.5920345E1,1.7916039E0,1.4053103E1,5.94009E1,1.5781531E1,3.3194077E1,2.7262702E0,1.3043825E1,1.0092783E0],"tree_param":{"num_deleted":"0","num_feature":"9","num_nodes":"13","size_leaf_vector":"0"}},{"base_weights":[-1.9878033E-1,-2.470361E-2,-4.1047695E-1,5.86093E-2,-6.6880167E-1,-1.9944066E-1,-6.577316E-1,3.0232996E-1,-1.7583212E-1,4.023748E-1,-8.852082E-1,-8.362728E-2,-8.2246834E-1,-7.527256E-1,2.7026692E-1],"categories":[],"categories_nodes":[],"categories_segments":[],"categories_sizes":[],"default_left":[1,1,1,1,1,1,1,0,0,0,0,0,0,0,0],"id":49,"left_children":[1,3,5,7,9,11,13,-1,-1,-1,-1,-1,-1,-1,-1],"loss_changes":[4.6124945E0,3.7901607E0,2.8190346E0,3.6422234E0,2.2307105E0,2.2357805E0,2.4602242E0,0E0,0E0,0E0,0E0,0E0,0E0,0E0,0E0],"parents":[2147483647,0,0,1,1,2,2,3,3,4,4,5,5,6,6],"right_children":[2,4,6,8,10,12,14,-1,-1,-1,-1,-1,-1,-1,-1],"split_conditions":[8.5E0,4.5E0,6.208338E0,4.4844273E4,3.242763E0,1.5216672E4,6.55E1,3.0232996E-2,-1.7583212E-2,4.0237483E-2,-8.852082E-2,-8.362728E-3,-8.224683E-2,-7.527256E-2,2.7026692E-2],"split_indices":[0,2,3,1,3,8,6,0,0,0,0,0,0,0,0],"split_type":[0,0,0,0,0,0,0,0,0,0,0,0,0,0,0],"sum_hessian":[1.2443969E2,6.89002E1,5.5539486E1,6.1813717E1,7.086486E0,3.0939062E1,2.4600424E1,3.01651E1,3.1648615E1,1.0466073E0,6.039879E0,2.70458E1,3.8932629E0,2.2487389E1,2.113035E0],"tree_param":{"num_deleted":"0","num_feature":"9","num_nodes":"15","size_leaf_vector":"0"}},{"base_weights":[-1.8449539E-1,-1.13917604E-1,-6.8090326E-1,-4.964525E-2,-6.7358017E-1,6.8014555E-2,-7.83519E-1,-8.536289E-2,9.7276735E-1,1.919337E-1,-8.160547E-1,-8.46071E-1,-4.8536616E-3],"categories":[],"categories_nodes":[],"categories_segments":[],"categories_sizes":[],"default_left":[1,1,1,1,1,0,1,0,0,0,0,0,0],"id":50,"left_children":[1,3,5,7,9,-1,11,-1,-1,-1,-1,-1,-1],"loss_changes":[4.238527E0,3.8894868E0,1.2163477E0,3.6948256E0,1.532155E0,0E0,6.4808464E-1,0E0,0E0,0E0,0E0,0E0,0E0],"parents":[2147483647,0,0,1,1,2,2,3,3,4,4,6,6],"right_children":[2,4,6,8,10,-1,12,-1,-1,-1,-1,-1,-1],"split_conditions":[1.75E1,4.5E0,2.4507007E3,5.5E0,3.242763E0,6.8014557E-3,9.885442E0,-8.536289E-3,9.727674E-2,1.9193372E-2,-8.160547E-2,-8.46071E-2,-4.8536618E-4],"split_indices":[0,2,1,5,3,0,3,0,0,0,0,0,0],"split_type":[0,0,0,0,0,0,0,0,0,0,0,0,0],"sum_hessian":[1.22192505E2,1.0805855E2,1.4133958E1,9.7903854E1,1.0154696E1,1.7438751E0,1.2390082E1,9.5484634E1,2.4192154E0,1.3862528E0,8.768444E0,1.138864E1,1.0014415E0],"tree_param":{"num_deleted":"0","num_feature":"9","num_nodes":"13","size_leaf_vector":"0"}},{"base_weights":[-1.6993588E-1,-5.116093E-2,-4.539396E-1,1.20814025E-1,-2.2487406E-1,9.2769876E-2,-6.148602E-1,4.951488E-1,-1.24711305E-1,-2.9442975E-1,1.2070605E0,-4.643282E-1,1.4780902E0,-1.9442084E-1,-7.6112026E-1],"categories":[],"categories_nodes":[],"categories_segments":[],"categories_sizes":[],"default_left":[1,1,1,1,1,1,1,0,0,0,0,0,0,0,0],"id":51,"left_children":[1,3,5,7,9,11,13,-1,-1,-1,-1,-1,-1,-1,-1],"loss_changes":[4.0632625E0,2.6126955E0,3.188746E0,4.11874E0,4.6785307E0,7.604309E0,1.5512714E0,0E0,0E0,0E0,0E0,0E0,0E0,0E0,0E0],"parents":[2147483647,0,0,1,1,2,2,3,3,4,4,5,5,6,6],"right_children":[2,4,6,8,10,12,14,-1,-1,-1,-1,-1,-1,-1,-1],"split_conditions":[6.977705E0,2.5E0,2.3438863E4,7.8848296E3,5.5E0,1.331468E4,3.5E0,4.9514882E-2,-1.2471131E-2,-2.9442975E-2,1.20706044E-1,-4.643282E-2,1.4780901E-1,-1.9442085E-2,-7.6112024E-2],"split_indices":[3,2,1,8,5,8,0,0,0,0,0,0,0,0,0],"split_type":[0,0,0,0,0,0,0,0,0,0,0,0,0,0,0],"sum_hessian":[1.2014381E2,8.554687E1,3.4596943E1,4.314153E1,4.240534E1,7.963922E0,2.6633018E1,1.6685562E1,2.6455967E1,4.1198517E1,1.2068193E0,6.153965E0,1.809957E0,7.474912E0,1.9158108E1],"tree_param":{"num_deleted":"0","num_feature":"9","num_nodes":"15","size_leaf_vector":"0"}},{"base_weights":[-1.5551302E-1,-8.971097E-2,-6.4955324E-1,-1.2457428E-1,8.341467E-1,6.8121E-2,-7.586622E-1,1.3762417E-1,-2.628784E-1,1.4765068E0,-2.3201194E-1,-8.2632464E-1,-5.710912E-3],"categories":[],"categories_nodes":[],"categories_segments":[],"categories_sizes":[],"default_left":[1,1,1,1,1,0,1,0,0,0,0,0,0],"id":52,"left_children":[1,3,5,7,9,-1,11,-1,-1,-1,-1,-1,-1],"loss_changes":[3.812311E0,3.5253963E0,1.1349459E0,3.7798228E0,3.077116E0,0E0,6.1125994E-1,0E0,0E0,0E0,0E0,0E0,0E0],"parents":[2147483647,0,0,1,1,2,2,3,3,4,4,6,6],"right_children":[2,4,6,8,10,-1,12,-1,-1,-1,-1,-1,-1],"split_conditions":[1.75E1,2.5E0,2.4507007E3,4.4766755E0,3.65E1,6.8121003E-3,9.7744465E0,1.3762417E-2,-2.6287839E-2,1.4765069E-1,-2.3201196E-2,-8.263247E-2,-5.710912E-4],"split_indices":[0,4,1,3,6,0,3,0,0,0,0,0,0],"split_type":[0,0,0,0,0,0,0,0,0,0,0,0,0],"sum_hessian":[1.1806241E2,1.0522845E2,1.2833966E1,1.0223557E2,2.992871E0,1.7432489E0,1.1090717E1,3.530634E1,6.692923E1,1.6274489E0,1.365422E0,1.0086838E1,1.0038804E0],"tree_param":{"num_deleted":"0","num_feature":"9","num_nodes":"13","size_leaf_vector":"0"}},{"base_weights":[-1.4253588E-1,-8.120423E-2,-6.873699E-1,1.4813833E-1,-2.4469207E-1,1.5789159E-1,-8.225396E-1,3.0951452E-1,-5.964206E-1,3.8290006E-1,-3.3677268E-1,-2.5084916E-1,-9.000034E-1],"categories":[],"categories_nodes":[],"categories_segments":[],"categories_sizes":[],"default_left":[1,1,1,1,1,0,1,0,0,0,0,0,0],"id":53,"left_children":[1,3,5,7,9,-1,11,-1,-1,-1,-1,-1,-1],"loss_changes":[3.8590078E0,4.027032E0,1.4689045E0,5.581838E0,3.7417262E0,0E0,2.28827E-1,0E0,0E0,0E0,0E0,0E0,0E0],"parents":[2147483647,0,0,1,1,2,2,3,3,4,4,6,6],"right_children":[2,4,6,8,10,-1,12,-1,-1,-1,-1,-1,-1],"split_conditions":[4.5E0,5.5E0,3.242763E0,5.35E1,3.189824E0,1.5789159E-2,2.45E1,3.0951453E-2,-5.9642058E-2,3.8290005E-2,-3.367727E-2,-2.5084917E-2,-9.000034E-2],"split_indices":[2,0,3,6,3,0,7,0,0,0,0,0,0],"split_type":[0,0,0,0,0,0,0,0,0,0,0,0,0],"sum_hessian":[1.1615571E2,1.054359E2,1.0719814E1,4.39193E1,6.1516594E1,1.4547399E0,9.265075E0,3.6576073E1,7.343225E0,7.46682E0,5.4049774E1,1.6113591E0,7.653715E0],"tree_param":{"num_deleted":"0","num_feature":"9","num_nodes":"13","size_leaf_vector":"0"}},{"base_weights":[-1.3186355E-1,-7.450208E-2,-6.670641E-1,1.17401645E-1,-2.5769055E-1,1.4735264E-1,-8.0757374E-1,2.0620303E-2,6.987132E-1,-3.0685845E-1,7.941567E-1,-2.3903045E-1,-8.893522E-1],"categories":[],"categories_nodes":[],"categories_segments":[],"categories_sizes":[],"default_left":[1,1,1,1,1,0,1,0,0,0,0,0,0],"id":54,"left_children":[1,3,5,7,9,-1,11,-1,-1,-1,-1,-1,-1],"loss_changes":[3.4984882E0,3.7395566E0,1.384902E0,2.9233985E0,3.0517206E0,0E0,2.3325157E-1,0E0,0E0,0E0,0E0,0E0,0E0],"parents":[2147483647,0,0,1,1,2,2,3,3,4,4,6,6],"right_children":[2,4,6,8,10,-1,12,-1,-1,-1,-1,-1,-1],"split_conditions":[4.5E0,4.5398582E4,3.242763E0,4.0764125E4,2.5E0,1.4735264E-2,2.45E1,2.0620304E-3,6.987132E-2,-3.0685846E-2,7.941567E-2,-2.3903046E-2,-8.893522E-2],"split_indices":[2,1,3,1,4,0,7,0,0,0,0,0,0],"split_type":[0,0,0,0,0,0,0,0,0,0,0,0,0],"sum_hessian":[1.1457652E2,1.0451416E2,1.0062364E1,5.1218277E1,5.329588E1,1.4734288E0,8.588934E0,4.479579E1,6.422485E0,5.159249E1,1.7033901E0,1.5733733E0,7.015561E0],"tree_param":{"num_deleted":"0","num_feature":"9","num_nodes":"13","size_leaf_vector":"0"}},{"base_weights":[-1.2054353E-1,2.131196E-1,-2.073385E-1,4.5211846E-1,-6.9028133E-1,-2.5199395E-1,1.0494769E0,2.0136519E-1,1.1927247E0,-2.3407699E-1,-7.8505903E-1,2.3392157E-1,-3.417506E-1,2.3535874E-1,1.4569612E0],"categories":[],"categories_nodes":[],"categories_segments":[],"categories_sizes":[],"default_left":[1,1,1,1,1,1,1,0,0,0,0,0,0,0,0],"id":55,"left_children":[1,3,5,7,9,11,13,-1,-1,-1,-1,-1,-1,-1,-1],"loss_changes":[3.3503256E0,5.506786E0,5.377428E0,3.4053383E0,5.0982E-2,3.9521065E0,7.5829124E-1,0E0,0E0,0E0,0E0,0E0,0E0,0E0,0E0],"parents":[2147483647,0,0,1,1,2,2,3,3,4,4,5,5,6,6],"right_children":[2,4,6,8,10,12,14,-1,-1,-1,-1,-1,-1,-1,-1],"split_conditions":[1.5E0,6.840916E4,5.5E0,1.3358748E4,2.5E0,3.331396E0,3.65E1,2.0136518E-2,1.1927247E-1,-2.34077E-2,-7.85059E-2,2.3392158E-2,-3.417506E-2,2.3535876E-2,1.4569612E-1],"split_indices":[2,1,5,8,0,3,6,0,0,0,0,0,0,0,0],"split_type":[0,0,0,0,0,0,0,0,0,0,0,0,0,0,0],"sum_hessian":[1.1316112E2,2.3059351E1,9.010176E1,1.8630186E1,4.429164E0,8.77823E1,2.3194644E0,1.4868072E1,3.762115E0,1.3587384E0,3.0704255E0,1.34362545E1,7.434605E1,1.2999223E0,1.0195422E0],"tree_param":{"num_deleted":"0","num_feature":"9","num_nodes":"15","size_leaf_vector":"0"}},{"base_weights":[-1.090503E-1,-4.8443247E-2,-6.0202384E-1,4.2864393E-2,-3.5592863E-1,9.6612595E-2,-7.219221E-1,-4.3450478E-3,1.048615E0,-5.0148225E-1,1.4427663E0,-7.9662997E-1,-4.8950403E-3],"categories":[],"categories_nodes":[],"categories_segments":[],"categories_sizes":[],"default_left":[1,1,1,1,1,0,1,0,0,0,0,0,0],"id":56,"left_children":[1,3,5,7,9,-1,11,-1,-1,-1,-1,-1,-1],"loss_changes":[3.3343973E0,2.8604555E0,1.0948434E0,3.7569606E0,6.8263097E0,0E0,5.619445E-1,0E0,0E0,0E0,0E0,0E0,0E0],"parents":[2147483647,0,0,1,1,2,2,3,3,4,4,6,6],"right_children":[2,4,6,8,10,-1,12,-1,-1,-1,-1,-1,-1],"split_conditions":[1.75E1,3.5E0,2.4507007E3,2.5E0,5.5E0,9.66126E-3,9.674089E0,-4.345048E-4,1.048615E-1,-5.0148226E-2,1.4427663E-1,-7.9663E-2,-4.89504E-4],"split_indices":[0,2,1,4,5,0,3,0,0,0,0,0,0],"split_type":[0,0,0,0,0,0,0,0,0,0,0,0,0],"sum_hessian":[1.1157774E2,1.0034003E2,1.1237718E1,7.802973E1,2.2310295E1,1.6745396E0,9.563178E0,7.548231E1,2.547423E0,2.130727E1,1.0030258E0,8.560257E0,1.0029209E0],"tree_param":{"num_deleted":"0","num_feature":"9","num_nodes":"13","size_leaf_vector":"0"}},{"base_weights":[-9.877791E-2,5.603527E-3,-3.69613E-1,4.3248016E-2,-7.754613E-1,-4.4368163E-1,8.110846E-1,-1.8752404E-3,1.5032294E0,-3.0752761E-2,-6.8641526E-1],"categories":[],"categories_nodes":[],"categories_segments":[],"categories_sizes":[],"default_left":[1,1,1,1,0,1,0,0,0,0,0],"id":57,"left_children":[1,3,5,7,-1,9,-1,-1,-1,-1,-1],"loss_changes":[3.147506E0,2.4238703E0,3.0680356E0,5.174678E0,0E0,2.9643636E0,0E0,0E0,0E0,0E0,0E0],"parents":[2147483647,0,0,1,1,2,2,3,3,5,5],"right_children":[2,4,6,8,-1,10,-1,-1,-1,-1,-1],"split_conditions":[6.977705E0,1.0238947E5,7.35E1,9.7951375E4,-7.7546135E-2,4.5E0,8.1108466E-2,-1.8752404E-4,1.5032294E-1,-3.0752763E-3,-6.864153E-2],"split_indices":[3,1,6,1,0,0,0,0,0,0,0],"split_type":[0,0,0,0,0,0,0,0,0,0,0],"sum_hessian":[1.1026344E2,8.029615E1,2.9967299E1,7.75053E1,2.7908444E0,2.8785707E1,1.181591E0,7.615046E1,1.3548464E0,1.1073908E1,1.77118E1],"tree_param":{"num_deleted":"0","num_feature":"9","num_nodes":"11","size_leaf_vector":"0"}},{"base_weights":[-8.964642E-2,-3.7769403E-2,-6.189742E-1,1.577636E-1,-1.9776161E-1,-8.7363E-1,-4.0197268E-2,4.1976955E-2,2.191351E0,-6.20519E-2,-5.555966E-1,-6.8440586E-1,8.904449E-1],"categories":[],"categories_nodes":[],"categories_segments":[],"categories_sizes":[],"default_left":[1,1,1,1,1,0,1,0,0,0,0,0,0],"id":58,"left_children":[1,3,5,7,9,-1,11,-1,-1,-1,-1,-1,-1],"loss_changes":[3.0012903E0,3.2028022E0,1.404372E0,1.0781594E1,2.69479E0,0E0,3.026975E0,0E0,0E0,0E0,0E0,0E0,0E0],"parents":[2147483647,0,0,1,1,2,2,3,3,4,4,6,6],"right_children":[2,4,6,8,10,-1,12,-1,-1,-1,-1,-1,-1],"split_conditions":[4.5E0,4.172313E4,4.65E1,4.0764125E4,6.977705E0,-8.7363E-2,1.2021737E4,4.1976958E-3,2.1913509E-1,-6.20519E-3,-5.555966E-2,-6.844059E-2,8.904449E-2],"split_indices":[2,1,6,1,3,0,8,0,0,0,0,0,0],"split_type":[0,0,0,0,0,0,0,0,0,0,0,0,0],"sum_hessian":[1.0914838E2,1.0038177E2,8.766608E0,4.5179718E1,5.5202045E1,5.734185E0,3.032423E0,4.371155E1,1.4681689E0,4.0873928E1,1.4328119E1,1.9483349E0,1.084088E0],"tree_param":{"num_deleted":"0","num_feature":"9","num_nodes":"13","size_leaf_vector":"0"}},{"base_weights":[-8.132019E-2,-2.61397E-2,-5.629737E-1,7.858881E-3,-7.945225E-1,1.2148582E-1,-6.939264E-1,-2.5523677E-2,1.1637911E0,-1.5964115E-1,-8.623696E-1],"categories":[],"categories_nodes":[],"categories_segments":[],"categories_sizes":[],"default_left":[1,1,1,1,0,0,1,0,0,0,0],"id":59,"left_children":[1,3,5,7,-1,-1,9,-1,-1,-1,-1],"loss_changes":[2.8858216E0,2.591586E0,1.0854003E0,3.7249424E0,0E0,0E0,7.194848E-1,0E0,0E0,0E0,0E0],"parents":[2147483647,0,0,1,1,2,2,3,3,6,6],"right_children":[2,4,6,8,-1,-1,10,-1,-1,-1,-1],"split_conditions":[1.75E1,1.0233619E5,1.5E0,9.7951375E4,-7.9452254E-2,1.2148582E-2,2.8252291E4,-2.5523677E-3,1.16379105E-1,-1.5964115E-2,-8.623696E-2],"split_indices":[0,1,2,1,0,0,1,0,0,0,0],"split_type":[0,0,0,0,0,0,0,0,0,0,0],"sum_hessian":[1.0813354E2,9.796453E1,1.0169006E1,9.47614E1,3.2031288E0,1.644721E0,8.524285E0,9.305204E1,1.7093618E0,2.5101337E0,6.014151E0],"tree_param":{"num_deleted":"0","num_feature":"9","num_nodes":"11","size_leaf_vector":"0"}},{"base_weights":[-7.460135E-2,-2.6412217E-2,-5.922252E-1,2.9623672E-1,-1.15572944E-1,-8.59157E-1,-2.5468716E-2,5.6327367E-1,-4.350125E-1,4.395856E-2,-3.3019525E-1,-6.6539043E-1,8.1663084E-1],"categories":[],"categories_nodes":[],"categories_segments":[],"categories_sizes":[],"default_left":[1,1,1,1,1,0,1,0,0,0,0,0,0],"id":60,"left_children":[1,3,5,7,9,-1,11,-1,-1,-1,-1,-1,-1],"loss_changes":[2.6875088E0,2.9163644E0,1.3673613E0,4.535513E0,2.726743E0,0E0,2.6831305E0,0E0,0E0,0E0,0E0,0E0,0E0],"parents":[2147483647,0,0,1,1,2,2,3,3,4,4,6,6],"right_children":[2,4,6,8,10,-1,12,-1,-1,-1,-1,-1,-1],"split_conditions":[4.5E0,2.5E0,4.65E1,1.1604355E4,5.1937984E4,-8.591571E-2,1.2021737E4,5.632737E-2,-4.350125E-2,4.395856E-3,-3.3019524E-2,-6.653904E-2,8.166309E-2],"split_indices":[2,0,6,8,1,0,8,0,0,0,0,0,0],"split_type":[0,0,0,0,0,0,0,0,0,0,0,0,0],"sum_hessian":[1.0736946E2,9.918653E1,8.182926E0,2.0971989E1,7.821455E1,5.21217E0,2.9707556E0,1.5530341E1,5.4416466E0,4.53216E1,3.2892944E1,1.8072487E0,1.1635067E0],"tree_param":{"num_deleted":"0","num_feature":"9","num_nodes":"13","size_leaf_vector":"0"}},{"base_weights":[-6.904891E-2,-1.8446196E-2,-5.347447E-1,-2.1720658E-1,1.10698745E-1,1.1877591E-1,-6.699367E-1,4.5481828E-1,-4.1981533E-1,1.7021453E-1,-6.0573626E-1,-1.481317E-1,-8.4792876E-1],"categories":[],"categories_nodes":[],"categories_segments":[],"categories_sizes":[],"default_left":[1,1,1,1,1,0,1,0,0,0,0,0,0],"id":61,"left_children":[1,3,5,7,9,-1,11,-1,-1,-1,-1,-1,-1],"loss_changes":[2.5250466E0,2.5411804E0,1.0078881E0,5.4955277E0,2.6658351E0,0E0,6.969838E-1,0E0,0E0,0E0,0E0,0E0,0E0],"parents":[2147483647,0,0,1,1,2,2,3,3,4,4,6,6],"right_children":[2,4,6,8,10,-1,12,-1,-1,-1,-1,-1,-1],"split_conditions":[1.75E1,1.5E0,1.5E0,3.524467E0,4.5E0,1.1877592E-2,2.8252291E4,4.5481827E-2,-4.1981533E-2,1.7021453E-2,-6.0573626E-2,-1.481317E-2,-8.4792875E-2],"split_indices":[0,5,2,3,2,0,1,0,0,0,0,0,0],"split_type":[0,0,0,0,0,0,0,0,0,0,0,0,0],"sum_hessian":[1.0656886E2,9.70617E1,9.507159E0,3.7959023E1,5.910268E1,1.6504217E0,7.856737E0,8.504842E0,2.945418E1,5.527341E1,3.8292663E0,2.464372E0,5.392365E0],"tree_param":{"num_deleted":"0","num_feature":"9","num_nodes":"13","size_leaf_vector":"0"}},{"base_weights":[-6.433626E-2,-1.1963312E-1,3.2933366E-1,-3.2594022E-1,1.0094739E-2,8.044452E-1,-1.6372487E-1,5.3335476E-1,-4.6746036E-1,1.2377131E-1,-5.9320575E-1,1.4304591E0,-1.8958306E-1,6.1552805E-1,-6.3517827E-1],"categories":[],"categories_nodes":[],"categories_segments":[],"categories_sizes":[],"default_left":[1,1,1,1,1,1,1,0,0,0,0,0,0,0,0],"id":62,"left_children":[1,3,5,7,9,11,13,-1,-1,-1,-1,-1,-1,-1,-1],"loss_changes":[2.365425E0,2.530459E0,3.2770476E0,4.6859593E0,4.115712E0,4.6314573E0,3.116889E0,0E0,0E0,0E0,0E0,0E0,0E0,0E0,0E0],"parents":[2147483647,0,0,1,1,2,2,3,3,4,4,5,5,6,6],"right_children":[2,4,6,8,10,12,14,-1,-1,-1,-1,-1,-1,-1,-1],"split_conditions":[1.5E0,1.5E0,3.65E1,4.4150947E3,1.55E1,5.5E0,4.557442E0,5.3335477E-2,-4.6746038E-2,1.2377131E-2,-5.9320576E-2,1.4304592E-1,-1.8958306E-2,6.1552804E-2,-6.351783E-2],"split_indices":[4,5,6,8,0,0,3,0,0,0,0,0,0,0,0],"split_type":[0,0,0,0,0,0,0,0,0,0,0,0,0,0,0],"sum_hessian":[1.0585179E2,9.342496E1,1.2426833E1,3.548324E1,5.7941723E1,6.006971E0,6.419862E0,4.625988E0,3.0857248E1,4.9423893E1,8.517828E0,3.4163728E0,2.590598E0,2.3047705E0,4.1150913E0],"tree_param":{"num_deleted":"0","num_feature":"9","num_nodes":"15","size_leaf_vector":"0"}},{"base_weights":[-5.8417875E-2,-2.8109076E-2,-7.8927433E-1,-5.681668E-2,9.51386E-1,2.378503E-1,-1.4307249E-1],"categories":[],"categories_nodes":[],"categories_segments":[],"categories_sizes":[],"default_left":[1,1,0,1,0,0,0],"id":63,"left_children":[1,3,-1,5,-1,-1,-1],"loss_changes":[2.3253593E0,2.944525E0,0E0,2.5963182E0,0E0,0E0,0E0],"parents":[2147483647,0,0,1,1,3,3],"right_children":[2,4,-1,6,-1,-1,-1],"split_conditions":[1.0233619E5,9.7951375E4,-7.8927435E-2,1.5E0,9.51386E-2,2.378503E-2,-1.4307248E-2],"split_indices":[1,1,0,2,0,0,0],"split_type":[0,0,0,0,0,0,0],"sum_hessian":[1.0497736E2,1.0179439E2,3.1829782E0,9.981106E1,1.9833258E0,2.2203157E1,7.76079E1],"tree_param":{"num_deleted":"0","num_feature":"9","num_nodes":"7","size_leaf_vector":"0"}},{"base_weights":[-5.292845E-2,-2.4573198E-2,-7.7315015E-1,-5.14592E-2,8.389607E-1,-1.101719E-1,3.4935266E-1,1.3930961E0,-8.7601684E-2],"categories":[],"categories_nodes":[],"categories_segments":[],"categories_sizes":[],"default_left":[1,1,0,1,1,0,0,0,0],"id":64,"left_children":[1,3,-1,5,7,-1,-1,-1,-1],"loss_changes":[2.1320536E0,2.4199607E0,0E0,2.3970335E0,1.7388196E0,0E0,0E0,0E0,0E0],"parents":[2147483647,0,0,1,1,3,3,4,4],"right_children":[2,4,-1,6,8,-1,-1,-1,-1],"split_conditions":[1.0233619E5,9.7951375E4,-7.731502E-2,1.5E0,8.867033E3,-1.101719E-2,3.4935266E-2,1.3930961E-1,-8.760168E-3],"split_indices":[1,1,0,4,8,0,0,0,0],"split_type":[0,0,0,0,0,0,0,0,0],"sum_hessian":[1.0432981E2,1.0137286E2,2.9569483E0,9.9223946E1,2.1489148E0,8.717875E1,1.2045201E1,1.0296293E0,1.1192855E0],"tree_param":{"num_deleted":"0","num_feature":"9","num_nodes":"9","size_leaf_vector":"0"}},{"base_weights":[-4.7431342E-2,-6.0134465E-3,-5.368159E-1,1.5661874E-1,-1.4717251E-1,-8.331915E-1,3.7787408E-2,4.8236035E-2,1.830701E0,-2.498514E-2,-4.9695358E-1,-6.315672E-1,8.1933856E-1],"categories":[],"categories_nodes":[],"categories_segments":[],"categories_sizes":[],"default_left":[1,1,1,1,1,0,1,0,0,0,0,0,0],"id":65,"left_children":[1,3,5,7,9,-1,11,-1,-1,-1,-1,-1,-1],"loss_changes":[2.1192508E0,2.2626143E0,1.421015E0,8.224264E0,2.2416577E0,0E0,2.470373E0,0E0,0E0,0E0,0E0,0E0,0E0],"parents":[2147483647,0,0,1,1,2,2,3,3,4,4,6,6],"right_children":[2,4,6,8,10,-1,12,-1,-1,-1,-1,-1,-1],"split_conditions":[4.5E0,4.172313E4,4.65E1,4.0764125E4,6.977705E0,-8.331915E-2,1.2021737E4,4.8236037E-3,1.8307011E-1,-2.498514E-3,-4.9695358E-2,-6.315672E-2,8.1933856E-2],"split_indices":[2,1,6,1,3,0,8,0,0,0,0,0,0],"split_type":[0,0,0,0,0,0,0,0,0,0,0,0,0],"sum_hessian":[1.0371409E2,9.6554695E1,7.15939E0,4.4814034E1,5.1740665E1,4.4263077E0,2.7330825E0,4.3055374E1,1.758659E0,3.9139633E1,1.2601033E1,1.5755867E0,1.1574959E0],"tree_param":{"num_deleted":"0","num_feature":"9","num_nodes":"13","size_leaf_vector":"0"}},{"base_weights":[-4.283122E-2,8.7190274E-4,-4.8108357E-1,2.8135309E-2,-7.3538977E-1,4.0806686E-3,-6.979919E-1,-4.2271198E-4,8.597681E-1,-6.114601E-1,6.278857E-1,-8.2337636E-1,-2.5490217E-3],"categories":[],"categories_nodes":[],"categories_segments":[],"categories_sizes":[],"default_left":[1,1,1,1,0,1,1,0,0,0,0,0,0],"id":66,"left_children":[1,3,5,7,-1,9,11,-1,-1,-1,-1,-1,-1],"loss_changes":[1.9950576E0,1.9416174E0,9.968362E-1,2.2148674E0,0E0,1.8861836E0,5.6755996E-1,0E0,0E0,0E0,0E0,0E0,0E0],"parents":[2147483647,0,0,1,1,2,2,3,3,5,5,6,6],"right_children":[2,4,6,8,-1,10,12,-1,-1,-1,-1,-1,-1],"split_conditions":[1.75E1,1.0233619E5,2.8252291E4,9.7951375E4,-7.353898E-2,4.05E1,8.741446E0,-4.22712E-5,8.597681E-2,-6.114601E-2,6.278857E-2,-8.233764E-2,-2.5490217E-4],"split_indices":[0,1,1,1,0,6,3,0,0,0,0,0,0],"split_type":[0,0,0,0,0,0,0,0,0,0,0,0,0],"sum_hessian":[1.0314236E2,9.469705E1,8.44531E0,9.224312E1,2.4539309E0,2.9123566E0,5.532953E0,9.014699E1,2.096129E0,1.4758494E0,1.4365072E0,4.531914E0,1.0010384E0],"tree_param":{"num_deleted":"0","num_feature":"9","num_nodes":"13","size_leaf_vector":"0"}},{"base_weights":[-3.9658975E-2,-1.2609115E-3,-5.132013E-1,5.75861E-2,-3.8193965E-1,2.8833202E-1,-7.0647454E-1,2.3473054E-2,1.4297913E0,6.205464E-1,-5.3304106E-1,-4.0399577E-2,-8.2775784E-1],"categories":[],"categories_nodes":[],"categories_segments":[],"categories_sizes":[],"default_left":[1,1,1,1,1,0,1,0,0,0,0,0,0],"id":67,"left_children":[1,3,5,7,9,-1,11,-1,-1,-1,-1,-1,-1],"loss_changes":[1.8863297E0,2.1948593E0,1.4091351E0,3.9395688E0,2.3177698E0,0E0,4.9644852E-1,0E0,0E0,0E0,0E0,0E0,0E0],"parents":[2147483647,0,0,1,1,2,2,3,3,4,4,6,6],"right_children":[2,4,6,8,10,-1,12,-1,-1,-1,-1,-1,-1],"split_conditions":[4.5E0,1.5384186E4,3.242763E0,1.5079615E4,2.3645868E0,2.8833201E-2,2.45E1,2.3473054E-3,1.4297913E-1,6.205464E-2,-5.3304106E-2,-4.0399577E-3,-8.277579E-2],"split_indices":[2,8,3,8,3,0,7,0,0,0,0,0,0],"split_type":[0,0,0,0,0,0,0,0,0,0,0,0,0],"sum_hessian":[1.0277635E2,9.599507E1,6.781277E0,8.3877625E1,1.2117448E1,1.2219265E0,5.559351E0,8.283544E1,1.0421844E0,1.1802474E0,1.0937201E1,1.0617014E0,4.497649E0],"tree_param":{"num_deleted":"0","num_feature":"9","num_nodes":"13","size_leaf_vector":"0"}},{"base_weights":[-3.5332896E-2,7.32322E-2,-1.9717795E-1,-1.7543371E-1,2.686218E-1,-4.2731467E-1,1.237042E-1,-2.6064152E-1,9.1636556E-1,7.8904116E-1,5.6400396E-2,1.8490154E-1,-6.741741E-1,-3.760359E-1,5.733716E-1],"categories":[],"categories_nodes":[],"categories_segments":[],"categories_sizes":[],"default_left":[1,1,1,1,1,1,1,0,0,0,0,0,0,0,0],"id":68,"left_children":[1,3,5,7,9,11,13,-1,-1,-1,-1,-1,-1,-1,-1],"loss_changes":[1.829096E0,3.085854E0,3.1348476E0,2.8552406E0,3.8672152E0,3.8316846E0,4.3068824E0,0E0,0E0,0E0,0E0,0E0,0E0,0E0,0E0],"parents":[2147483647,0,0,1,1,2,2,3,3,4,4,5,5,6,6],"right_children":[2,4,6,8,10,12,14,-1,-1,-1,-1,-1,-1,-1,-1],"split_conditions":[8.5E0,2.95E1,5E-1,2.5E0,2.3510605E4,4.2253194E0,3.95E1,-2.6064152E-2,9.163656E-2,7.8904115E-2,5.6400397E-3,1.8490154E-2,-6.7417406E-2,-3.760359E-2,5.733716E-2],"split_indices":[0,7,4,4,1,3,6,0,0,0,0,0,0,0,0],"split_type":[0,0,0,0,0,0,0,0,0,0,0,0,0,0,0],"sum_hessian":[1.0227725E2,6.1542362E1,4.0734886E1,2.7124294E1,3.4418068E1,2.3528532E1,1.7206354E1,2.586683E1,1.2574635E0,9.182441E0,2.5235626E1,6.833156E0,1.6695377E1,8.226993E0,8.9793625E0],"tree_param":{"num_deleted":"0","num_feature":"9","num_nodes":"15","size_leaf_vector":"0"}},{"base_weights":[-3.1663287E-2,-6.9108475E-3,-7.343649E-1,7.070438E-2,-2.3584855E-1,1.4794157E-1,-3.374406E-1,-3.1984302E-1,8.2169837E-1],"categories":[],"categories_nodes":[],"categories_segments":[],"categories_sizes":[],"default_left":[1,1,0,1,1,0,0,0,0],"id":69,"left_children":[1,3,-1,5,7,-1,-1,-1,-1],"loss_changes":[1.7814056E0,1.797559E0,0E0,2.4336975E0,2.5373502E0,0E0,0E0,0E0,0E0],"parents":[2147483647,0,0,1,1,3,3,4,4],"right_children":[2,4,-1,6,8,-1,-1,-1,-1],"split_conditions":[1.0233619E5,6.977705E0,-7.343649E-2,5.45E1,7.35E1,1.4794158E-2,-3.3744063E-2,-3.1984303E-2,8.216984E-2],"split_indices":[1,3,0,6,6,0,0,0,0],"split_type":[0,0,0,0,0,0,0,0,0],"sum_hessian":[1.017092E2,9.92239E1,2.4852955E0,7.461787E1,2.4606035E1,6.3280262E1,1.1337605E1,2.3441761E1,1.1642743E0],"tree_param":{"num_deleted":"0","num_feature":"9","num_nodes":"9","size_leaf_vector":"0"}},{"base_weights":[-2.932666E-2,6.1754268E-3,-4.8756498E-1,-1.7756179E-1,1.1870982E-1,-8.124925E-1,8.661704E-2,5.604898E-1,-3.3763522E-1,2.1044365E-1,-4.439664E-1,-5.9140056E-1,7.856945E-1],"categories":[],"categories_nodes":[],"categories_segments":[],"categories_sizes":[],"default_left":[1,1,1,1,1,0,1,0,0,0,0,0,0],"id":70,"left_children":[1,3,5,7,9,-1,11,-1,-1,-1,-1,-1,-1],"loss_changes":[1.6681854E0,2.0057137E0,1.4458205E0,4.543823E0,3.196877E0,0E0,2.1558213E0,0E0,0E0,0E0,0E0,0E0,0E0],"parents":[2147483647,0,0,1,1,2,2,3,3,4,4,6,6],"right_children":[2,4,6,8,10,-1,12,-1,-1,-1,-1,-1,-1],"split_conditions":[4.5E0,1.5E0,1.2027658E4,4.4150947E3,1.55E1,-8.124925E-2,4.65E1,5.6048978E-2,-3.3763524E-2,2.1044364E-2,-4.439664E-2,-5.9140056E-2,7.856945E-2],"split_indices":[2,5,8,8,0,0,6,0,0,0,0,0,0],"split_type":[0,0,0,0,0,0,0,0,0,0,0,0,0],"sum_hessian":[1.0135626E2,9.4983894E1,6.372369E0,3.585874E1,5.9125153E1,3.8044188E0,2.56795E0,5.9452925E0,2.991345E1,5.1375355E1,7.7497964E0,1.3818021E0,1.1861479E0],"tree_param":{"num_deleted":"0","num_feature":"9","num_nodes":"13","size_leaf_vector":"0"}},{"base_weights":[-2.7635684E-2,-4.505126E-3,-7.1706796E-1,-2.851077E-2,6.900734E-1,2.7612694E-2,-3.8245964E-1,1.2080765E0,-1.1946874E-1],"categories":[],"categories_nodes":[],"categories_segments":[],"categories_sizes":[],"default_left":[1,1,0,1,1,0,0,0,0],"id":71,"left_children":[1,3,-1,5,7,-1,-1,-1,-1],"loss_changes":[1.6243069E0,1.6829333E0,0E0,1.9450125E0,1.5584043E0,0E0,0E0,0E0,0E0],"parents":[2147483647,0,0,1,1,3,3,4,4],"right_children":[2,4,-1,6,8,-1,-1,-1,-1],"split_conditions":[1.0233619E5,9.7951375E4,-7.1706794E-2,7.617361E4,4.830509E0,2.7612695E-3,-3.8245965E-2,1.2080765E-1,-1.1946875E-2],"split_indices":[1,1,0,1,3,0,0,0,0],"split_type":[0,0,0,0,0,0,0,0,0],"sum_hessian":[1.0105945E2,9.875281E1,2.3066373E0,9.638071E1,2.3721051E0,8.398562E1,1.2395089E1,1.1463147E0,1.2257905E0],"tree_param":{"num_deleted":"0","num_feature":"9","num_nodes":"9","size_leaf_vector":"0"}},{"base_weights":[-2.5118887E-2,-3.463759E-3,-7.0086753E-1,4.4533208E-2,-3.1838563E-1,-8.909437E-2,3.6949527E-1,6.457486E-1,-5.163182E-1],"categories":[],"categories_nodes":[],"categories_segments":[],"categories_sizes":[],"default_left":[1,1,0,1,1,0,0,0,0],"id":72,"left_children":[1,3,-1,5,7,-1,-1,-1,-1],"loss_changes":[1.4867306E0,1.519802E0,0E0,3.8243887E0,2.8707905E0,0E0,0E0,0E0,0E0],"parents":[2147483647,0,0,1,1,3,3,4,4],"right_children":[2,4,-1,6,8,-1,-1,-1,-1],"split_conditions":[1.0233619E5,1.5384186E4,-7.0086755E-2,1.1266168E4,3.2851458E0,-8.909437E-3,3.6949527E-2,6.457486E-2,-5.163182E-2],"split_indices":[1,8,0,8,3,0,0,0,0],"split_type":[0,0,0,0,0,0,0,0,0],"sum_hessian":[1.00764175E2,9.860926E1,2.1549191E0,8.6312965E1,1.2296293E1,6.1676723E1,2.463624E1,1.7090416E0,1.0587252E1],"tree_param":{"num_deleted":"0","num_feature":"9","num_nodes":"9","size_leaf_vector":"0"}},{"base_weights":[-2.330749E-2,9.62302E-3,-4.6530983E-1,2.5225258E-1,-6.30616E-2,-7.947755E-1,8.7963685E-2,4.0075198E-1,-7.433082E-1,2.3895389E-1,-1.7513931E-1,-5.7555175E-1,7.127039E-1],"categories":[],"categories_nodes":[],"categories_segments":[],"categories_sizes":[],"default_left":[1,1,1,1,1,0,1,0,0,0,0,0,0],"id":73,"left_children":[1,3,5,7,9,-1,11,-1,-1,-1,-1,-1,-1],"loss_changes":[1.4825348E0,1.6998448E0,1.3570716E0,3.581552E0,2.5560021E0,0E0,1.8758891E0,0E0,0E0,0E0,0E0,0E0,0E0],"parents":[2147483647,0,0,1,1,2,2,3,3,4,4,6,6],"right_children":[2,4,6,8,10,-1,12,-1,-1,-1,-1,-1,-1],"split_conditions":[4.5E0,2.5E0,4.65E1,1.5093686E4,2.65E1,-7.947755E-2,1.2021737E4,4.0075198E-2,-7.433082E-2,2.3895388E-2,-1.751393E-2,-5.7555176E-2,7.127039E-2],"split_indices":[2,0,6,8,7,0,8,0,0,0,0,0,0],"split_type":[0,0,0,0,0,0,0,0,0,0,0,0,0],"sum_hessian":[1.0054727E2,9.448601E1,6.0612645E0,2.1210945E1,7.327506E1,3.5254297E0,2.5358346E0,1.8977667E1,2.2332773E0,1.9526098E1,5.3748962E1,1.2679363E0,1.2678982E0],"tree_param":{"num_deleted":"0","num_feature":"9","num_nodes":"13","size_leaf_vector":"0"}},{"base_weights":[-2.2384258E-2,1.2955153E-2,-4.150648E-1,-4.1834183E-2,2.9919484E-1,5.7360314E-2,-6.5130705E-1,5.392972E-1,-1.2791172E-1,-8.4374315E-1,5.9806854E-1,-5.750498E-1,6.248805E-1,-7.897324E-1,-2.4810706E-3],"categories":[],"categories_nodes":[],"categories_segments":[],"categories_sizes":[],"default_left":[1,1,1,1,1,1,1,0,0,0,0,0,0,0,0],"id":74,"left_children":[1,3,5,7,9,11,13,-1,-1,-1,-1,-1,-1,-1,-1],"loss_changes":[1.4112719E0,1.4853816E0,9.742917E-1,4.0559864E0,5.700611E0,1.6936076E0,5.0794506E-1,0E0,0E0,0E0,0E0,0E0,0E0,0E0,0E0],"parents":[2147483647,0,0,1,1,2,2,3,3,4,4,5,5,6,6],"right_children":[2,4,6,8,10,12,14,-1,-1,-1,-1,-1,-1,-1,-1],"split_conditions":[1.75E1,3.5E0,2.8252291E4,2.9603724E0,3.6761627E0,4.05E1,8.488347E0,5.3929724E-2,-1.2791172E-2,-8.4374316E-2,5.9806854E-2,-5.750498E-2,6.248805E-2,-7.897324E-2,-2.4810707E-4],"split_indices":[0,5,1,3,3,6,3,0,0,0,0,0,0,0,0],"split_type":[0,0,0,0,0,0,0,0,0,0,0,0,0,0,0],"sum_hessian":[1.003104E2,9.291546E1,7.394947E0,7.870444E1,1.421102E1,2.7176085E0,4.6773386E0,9.474488E0,6.922995E1,2.5679018E0,1.1643119E1,1.2790476E0,1.4385608E0,3.6759188E0,1.0014195E0],"tree_param":{"num_deleted":"0","num_feature":"9","num_nodes":"15","size_leaf_vector":"0"}},{"base_weights":[-2.1303354E-2,4.5000043E-2,-2.228978E-1,-7.085307E-2,3.033202E-1,2.4360423E-1,-4.112396E-1,7.545318E-2,-7.267456E-1,1.0170575E0,4.5362916E-2,-3.7077287E-1,1.5116762E0,6.373601E-2,-6.211085E-1],"categories":[],"categories_nodes":[],"categories_segments":[],"categories_sizes":[],"default_left":[1,1,1,1,1,1,1,0,0,0,0,0,0,0,0],"id":75,"left_children":[1,3,5,7,9,11,13,-1,-1,-1,-1,-1,-1,-1,-1],"loss_changes":[1.3605992E0,2.3218956E0,2.3121357E0,5.2249875E0,4.370596E0,6.690849E0,1.8644385E0,0E0,0E0,0E0,0E0,0E0,0E0,0E0,0E0],"parents":[2147483647,0,0,1,1,2,2,3,3,4,4,5,5,6,6],"right_children":[2,4,6,8,10,12,14,-1,-1,-1,-1,-1,-1,-1,-1],"split_conditions":[6.977705E0,5.5229855E0,2.3438863E4,4.851809E0,5.8063364E0,1.331468E4,3.35E1,7.545318E-3,-7.2674565E-2,1.0170575E-1,4.5362916E-3,-3.707729E-2,1.5116762E-1,6.3736006E-3,-6.211085E-2],"split_indices":[3,3,1,3,3,8,6,0,0,0,0,0,0,0,0],"split_type":[0,0,0,0,0,0,0,0,0,0,0,0,0,0,0],"sum_hessian":[1.0004209E2,7.58667E1,2.4175394E1,5.287755E1,2.2989151E1,6.8687744E0,1.730662E1,4.395722E1,8.920328E0,5.3217525E0,1.7667398E1,5.10367E0,1.765104E0,5.516952E0,1.1789668E1],"tree_param":{"num_deleted":"0","num_feature":"9","num_nodes":"15","size_leaf_vector":"0"}},{"base_weights":[-1.9175451E-2,1.0792536E-3,-6.821647E-1,-2.135519E-2,6.233272E-1,2.0942138E-1,-9.361339E-2,1.3580861E0,-2.3098266E-1],"categories":[],"categories_nodes":[],"categories_segments":[],"categories_sizes":[],"default_left":[1,1,0,1,1,0,0,0,0],"id":76,"left_children":[1,3,-1,5,7,-1,-1,-1,-1],"loss_changes":[1.3533463E0,1.391674E0,0E0,1.6249378E0,2.4913101E0,0E0,0E0,0E0,0E0],"parents":[2147483647,0,0,1,1,3,3,4,4],"right_children":[2,4,-1,6,8,-1,-1,-1,-1],"split_conditions":[1.0233619E5,9.7951375E4,-6.821647E-2,1.5E0,2.55E1,2.0942139E-2,-9.36134E-3,1.3580862E-1,-2.3098266E-2],"split_indices":[1,1,0,2,6,0,0,0,0],"split_type":[0,0,0,0,0,0,0,0,0],"sum_hessian":[9.972568E1,9.77381E1,1.987583E0,9.526897E1,2.4691336E0,2.2264114E1,7.300485E1,1.0104213E0,1.4587122E0],"tree_param":{"num_deleted":"0","num_feature":"9","num_nodes":"9","size_leaf_vector":"0"}},{"base_weights":[-1.692445E-2,-6.1232366E-2,2.7297118E-1,-2.4874213E-1,4.8539214E-2,4.608187E-1,-7.099185E-1,2.9822797E-1,-4.5010072E-1,2.961766E-1,-1.5113041E-1,-2.4332984E-1,7.4117136E-1],"categories":[],"categories_nodes":[],"categories_segments":[],"categories_sizes":[],"default_left":[1,1,1,1,1,1,0,0,0,0,0,0,0],"id":77,"left_children":[1,3,5,7,9,11,-1,-1,-1,-1,-1,-1,-1],"loss_changes":[1.3063332E0,1.8214828E0,2.8186147E0,3.7272396E0,2.8277545E0,2.53651E0,0E0,0E0,0E0,0E0,0E0,0E0,0E0],"parents":[2147483647,0,0,1,1,2,2,3,3,4,4,5,5],"right_children":[2,4,6,8,10,12,-1,-1,-1,-1,-1,-1,-1],"split_conditions":[1.5E0,1.5E0,5.75E1,3.6454697E0,8.722232E3,6.3904473E3,-7.099185E-2,2.9822797E-2,-4.501007E-2,2.9617662E-2,-1.5113041E-2,-2.4332983E-2,7.411714E-2],"split_indices":[4,5,6,3,8,8,0,0,0,0,0,0,0],"split_type":[0,0,0,0,0,0,0,0,0,0,0,0,0],"sum_hessian":[9.940105E1,8.69069E1,1.2494153E1,3.162303E1,5.5283867E1,1.093537E1,1.5587826E0,8.379605E0,2.3243423E1,2.4461948E1,3.0821918E1,3.1516294E0,7.7837405E0],"tree_param":{"num_deleted":"0","num_feature":"9","num_nodes":"13","size_leaf_vector":"0"}},{"base_weights":[-1.6064486E-2,1.4027152E-2,-4.3802142E-1,1.4221166E-1,-1.0378138E-1,-7.77937E-1,9.7928844E-2,3.9756715E-2,1.5970207E0,6.005886E-2,-3.5103014E-1,-5.4985976E-1,6.672567E-1],"categories":[],"categories_nodes":[],"categories_segments":[],"categories_sizes":[],"default_left":[1,1,1,1,1,0,1,0,0,0,0,0,0],"id":78,"left_children":[1,3,5,7,9,-1,11,-1,-1,-1,-1,-1,-1],"loss_changes":[1.2774106E0,1.440687E0,1.296004E0,6.739675E0,2.0377097E0,0E0,1.6528293E0,0E0,0E0,0E0,0E0,0E0,0E0],"parents":[2147483647,0,0,1,1,2,2,3,3,4,4,6,6],"right_children":[2,4,6,8,10,-1,12,-1,-1,-1,-1,-1,-1],"split_conditions":[4.5E0,4.172313E4,4.65E1,4.0764125E4,4.35E1,-7.77937E-2,5E-1,3.9756717E-3,1.5970208E-1,6.005886E-3,-3.5103016E-2,-5.4985978E-2,6.672567E-2],"split_indices":[2,1,6,1,6,0,4,0,0,0,0,0,0],"split_type":[0,0,0,0,0,0,0,0,0,0,0,0,0],"sum_hessian":[9.9120415E1,9.3424644E1,5.6957726E0,4.4642796E1,4.878185E1,3.209012E0,2.4867606E0,4.266541E1,1.9773841E0,2.9795107E1,1.898674E1,1.1792219E0,1.3075389E0],"tree_param":{"num_deleted":"0","num_feature":"9","num_nodes":"13","size_leaf_vector":"0"}},{"base_weights":[-1.426148E-2,1.2902534E-2,-4.7448966E-1,4.230476E-2,-4.729291E-1,-7.508811E-1,1.125664E-1,-3.3220714E-1,9.42679E-2,-7.8760767E-1,4.3995547E-1],"categories":[],"categories_nodes":[],"categories_segments":[],"categories_sizes":[],"default_left":[1,1,1,1,1,0,0,0,0,0,0],"id":79,"left_children":[1,3,5,7,9,-1,-1,-1,-1,-1,-1],"loss_changes":[1.2545719E0,1.3809043E0,9.918934E-1,1.7974218E0,1.931873E0,0E0,0E0,0E0,0E0,0E0,0E0],"parents":[2147483647,0,0,1,1,2,2,3,3,4,4],"right_children":[2,4,6,8,10,-1,-1,-1,-1,-1,-1],"split_conditions":[1.95E1,9.53369E0,1.2066729E4,7.1666924E3,5.35E1,-7.5088106E-2,1.125664E-2,-3.3220716E-2,9.42679E-3,-7.8760765E-2,4.3995548E-2],"split_indices":[0,3,8,1,6,0,0,0,0,0,0],"split_type":[0,0,0,0,0,0,0,0,0,0,0],"sum_hessian":[9.8862854E1,9.427068E1,4.592167E0,8.975188E1,4.5188055E0,2.9324706E0,1.6596965E0,1.0278551E1,7.947333E1,3.4624894E0,1.0563159E0],"tree_param":{"num_deleted":"0","num_feature":"9","num_nodes":"11","size_leaf_vector":"0"}},{"base_weights":[-1.4326715E-2,4.712009E-3,-6.6460603E-1,-1.6684266E-2,5.85898E-1,3.3499796E-2,-3.4736237E-1,1.2167027E0,-2.1161179E-1],"categories":[],"categories_nodes":[],"categories_segments":[],"categories_sizes":[],"default_left":[1,1,0,1,1,0,0,0,0],"id":80,"left_children":[1,3,-1,5,7,-1,-1,-1,-1],"loss_changes":[1.2393428E0,1.2284793E0,0E0,1.5963817E0,2.0220408E0,0E0,0E0,0E0,0E0],"parents":[2147483647,0,0,1,1,3,3,4,4],"right_children":[2,4,-1,6,8,-1,-1,-1,-1],"split_conditions":[1.0233619E5,9.7951375E4,-6.64606E-2,7.617361E4,2.55E1,3.3499796E-3,-3.473624E-2,1.2167027E-1,-2.116118E-2],"split_indices":[1,1,0,1,6,0,0,0,0],"split_type":[0,0,0,0,0,0,0,0,0],"sum_hessian":[9.885157E1,9.700426E1,1.8473138E0,9.4496666E1,2.507588E0,8.282565E1,1.1671017E1,1.1066422E0,1.4009457E0],"tree_param":{"num_deleted":"0","num_feature":"9","num_nodes":"9","size_leaf_vector":"0"}},{"base_weights":[-1.3046459E-2,2.7727451E-2,-2.9410067E-1,-9.0334505E-2,3.3047166E-1,-6.214181E-1,2.9557896E-1,8.9888275E-2,-4.5701995E-1,5.80378E-1,-7.09901E-1,2.098584E-1,-7.611159E-1,1.1112142E0,-4.4980407E-1],"categories":[],"categories_nodes":[],"categories_segments":[],"categories_sizes":[],"default_left":[1,1,1,1,1,1,1,0,0,0,0,0,0,0,0],"id":81,"left_children":[1,3,5,7,9,11,13,-1,-1,-1,-1,-1,-1,-1,-1],"loss_changes":[1.1503162E0,3.1735666E0,2.6375499E0,4.2746925E0,6.883628E0,1.1465595E0,3.670769E0,0E0,0E0,0E0,0E0,0E0,0E0,0E0,0E0],"parents":[2147483647,0,0,1,1,2,2,3,3,4,4,5,5,6,6],"right_children":[2,4,6,8,10,12,14,-1,-1,-1,-1,-1,-1,-1,-1],"split_conditions":[1.5384186E4,1.1411525E4,1.8345895E4,8.722232E3,3.55E1,2.4827733E0,5.5E0,8.9888275E-3,-4.5701995E-2,5.80378E-2,-7.09901E-2,2.098584E-2,-7.611159E-2,1.11121416E-1,-4.4980407E-2],"split_indices":[8,8,8,8,7,3,0,0,0,0,0,0,0,0,0],"split_type":[0,0,0,0,0,0,0,0,0,0,0,0,0,0,0],"sum_hessian":[9.866785E1,8.695431E1,1.1713542E1,6.3063057E1,2.389125E1,7.4978414E0,4.2157006E0,4.2787987E1,2.027507E1,1.9620407E1,4.2708435E0,1.0064852E0,6.491356E0,1.7786343E0,2.4370663E0],"tree_param":{"num_deleted":"0","num_feature":"9","num_nodes":"15","size_leaf_vector":"0"}},{"base_weights":[-1.3008309E-2,1.5146356E-2,-4.2131725E-1,-1.0061902E-2,5.599987E-1,-7.680327E-1,1.0204612E-1,4.8825115E-2,-3.368333E-1,-1.7043142E-1,1.4026599E0,-5.3641325E-1,6.3395125E-1],"categories":[],"categories_nodes":[],"categories_segments":[],"categories_sizes":[],"default_left":[1,1,1,1,1,0,1,0,0,0,0,0,0],"id":82,"left_children":[1,3,5,7,9,-1,11,-1,-1,-1,-1,-1,-1],"loss_changes":[1.1518452E0,1.2991717E0,1.2510006E0,1.7674717E0,2.8132887E0,0E0,1.5143404E0,0E0,0E0,0E0,0E0,0E0,0E0],"parents":[2147483647,0,0,1,1,2,2,3,3,4,4,6,6],"right_children":[2,4,6,8,10,-1,12,-1,-1,-1,-1,-1,-1],"split_conditions":[4.5E0,5.5E0,1.2027658E4,3.5E0,3.95E1,-7.6803274E-2,4.65E1,4.8825117E-3,-3.368333E-2,-1.7043142E-2,1.4026599E-1,-5.3641327E-2,6.339513E-2],"split_indices":[2,5,8,2,6,0,6,0,0,0,0,0,0],"split_type":[0,0,0,0,0,0,0,0,0,0,0,0,0],"sum_hessian":[9.864193E1,9.317969E1,5.4622374E0,8.999738E1,3.1823063E0,3.004401E0,2.4578366E0,7.69762E1,1.3021189E1,2.1320033E0,1.0503029E0,1.1131812E0,1.3446554E0],"tree_param":{"num_deleted":"0","num_feature":"9","num_nodes":"13","size_leaf_vector":"0"}},{"base_weights":[-1.1743636E-2,6.235871E-3,-6.49399E-1,3.1534296E-2,-4.42616E-1,5.8839858E-2,-4.4156915E-1,-7.298768E-1,1.2042679E-1],"categories":[],"categories_nodes":[],"categories_segments":[],"categories_sizes":[],"default_left":[1,1,0,1,1,0,0,0,0],"id":83,"left_children":[1,3,-1,5,7,-1,-1,-1,-1],"loss_changes":[1.1445155E0,1.1238035E0,0E0,1.2332957E0,9.4210756E-1,0E0,0E0,0E0,0E0],"parents":[2147483647,0,0,1,1,3,3,4,4],"right_children":[2,4,-1,6,8,-1,-1,-1,-1],"split_conditions":[1.0233619E5,1.95E1,-6.49399E-2,9.53369E0,1.2066729E4,5.8839857E-3,-4.4156916E-2,-7.298768E-2,1.2042679E-2],"split_indices":[1,0,0,3,8,0,0,0,0],"split_type":[0,0,0,0,0,0,0,0,0],"sum_hessian":[9.847606E1,9.673861E1,1.737448E0,9.245723E1,4.281378E0,8.824001E1,4.217217E0,2.6387808E0,1.6425971E0],"tree_param":{"num_deleted":"0","num_feature":"9","num_nodes":"9","size_leaf_vector":"0"}},{"base_weights":[-1.2376553E-2,-3.543897E-2,4.6531898E-1,7.59911E-2,-1.6083136E-1,1.2895125E0,-1.555323E-1,-1.3785228E-2,5.779041E-1,3.9775178E-1,-2.6152718E-1,4.0084147E-1,-6.4891195E-1],"categories":[],"categories_nodes":[],"categories_segments":[],"categories_sizes":[],"default_left":[1,1,1,1,1,0,1,0,0,0,0,0,0],"id":84,"left_children":[1,3,5,7,9,-1,11,-1,-1,-1,-1,-1,-1],"loss_changes":[1.1122932E0,1.3509911E0,2.5808415E0,2.3245387E0,2.657848E0,0E0,1.233364E0,0E0,0E0,0E0,0E0,0E0,0E0],"parents":[2147483647,0,0,1,1,2,2,3,3,4,4,6,6],"right_children":[2,4,6,8,10,-1,12,-1,-1,-1,-1,-1,-1],"split_conditions":[2.5E0,4.5398582E4,2.55E1,4.0764125E4,4.490641E3,1.2895125E-1,3.55E1,-1.3785228E-3,5.779041E-2,3.9775178E-2,-2.6152719E-2,4.008415E-2,-6.48912E-2],"split_indices":[4,1,7,1,8,0,6,0,0,0,0,0,0],"split_type":[0,0,0,0,0,0,0,0,0,0,0,0,0],"sum_hessian":[9.84664E1,9.48147E1,3.6516974E0,5.0410942E1,4.440376E1,1.106194E0,2.5455034E0,4.3587124E1,6.82382E0,6.3314886E0,3.807227E1,1.284528E0,1.2609754E0],"tree_param":{"num_deleted":"0","num_feature":"9","num_nodes":"13","size_leaf_vector":"0"}},{"base_weights":[-9.771828E-3,6.8714567E-3,-6.292987E-1,-2.3284182E-2,3.83618E-1,3.069971E-2,-5.5804425E-1,7.1119064E-1,-5.877979E-1],"categories":[],"categories_nodes":[],"categories_segments":[],"categories_sizes":[],"default_left":[1,1,0,1,1,0,0,0,0],"id":85,"left_children":[1,3,-1,5,7,-1,-1,-1,-1],"loss_changes":[1.0267267E0,1.117223E0,0E0,2.6518123E0,2.736772E0,0E0,0E0,0E0,0E0],"parents":[2147483647,0,0,1,1,3,3,4,4],"right_children":[2,4,-1,6,8,-1,-1,-1,-1],"split_conditions":[1.0233619E5,9.031747E4,-6.292987E-2,7.617361E4,6.30955E0,3.069971E-3,-5.5804428E-2,7.111906E-2,-5.8779787E-2],"split_indices":[1,1,0,1,3,0,0,0,0],"split_type":[0,0,0,0,0,0,0,0,0],"sum_hessian":[9.815685E1,9.655194E1,1.604912E0,9.0265114E1,6.2868257E0,8.2844574E1,7.420546E0,4.9017735E0,1.3850521E0],"tree_param":{"num_deleted":"0","num_feature":"9","num_nodes":"9","size_leaf_vector":"0"}},{"base_weights":[-1.0099819E-2,-1.4124979E-1,6.69929E-2,-4.7749883E-1,2.421391E-1,1.398947E-1,-4.2221144E-1,2.2852404E-1,-6.368897E-1,-4.7145188E-2,9.4249237E-1,-2.0021646E-1,2.5069568E-1,3.3566365E-1,-5.986135E-1],"categories":[],"categories_nodes":[],"categories_segments":[],"categories_sizes":[],"default_left":[1,1,1,1,1,1,1,0,0,0,0,0,0,0,0],"id":86,"left_children":[1,3,5,7,9,11,13,-1,-1,-1,-1,-1,-1,-1,-1],"loss_changes":[1.0112662E0,4.88583E0,2.3087575E0,2.401833E0,3.6817498E0,2.1473594E0,1.3279498E0,0E0,0E0,0E0,0E0,0E0,0E0,0E0,0E0],"parents":[2147483647,0,0,1,1,2,2,3,3,4,4,5,5,6,6],"right_children":[2,4,6,8,10,12,14,-1,-1,-1,-1,-1,-1,-1,-1],"split_conditions":[1.5E0,5E-1,1.55E1,4.4150947E3,3.45E1,3.9750776E0,2.45E1,2.2852404E-2,-6.368897E-2,-4.714519E-3,9.424924E-2,-2.0021645E-2,2.5069568E-2,3.3566367E-2,-5.986135E-2],"split_indices":[5,4,0,8,7,3,7,0,0,0,0,0,0,0,0],"split_type":[0,0,0,0,0,0,0,0,0,0,0,0,0,0,0],"sum_hessian":[9.808342E1,3.6002995E1,6.208043E1,1.9049911E1,1.6953083E1,5.46504E1,7.43003E0,3.428705E0,1.5621206E1,1.2657517E1,4.295565E0,1.3230743E1,4.1419655E1,1.2324085E0,6.1976213E0],"tree_param":{"num_deleted":"0","num_feature":"9","num_nodes":"15","size_leaf_vector":"0"}},{"base_weights":[-9.511339E-3,2.790659E-2,-2.748987E-1,-8.604571E-2,2.882925E-1,-5.999592E-1,2.7258682E-1,7.845765E-2,-4.6849373E-1,4.689499E-1,-5.363752E-1,1.9823973E-1,-7.428422E-1,8.2820845E-1,-6.249099E-1],"categories":[],"categories_nodes":[],"categories_segments":[],"categories_sizes":[],"default_left":[1,1,1,1,1,1,1,0,0,0,0,0,0,0,0],"id":87,"left_children":[1,3,5,7,9,11,13,-1,-1,-1,-1,-1,-1,-1,-1],"loss_changes":[9.90684E-1,2.626027E0,2.3569112E0,3.9217267E0,4.261633E0,1.0648551E0,3.150056E0,0E0,0E0,0E0,0E0,0E0,0E0,0E0,0E0],"parents":[2147483647,0,0,1,1,2,2,3,3,4,4,5,5,6,6],"right_children":[2,4,6,8,10,12,14,-1,-1,-1,-1,-1,-1,-1,-1],"split_conditions":[1.5384186E4,1.1266168E4,1.8345895E4,8.722232E3,3.55E1,2.4827733E0,6.428422E0,7.845766E-3,-4.6849374E-2,4.6894994E-2,-5.3637523E-2,1.9823974E-2,-7.428422E-2,8.282085E-2,-6.249099E-2],"split_indices":[8,8,8,8,7,3,3,0,0,0,0,0,0,0,0],"split_type":[0,0,0,0,0,0,0,0,0,0,0,0,0,0,0],"sum_hessian":[9.799177E1,8.666711E1,1.1324664E1,6.07505E1,2.5916607E1,7.045606E0,4.2790575E0,4.3034718E1,1.7715782E1,2.1613213E1,4.3033934E0,1.0109009E0,6.034705E0,2.690578E0,1.5884794E0],"tree_param":{"num_deleted":"0","num_feature":"9","num_nodes":"15","size_leaf_vector":"0"}},{"base_weights":[-1.0072812E-2,1.5573294E-2,-3.9794588E-1,5.2960034E-2,-2.9815835E-1,-7.481102E-1,9.8160684E-2,-1.3375041E-2,4.3652892E-1,3.1248388E-1,-7.168028E-1,-5.1791596E-1,5.7978296E-1],"categories":[],"categories_nodes":[],"categories_segments":[],"categories_sizes":[],"default_left":[1,1,1,1,1,0,1,0,0,0,0,0,0],"id":88,"left_children":[1,3,5,7,9,-1,11,-1,-1,-1,-1,-1,-1],"loss_changes":[9.908804E-1,1.1161472E0,1.1464705E0,2.1602385E0,2.8161535E0,0E0,1.3209307E0,0E0,0E0,0E0,0E0,0E0,0E0],"parents":[2147483647,0,0,1,1,2,2,3,3,4,4,6,6],"right_children":[2,4,6,8,10,-1,12,-1,-1,-1,-1,-1,-1],"split_conditions":[4.5E0,1.5727653E4,1.2027658E4,1.3354328E4,3.1201922E4,-7.481102E-2,4.65E1,-1.3375041E-3,4.3652892E-2,3.1248389E-2,-7.168028E-2,-5.1791597E-2,5.79783E-2],"split_indices":[2,8,8,8,1,0,6,0,0,0,0,0,0],"split_type":[0,0,0,0,0,0,0,0,0,0,0,0,0],"sum_hessian":[9.798866E1,9.281181E1,5.176853E0,8.367199E1,9.139822E0,2.7370281E0,2.439825E0,7.215799E1,1.1514E1,3.8206034E0,5.3192186E0,1.037425E0,1.4023999E0],"tree_param":{"num_deleted":"0","num_feature":"9","num_nodes":"13","size_leaf_vector":"0"}},{"base_weights":[-1.0088927E-2,-3.0641887E-1,2.2003653E-2,2.3514247E-1,-6.308189E-1,1.7803554E-1,-9.92837E-2,-2.995154E-1,8.14947E-1,-3.5666935E-2,-8.22131E-1,7.646774E-2,